tree
version=v4
num_class=1
num_tree_per_iteration=1
label_index=0
max_feature_idx=47
objective=regression
feature_names=Column_0 Column_1 Column_2 Column_3 Column_4 Column_5 Column_6 Column_7 Column_8 Column_9 Column_10 Column_11 Column_12 Column_13 Column_14 Column_15 Column_16 Column_17 Column_18 Column_19 Column_20 Column_21 Column_22 Column_23 Column_24 Column_25 Column_26 Column_27 Column_28 Column_29 Column_30 Column_31 Column_32 Column_33 Column_34 Column_35 Column_36 Column_37 Column_38 Column_39 Column_40 Column_41 Column_42 Column_43 Column_44 Column_45 Column_46 Column_47
feature_infos=[0.22412499999999999:0.87145833333333333] [4.1651666666666669:9.0553333333333317] [0.71083333333333332:0.97224999999999995] [0.68679166666666669:0.81541666666666668] [586.11250000000007:726.67916666666667] [2.9161666666666668:4.3062916666666666] [0.15195833333333331:0.40699999999999997] [0.093458333333333296:0.26729166666666659] [0.11175:0.33620833333333339] [0.25587500000000002:0.47899999999999998] [6.1583333333333341:10.262499999999999] [2014:2022] [1:12] [1:31] [0:6] [1:366] [78:247] [68:247] [67:247] [55:247] [87:207.85714285714286] [3.2513733362133173:26.409774525281236] [68:197] [111:247] [84.571428571428569:202.21428571428572] [5.8201053576059394:22.412834823715951] [67:188] [112:247] [76.5:199.10714285714286] [7.9834484864285979:19.336069866537002] [55:179] [112:247] [11670.5:42673.300000000003] [10768:42673.300000000003] [10768:42673.300000000003] [8408.2999999999993:42673.300000000003] [14194.571428571429:33985.099999999999] [457.93443853946388:4902.1459225236003] [10768:32707.900000000001] [17961.900000000001:42673.300000000003] [13711.678571428571:33478.750000000007] [695.898598500866:3689.6466656900134] [10768:30752.200000000001] [17961.900000000001:42673.300000000003] [12254.514285714287:32898.932142857142] [1013.3944368794588:3363.4574495874308] [8408.2999999999993:29197.5] [17961.900000000001:42673.300000000003]
tree_sizes=2621 2711

Tree=0
num_leaves=31
num_cat=0
split_feature=23 20 15 46 19 0 29 35 8 37 20 4 19 42 20 22 41 30 35 46 43 2 33 41 28 7 19 5 17 19
split_gain=289171 13177.9 12757.3 1890.91 1842.25 1780.22 1565.94 2057.88 1749.6 2794.83 1801.8 1738.45 2659.1 1768.56 1733.01 2096.7 1822.91 1457.35 1400.18 3901.8 1373.49 2337.7 1368.19 1346.23 1437.13 1343.89 1330.47 1357.64 1311.17 1273.42
threshold=170.50000000000003 175.78571428571431 76.500000000000014 27275.000000000004 199.50000000000003 0.35552083333333334 15.931462803648769 23335.750000000004 0.18085416666666668 2731.4190301768167 186.78571428571431 646.44375000000002 198.50000000000003 28924.750000000004 194.21428571428575 189.50000000000003 2781.4466362443522 163.50000000000003 30305.900000000005 25198.600000000002 28514.500000000004 0.94779166666666681 22475.100000000002 2100.6863890088734 191.76785714285717 0.18214583333333331 199.50000000000003 4.014708333333334 196.50000000000003 197.50000000000003
decision_type=2 2 2 2 2 2 2 2 2 2 2 2 2 2 2 2 2 2 2 2 2 2 2 2 2 2 2 2 2 2
left_child=2 -2 -1 6 17 -4 8 -8 9 10 -3 12 -10 14 16 20 25 -5 19 -12 21 -16 -14 24 -22 -13 27 -23 -28 -26
right_child=1 3 5 4 -6 -7 7 -9 11 -11 18 13 22 -15 15 -17 -18 -19 -20 -21 23 26 -24 -25 29 -27 28 -29 -30 -31
leaf_value=186.00835717574779 188.68809575384424 190.2152729390194 187.00326667801022 190.02142909625624 189.40119849323341 187.62222272196627 189.36804157066135 189.76116544846752 190.02999011690744 190.41329417735977 189.86590565876736 189.84198156342799 189.49365132111794 190.10079417679214 190.28615131783275 190.09203842141341 190.22142909236538 189.65835720582558 190.07765132427005 189.19765131902483 189.76089270744029 189.3269846519608 189.89024223032382 189.68890448528316 189.20874565759033 189.68250846719531 190.21183314164992 189.72815836335192 189.67191219613133 189.63595901779735
leaf_weight=34 27 37 26 36 53 21 41 177 183 28 173 539 43 42 20 31 27 119 50 25 29 30 44 158 53 175 22 71 23 26
leaf_count=34 27 37 26 36 53 21 41 177 183 28 173 539 43 42 20 31 27 119 50 25 29 30 44 158 53 175 22 71 23 26
internal_value=189.682 189.786 186.746 189.799 189.656 187.28 189.814 189.687 189.829 189.937 189.89 189.807 189.922 189.782 189.771 189.695 189.818 189.743 189.841 189.782 189.666 189.779 189.694 189.596 189.46 189.803 189.71 189.609 189.936 189.349
internal_weight=2363 2282 81 2255 208 47 2047 218 1829 313 285 1516 270 1246 1204 463 741 155 248 198 432 166 87 266 108 714 146 101 45 79
internal_count=2363 2282 81 2255 208 47 2047 218 1829 313 285 1516 270 1246 1204 463 741 155 248 198 432 166 87 266 108 714 146 101 45 79
is_linear=0
shrinkage=1


Tree=1
num_leaves=31
num_cat=0
split_feature=23 20 15 22 46 8 37 34 8 35 46 35 42 4 29 21 6 34 6 29 6 34 8 39 22 9 6 3 10 6
split_gain=260977 11893.1 11892.8 2952.66 1725.78 1597.73 1677.01 2134.45 1895.53 1639.79 1594.79 1454.22 1451.9 1537.6 2378.76 1705.89 1683.78 1481.92 1456.7 1542.73 1401.53 1334.49 1328.26 1317.05 1314.27 2032.23 1819.98 1842.81 2007.02 1544.93
threshold=170.50000000000003 175.78571428571431 58.500000000000007 120.50000000000001 27081.650000000005 0.18085416666666668 2236.9115167130039 26512.650000000005 0.16764583333333333 30305.900000000005 25022.250000000004 34198.350000000013 28924.750000000004 646.44375000000002 12.338453454742478 8.2259751195028628 0.20406249999999998 21097.450000000001 0.32318750000000002 13.138356030609485 0.26050000000000001 20907.350000000002 0.1588125 23269.000000000004 173.50000000000003 0.34639583333333335 0.27835416666666674 0.72102083333333344 7.7937500000000011 0.30225000000000007
decision_type=2 2 2 2 2 2 2 2 2 2 2 2 2 2 2 2 2 2 2 2 2 2 2 2 2 2 2 2 2 2
left_child=2 -2 -1 -4 5 6 9 -8 -9 10 22 -6 13 14 23 -15 -17 -16 21 -20 -19 -18 -3 -7 25 26 27 -23 -29 -28
right_child=1 4 3 -5 11 12 7 8 -10 -11 -12 -13 -14 15 17 16 18 20 19 -21 -22 24 -24 -25 -26 -27 29 28 -30 -31
leaf_value=-3.8429177570343018 -0.93996032818599984 0.39507379179320684 -2.7377478245326454 -2.0343174897707423 0.03798845023813105 0.048571149869821972 0.83687083098021431 0.03049967109392851 0.51458365695462349 0.45716870483991345 -0.32493851821869613 -0.34713213245073954 0.39890946342154993 0.24546830065016234 -0.12724341821670535 -0.20680404795067653 -0.16410962265729906 0.10541211534682818 0.16881901472806932 -0.37043207705848746 0.46941444777390534 0.12111939015211884 0.06867630971738925 0.50397540484736492 0.038629871006867558 0.24123180421018922 0.33166554826710909 0.12517264144761223 -0.4711642617749614 -0.049119922068229946
leaf_weight=20 27 41 35 26 266 20 22 39 42 38 20 27 43 140 50 56 50 119 21 36 34 54 130 77 457 296 70 21 43 43
leaf_count=20 27 41 35 26 266 20 22 39 42 38 20 27 43 140 50 56 50 119 21 36 34 54 130 77 457 296 70 21 43 43
internal_value=0.00420127 0.103199 -2.78484 -2.43793 0.115689 0.132592 0.232569 0.400128 0.281506 0.157203 0.0975245 0.00249952 0.112229 0.104461 0.206398 0.0806998 0.0605885 0.109074 0.0743135 -0.171761 0.186302 0.0878786 0.146935 0.410078 0.100683 0.154493 0.0433482 -0.0939914 -0.275491 0.186765
internal_weight=2363 2282 81 61 2255 1962 332 103 81 229 191 293 1630 1587 300 1287 1147 203 1091 57 153 1034 171 97 984 527 231 118 64 113
internal_count=2363 2282 81 61 2255 1962 332 103 81 229 191 293 1630 1587 300 1287 1147 203 1091 57 153 1034 171 97 984 527 231 118 64 113
is_linear=0
shrinkage=0.05


end of trees

feature_importances:
Column_6=5
Column_8=4
Column_19=4
Column_20=4
Column_35=4
Column_46=4
Column_22=3
Column_29=3
Column_34=3
Column_4=2
Column_15=2
Column_23=2
Column_37=2
Column_41=2
Column_42=2
Column_0=1
Column_2=1
Column_3=1
Column_5=1
Column_7=1
Column_9=1
Column_10=1
Column_17=1
Column_21=1
Column_28=1
Column_30=1
Column_33=1
Column_39=1
Column_43=1

parameters:
[boosting: gbdt]
[objective: regression]
[metric: l1]
[tree_learner: serial]
[device_type: cpu]
[data_sample_strategy: bagging]
[data: ]
[valid: ]
[num_iterations: 500]
[learning_rate: 0.05]
[num_leaves: 31]
[num_threads: 0]
[seed: 42]
[deterministic: 0]
[force_col_wise: 0]
[force_row_wise: 0]
[histogram_pool_size: -1]
[max_depth: -1]
[min_data_in_leaf: 20]
[min_sum_hessian_in_leaf: 0.001]
[bagging_fraction: 0.8]
[pos_bagging_fraction: 1]
[neg_bagging_fraction: 1]
[bagging_freq: 5]
[bagging_seed: 400]
[bagging_by_query: 0]
[feature_fraction: 0.8]
[feature_fraction_bynode: 1]
[feature_fraction_seed: 30056]
[extra_trees: 0]
[extra_seed: 12879]
[early_stopping_round: 0]
[early_stopping_min_delta: 0]
[first_metric_only: 0]
[max_delta_step: 0]
[lambda_l1: 0]
[lambda_l2: 0]
[linear_lambda: 0]
[min_gain_to_split: 0]
[drop_rate: 0.1]
[max_drop: 50]
[skip_drop: 0.5]
[xgboost_dart_mode: 0]
[uniform_drop: 0]
[drop_seed: 17869]
[top_rate: 0.2]
[other_rate: 0.1]
[min_data_per_group: 100]
[max_cat_threshold: 32]
[cat_l2: 10]
[cat_smooth: 10]
[max_cat_to_onehot: 4]
[top_k: 20]
[monotone_constraints: ]
[monotone_constraints_method: basic]
[monotone_penalty: 0]
[feature_contri: ]
[forcedsplits_filename: ]
[refit_decay_rate: 0.9]
[cegb_tradeoff: 1]
[cegb_penalty_split: 0]
[cegb_penalty_feature_lazy: ]
[cegb_penalty_feature_coupled: ]
[path_smooth: 0]
[interaction_constraints: ]
[verbosity: -1]
[saved_feature_importance_type: 0]
[use_quantized_grad: 0]
[num_grad_quant_bins: 4]
[quant_train_renew_leaf: 0]
[stochastic_rounding: 1]
[linear_tree: 0]
[max_bin: 255]
[max_bin_by_feature: ]
[min_data_in_bin: 3]
[bin_construct_sample_cnt: 200000]
[data_random_seed: 175]
[is_enable_sparse: 1]
[enable_bundle: 1]
[use_missing: 1]
[zero_as_missing: 0]
[feature_pre_filter: 1]
[pre_partition: 0]
[two_round: 0]
[header: 0]
[label_column: ]
[weight_column: ]
[group_column: ]
[ignore_column: ]
[categorical_feature: ]
[forcedbins_filename: ]
[precise_float_parser: 0]
[parser_config_file: ]
[objective_seed: 16083]
[num_class: 1]
[is_unbalance: 0]
[scale_pos_weight: 1]
[sigmoid: 1]
[boost_from_average: 1]
[reg_sqrt: 0]
[alpha: 0.9]
[fair_c: 1]
[poisson_max_delta_step: 0.7]
[tweedie_variance_power: 1.5]
[lambdarank_truncation_level: 30]
[lambdarank_norm: 1]
[label_gain: ]
[lambdarank_position_bias_regularization: 0]
[eval_at: ]
[multi_error_top_k: 1]
[auc_mu_weights: ]
[num_machines: 1]
[local_listen_port: 12400]
[time_out: 120]
[machine_list_filename: ]
[machines: ]
[gpu_platform_id: -1]
[gpu_device_id: -1]
[gpu_use_dp: 0]
[num_gpu: 1]

end of parameters

pandas_categorical:null
