tree
version=v4
num_class=1
num_tree_per_iteration=1
label_index=0
max_feature_idx=47
objective=regression
feature_names=Column_0 Column_1 Column_2 Column_3 Column_4 Column_5 Column_6 Column_7 Column_8 Column_9 Column_10 Column_11 Column_12 Column_13 Column_14 Column_15 Column_16 Column_17 Column_18 Column_19 Column_20 Column_21 Column_22 Column_23 Column_24 Column_25 Column_26 Column_27 Column_28 Column_29 Column_30 Column_31 Column_32 Column_33 Column_34 Column_35 Column_36 Column_37 Column_38 Column_39 Column_40 Column_41 Column_42 Column_43 Column_44 Column_45 Column_46 Column_47
feature_infos=[0.22412499999999999:0.87145833333333333] [4.1651666666666669:9.0553333333333317] [0.71083333333333332:0.97224999999999995] [0.68679166666666669:0.81541666666666668] [586.11250000000007:726.67916666666667] [2.9161666666666668:4.3062916666666666] [0.15195833333333331:0.40699999999999997] [0.093458333333333296:0.26729166666666659] [0.11175:0.33620833333333339] [0.25587500000000002:0.47899999999999998] [6.1583333333333341:10.262499999999999] [2014:2022] [1:12] [1:31] [0:6] [1:366] [78:247] [68:247] [67:247] [55:247] [87:207.85714285714286] [3.2513733362133173:26.409774525281236] [68:197] [111:247] [84.571428571428569:202.21428571428572] [5.8201053576059394:22.412834823715951] [67:188] [112:247] [76.5:199.10714285714286] [7.9834484864285979:19.336069866537002] [55:179] [112:247] [11670.5:42673.300000000003] [10768:42673.300000000003] [10768:42673.300000000003] [8408.2999999999993:42673.300000000003] [14194.571428571429:33985.099999999999] [457.93443853946388:4902.1459225236003] [10768:32707.900000000001] [17961.900000000001:42673.300000000003] [13711.678571428571:33478.750000000007] [695.898598500866:3689.6466656900134] [10768:30752.200000000001] [17961.900000000001:42673.300000000003] [12254.514285714287:32898.932142857142] [1013.3944368794588:3363.4574495874308] [8408.2999999999993:29197.5] [17961.900000000001:42673.300000000003]
tree_sizes=2611 2708 2703 2714 2721 2730 2734

Tree=0
num_leaves=31
num_cat=0
split_feature=20 28 33 0 0 25 0 43 35 21 7 29 22 35 25 7 22 20 33 33 26 7 7 35 21 33 39 23 22 22
split_gain=297986 14806 12763.3 2316.06 2088.31 2030.41 1765.28 1524.03 1912.53 1512.29 1721.23 1399.63 1420.72 1550.71 1890.11 1482.98 1407.92 1459 1378.46 1752.53 1414.45 1299.22 1487.82 1359.96 1298.5 1404.9 1296.04 1289.2 1432.65 1280.01
threshold=155.85714285714289 176.32142857142858 18804.350000000002 0.29297916666666673 0.28316666666666673 11.350678925653588 0.26991666666666669 34485.250000000007 26806.100000000002 12.365466505747552 0.14360416666666667 16.183614858159178 172.50000000000003 23498.700000000001 9.0275828838128991 0.20614583333333339 180.50000000000003 191.35714285714286 31080.150000000005 33728.950000000004 173.50000000000003 0.1902291666666667 0.19635416666666664 27147.200000000004 7.3208766859518839 23748.250000000004 35370.850000000006 206.50000000000003 177.50000000000003 179.50000000000003
decision_type=2 2 2 2 2 2 2 2 2 2 2 2 2 2 2 2 2 2 2 2 2 2 2 2 2 2 2 2 2 2
left_child=2 -2 -1 -4 5 6 -3 8 11 26 -11 12 -6 14 -14 27 17 -15 -7 20 -20 23 -23 -10 -25 -26 -9 28 -16 -12
right_child=1 4 3 -5 7 18 -8 9 21 10 29 -13 13 16 15 -17 -18 -19 19 -21 -22 22 -24 24 25 -27 -28 -29 -30 -31
leaf_value=185.5826374999946 188.70438203436788 190.16366521438442 186.55627390784679 187.21806883857383 189.83629948536603 189.27752390581384 189.52960724647357 189.89890548755096 189.34466100469788 190.07682947245064 189.75499483913802 189.53546309952085 190.13198820199088 189.53064891006798 189.84627390629279 189.50553316775176 189.49499186087206 189.83192205899999 189.86490136124058 189.28415269738727 189.36877390725073 189.08675009957184 189.57369326172892 189.39484533416174 190.10081935583574 189.6900883419917 190.35127391932068 189.85650646714376 189.44831472899034 189.40595132828795
leaf_weight=22 37 23 20 39 391 56 21 76 31 36 172 74 35 64 42 54 117 108 51 33 20 21 62 35 22 388 20 215 49 31
leaf_count=22 37 23 20 39 391 56 21 76 31 36 172 74 35 64 42 54 117 108 51 33 20 21 62 35 22 388 20 215 49 31
internal_value=189.591 189.696 186.61 186.994 189.713 189.56 189.861 189.728 189.709 189.826 189.758 189.746 189.76 189.717 189.781 189.747 189.629 189.72 189.478 189.585 189.725 189.633 189.45 189.665 189.687 189.712 189.993 189.79 189.632 189.702
internal_weight=2365 2284 81 59 2247 204 44 2043 1708 335 239 1149 1075 684 395 360 289 172 160 104 71 559 83 476 445 410 96 306 91 203
internal_count=2365 2284 81 59 2247 204 44 2043 1708 335 239 1149 1075 684 395 360 289 172 160 104 71 559 83 476 445 410 96 306 91 203
is_linear=0
shrinkage=1


Tree=1
num_leaves=31
num_cat=0
split_feature=20 24 33 44 22 10 47 20 20 37 41 20 46 19 21 24 29 15 9 2 37 6 40 3 25 10 5 20 10 17
split_gain=268932 13313.7 11518.8 1964.86 1908.44 1772.23 1651.35 1647.61 1523.24 2203.18 3297.61 1255.48 1132.79 2051.97 1381.12 1419.81 2507.18 1706.03 1517.45 1962.65 1978.24 1781.24 1914.06 2145.11 1721.61 1660.29 1960.75 1709.27 1645.98 1635.71
threshold=155.85714285714289 180.07142857142858 18804.350000000002 22001.791071428579 123.00000000000001 8.7979166666666675 25465.050000000003 184.92857142857147 184.6428571428572 2426.1666691412788 2186.7388517372401 182.6428571428572 28178.800000000007 186.50000000000003 7.3208766859518839 197.32142857142858 15.629705603381465 44.500000000000007 0.34968749999999998 0.88489583333333355 1149.2975346102583 0.31827083333333339 30520.689285714288 0.72372916666666676 11.350678925653588 8.3604166666666675 3.4289583333333336 196.6428571428572 7.6854166666666677 177.50000000000003
decision_type=2 2 2 2 2 2 2 2 2 2 2 2 2 2 2 2 2 2 2 2 2 2 2 2 2 2 2 2 2 2
left_child=2 -2 -1 6 -4 8 -3 -7 9 10 11 -5 14 -14 -10 18 17 -17 21 -20 24 25 23 -23 -21 26 -16 -28 -29 -27
right_child=1 3 4 5 -6 7 -8 -9 12 -11 -12 -13 13 -15 15 16 -18 -19 19 20 -22 22 -24 -25 -26 29 27 28 -30 -31
leaf_value=-3.7927681316028945 -0.80054514083342676 0.19991260382464562 -2.687709290640695 0.59541060786162114 -2.1088200410207114 -0.16449472563607354 0.52851426114841382 0.30297747812962728 -0.088915594565240966 0.61122106839628787 -0.29100194841623311 0.14899908912678558 -0.49625211850456569 0.076226851982729771 -0.40328244924545287 0.46353151372500828 -0.4800060267801638 -0.043505563483208047 0.43591725437436257 0.7635568211907926 0.12070770989742972 0.33863707460237275 0.48757968774686261 -0.25637185158474102 0.19643099531531336 -0.51705358461900197 0.15403159980312922 0.17835588054410345 -0.3068416222591292 -0.045474040694534784
leaf_weight=22 39 174 35 28 24 21 49 184 95 34 30 36 23 49 20 21 27 79 64 23 620 33 48 28 32 22 320 29 44 112
leaf_count=22 39 174 35 28 24 21 49 184 95 34 30 36 23 49 20 21 27 79 64 23 620 33 48 28 32 22 320 29 44 112
internal_value=0.0149442 0.115353 -2.81633 0.131264 -2.45223 0.115729 0.272117 0.25509 0.100006 0.266304 0.141547 0.344304 0.0874034 -0.106648 0.096044 0.107589 -0.0524641 0.0629722 0.12216 0.171292 0.146202 0.0668108 0.25138 0.0655182 0.433593 0.030032 0.0796507 0.104227 -0.114092 -0.122898
internal_weight=2365 2284 81 2245 59 2022 223 205 1817 128 94 64 1689 72 1617 1522 127 100 1395 739 675 656 109 61 55 547 413 393 73 134
internal_count=2365 2284 81 2245 59 2022 223 205 1817 128 94 64 1689 72 1617 1522 127 100 1395 739 675 656 109 61 55 547 413 393 73 134
is_linear=0
shrinkage=0.05


Tree=2
num_leaves=31
num_cat=0
split_feature=20 28 33 44 22 10 11 25 19 47 1 1 35 20 37 25 18 28 29 24 25 3 9 35 20 33 6 25 37 22
split_gain=242711 12129 10395.8 1781.87 1722.37 1607.77 1584.1 1735.13 1604.77 1490.35 1414.03 1275.43 1425.06 1207 2121.05 2927.13 1762.39 1427.17 1212.1 1488.3 1363.72 2279.17 1876.33 1804.06 1718.44 1692.29 1657.05 1522.2 1413.17 1310.5
threshold=155.85714285714289 176.32142857142858 18804.350000000002 22001.791071428579 123.00000000000001 8.7979166666666675 2017.5000000000002 15.449136643755811 195.50000000000003 25465.050000000003 7.8708750000000007 7.9952083333333341 27252.500000000004 184.6428571428572 2426.1666691412788 13.834977082850704 162.50000000000003 190.23214285714289 15.767448444696727 197.46428571428575 13.459136363391218 0.72422916666666681 0.34741666666666671 22586.900000000005 194.78571428571431 29060.200000000004 0.31827083333333339 11.220321004161251 1181.7942816674333 185.50000000000003
decision_type=2 2 2 2 2 2 2 2 2 2 2 2 2 2 2 2 2 2 2 2 2 2 2 2 2 2 2 2 2 2
left_child=2 -2 -1 9 -4 13 11 8 -8 10 -3 12 -7 14 15 -5 -15 -17 20 -20 23 26 25 27 -25 -23 -22 -18 -26 -30
right_child=1 3 4 5 -6 6 7 -9 -10 -11 -12 -13 -14 16 -16 17 18 -19 19 -21 21 22 -24 24 28 -27 -28 -29 29 -31
leaf_value=-3.6031299244273791 -0.78832866742804253 0.41127362046756 -2.5533238928658624 0.35181007819217552 -2.0033791224161788 0.56147610519243318 0.37916263103485109 -0.23691339948429513 -0.054933312423809458 0.50208856195819629 0.098134944557659032 0.66231051491152859 0.045500253855425402 0.51797270243582527 0.58066001665942812 -0.50481854841113094 0.39972687891078373 0.092502112537622458 0.017048762320132738 -0.37510836539523945 0.2024894510926738 -0.37177552708492773 0.16853202791263661 0.071320684633299825 -0.44225743404374679 0.03381455307421477 0.60391733179733698 0.077010505944062238 -0.12055081164796058 0.19350689620126127
leaf_weight=22 37 51 35 57 24 23 60 26 33 49 123 31 32 23 34 20 63 20 178 28 314 41 120 522 26 69 28 87 146 43
leaf_count=22 37 51 35 57 24 23 60 26 33 49 123 31 32 23 34 20 63 20 178 28 314 41 120 522 26 69 28 87 146 43
internal_value=0.014197 0.109585 -2.67551 0.12437 -2.32962 0.109591 0.242336 0.124178 0.225129 0.258511 0.189917 0.405832 0.261272 0.094631 0.240834 0.12172 0.0832846 -0.206158 0.0772799 -0.0362541 0.0933101 0.153506 0.0318011 0.0544913 0.0223217 -0.11736 0.235355 0.212551 -0.0966433 -0.0490985
internal_weight=2365 2284 81 2247 59 2024 205 119 93 223 174 86 55 1819 131 97 1688 40 1665 206 1459 572 230 887 737 110 342 150 215 189
internal_count=2365 2284 81 2247 59 2024 205 119 93 223 174 86 55 1819 131 97 1688 40 1665 206 1459 572 230 887 737 110 342 150 215 189
is_linear=0
shrinkage=0.05


Tree=3
num_leaves=31
num_cat=0
split_feature=24 24 33 0 25 0 0 44 10 31 11 23 17 29 0 45 32 21 37 33 47 13 1 33 33 33 26 2 2 10
split_gain=218556 13550.3 8210.57 1774.24 1790.06 1578.47 1333.51 1303.07 1412.42 1649.89 1804.02 1588.36 1600.69 1396.61 1414.78 1396.28 1708.99 1371.05 1476.61 2246.6 1345.04 1306.19 1276.16 1221.6 1196.43 1527.44 1203.79 1149.73 1375.46 1163.58
threshold=142.67857142857147 178.17857142857144 18804.350000000002 0.28316666666666673 11.350678925653588 0.26991666666666669 0.29297916666666673 22001.791071428579 8.8354166666666689 218.50000000000003 2018.5000000000002 226.50000000000003 178.50000000000003 15.767448444696727 0.63685416666666683 2520.6175549788272 31928.200000000001 7.3208766859518839 1149.2975346102583 24411.150000000005 25465.050000000003 13.500000000000002 7.8708750000000007 28773.300000000003 31080.150000000005 33728.950000000004 173.50000000000003 0.87664583333333346 0.8821041666666668 7.4729166666666673
decision_type=2 2 2 2 2 2 2 2 2 2 2 2 2 2 2 2 2 2 2 2 2 2 2 2 2 2 2 2 2 2
left_child=2 -2 -1 4 5 -3 -4 20 11 21 23 13 -13 15 -15 17 -17 -9 19 -19 22 -10 -5 -11 -6 26 -26 -20 -29 -30
right_child=1 3 6 7 24 -7 -8 8 9 10 -12 12 -14 14 -16 16 -18 18 27 -21 -22 -23 -24 -25 25 -27 -28 28 29 -31
leaf_value=-3.422973294691606 -0.83463782025010969 0.5454612034170524 -2.6057619524002078 0.39070995888289284 -0.28713251807327783 -0.054109582730701988 -2.0939613124302454 -0.10181741204606481 0.15806736822786005 0.10052398358439577 -0.15120155241732536 0.67758579741824754 0.18864450305700303 0.091776388322750299 -0.19645844658836722 0.17351224397102163 0.66858741459639182 0.45179030454431013 0.37947841093820683 -0.15420692294836047 0.47698413072039891 0.58144097066275324 0.093228197031147111 0.60847150852903731 0.2590881400358151 -0.28154103855292001 -0.19860505282878876 -0.25551290059911796 -0.0067140628256949419 0.12063365282300378
leaf_weight=22 38 23 20 51 56 21 35 83 29 29 38 22 70 91 80 72 23 65 34 20 49 49 123 20 51 33 20 29 228 841
leaf_count=22 38 23 20 51 56 21 35 83 29 29 38 22 70 91 80 72 23 65 34 20 49 49 123 20 51 33 20 29 228 841
internal_value=0.0134872 0.101664 -2.60661 0.117477 -0.0231352 0.259302 -2.28007 0.131497 0.117541 0.257052 0.107344 0.103657 0.305565 0.0917952 -0.0430703 0.108327 0.293373 0.0948045 0.108214 0.309203 0.245585 0.424033 0.180421 0.30785 -0.100806 -0.000475579 0.13016 0.0931223 0.0842552 0.0934725
internal_weight=2365 2288 77 2250 204 44 55 2046 1823 165 87 1658 92 1566 171 1395 95 1300 1217 85 223 78 174 49 160 104 71 1132 1098 1069
internal_count=2365 2288 77 2250 204 44 55 2046 1823 165 87 1658 92 1566 171 1395 95 1300 1217 85 223 78 174 49 160 104 71 1132 1098 1069
is_linear=0
shrinkage=0.05


Tree=4
num_leaves=31
num_cat=0
split_feature=20 30 27 0 25 21 0 43 44 21 33 27 2 8 18 40 41 10 21 2 41 46 20 40 42 37 35 44 0 25
split_gain=197874 9938.27 8540.11 1575.93 1615.53 1522.48 1424.57 1331 1662.75 1420.55 1583.08 1704.5 1550.43 1473.31 1382.9 1321.55 1635.46 1259.71 1481.82 1257.23 1251.51 1313.11 2059.78 1330.88 1257.74 1811.99 1603.71 1886.81 1449.85 1653.18
threshold=155.85714285714289 141.50000000000003 144.00000000000003 0.28316666666666673 11.350678925653588 14.3419126676035 0.26991666666666669 34485.250000000007 22001.791071428579 12.365466505747552 31319.000000000004 218.50000000000003 0.88097916666666676 0.19327083333333334 198.50000000000003 21191.87142857143 1568.8722739274335 8.7979166666666675 7.3208766859518839 0.96450000000000014 1293.2841949380331 18542.200000000004 182.6428571428572 22204.807142857146 21827.550000000003 1837.6545272290798 23540.350000000002 25623.35535714286 0.78445833333333337 10.794916385226779
decision_type=2 2 2 2 2 2 2 2 2 2 2 2 2 2 2 2 2 2 2 2 2 2 2 2 2 2 2 2 2 2
left_child=2 -2 -1 4 6 -4 -3 8 15 -9 12 -12 -11 -13 -14 -5 -17 18 -10 -18 -20 23 -23 -22 28 26 -26 -28 29 -24
right_child=1 3 5 7 -6 -7 -8 9 17 10 11 13 14 -15 -16 16 19 -19 20 -21 21 22 24 -25 25 -27 27 -29 -30 -31
leaf_value=-3.2565422664989123 -0.83725778715951105 0.51818813720475077 -1.8844772675458126 -0.11718829134479165 -0.095765235309954733 -2.3984770774841309 -0.051404102572372982 0.37736007232063762 -0.12523580034462253 0.68189497202431093 0.22990294624458663 -0.49271639528728672 0.036864852319870682 0.012719835340976716 0.41904197284361216 0.13438285472664502 0.55457637574937613 0.22751685292460025 0.30128136919811371 0.18082178832164833 0.16974653537074724 0.49143064350130095 0.57538171295936291 -0.23385523066390307 0.3236993676942328 0.10265978399938547 -0.5241410830020905 -0.063288685391146945 -0.0061410807250511087 0.16080313119164202
leaf_weight=22 28 23 34 24 160 25 21 96 89 20 55 21 56 46 41 101 63 144 64 35 30 31 26 64 23 353 25 199 126 320
leaf_count=22 28 23 34 24 160 25 21 96 89 20 55 21 56 46 41 101 63 144 64 35 30 31 26 64 23 353 25 199 126 320
internal_value=0.0128128 0.0989406 -2.41578 0.11056 -0.0219784 -2.10227 0.246337 0.123736 0.105949 0.214903 0.149648 0.0236289 0.281052 -0.1457 0.198404 0.233306 0.275577 0.0869395 0.0719446 0.421093 0.0858614 0.0743435 0.0896315 -0.105046 0.0780123 0.0299767 -0.0738983 -0.114723 0.139074 0.191956
internal_weight=2365 2284 81 2256 204 59 44 2052 1717 335 239 122 117 67 97 223 199 1494 1350 98 1261 1197 1103 94 1072 600 247 224 472 346
internal_count=2365 2284 81 2256 204 59 44 2052 1717 335 239 122 117 67 97 223 199 1494 1350 98 1261 1197 1103 94 1072 600 247 224 472 346
is_linear=0
shrinkage=0.05


Tree=5
num_leaves=31
num_cat=0
split_feature=20 23 28 15 41 44 30 23 13 9 41 44 5 15 5 45 20 19 39 11 7 23 9 7 26 35 9 0 4 10
split_gain=180800 13796.4 7965.9 1999.97 1773.16 1661.56 1676.04 1446.66 1430.04 1290.16 1837.2 2145.96 1354.15 1520.41 1336.46 2195.95 1313.95 1297.89 1220.05 1018.21 1177.61 1149.21 1293.87 1359.75 1026.2 2506.42 1859.48 1446.09 1920.89 1371.2
threshold=155.85714285714289 137.50000000000003 166.96428571428575 88.500000000000014 1250.9477196950947 32282.689285714288 167.50000000000003 226.50000000000003 6.5000000000000009 0.29633333333333339 2912.4314648260442 31484.551785714291 3.5479791666666673 232.50000000000003 3.4572291666666675 2195.3277491809226 192.92857142857147 159.50000000000003 36389.600000000006 2014.5000000000002 0.22650000000000001 200.50000000000003 0.34056250000000005 0.17645833333333333 172.50000000000003 22626.100000000002 0.3542083333333334 0.51222916666666685 649.79166666666686 7.7895833333333337
decision_type=2 2 2 2 2 2 2 2 2 2 2 2 2 2 2 2 2 2 2 2 2 2 2 2 2 2 2 2 2 2
left_child=1 -1 -2 -3 -4 7 -7 9 -9 12 14 -12 -6 -14 15 -11 -17 -16 19 21 24 -19 -23 -24 29 26 -26 -27 -29 -21
right_child=2 3 4 -5 5 6 -8 8 -10 10 11 -13 13 -15 17 16 -18 18 -20 20 -22 22 23 -25 25 27 -28 28 -30 -31
leaf_value=-3.4917522192001345 -0.78179602622985844 -2.3585796492440361 0.3391182096221963 -1.7476585549277228 0.010086521415999443 -0.54920194171369074 0.041708305942205093 0.6224838650744895 0.18120582238003449 -0.057972009293735027 0.19153671130537986 -0.46868951960350391 0.60188975196919947 0.086828406685558357 -0.32344456493854523 0.63063599561390127 0.12994917798787356 0.31002342402935029 -0.19866826573484822 0.054350151232459669 -0.22232818922826222 0.16788070536021032 -0.035706754995939824 -0.43545600308312316 0.0080170514889889299 0.070599055088768708 0.38587703615790464 0.14898675988827434 -0.2179779599754865 0.17631383215086938
leaf_weight=20 26 21 74 37 33 20 30 23 91 32 20 32 38 23 20 38 20 20 38 351 28 33 52 36 54 233 82 49 131 671
leaf_count=20 26 21 74 37 33 20 30 23 91 32 20 32 38 23 20 38 20 20 38 351 28 33 52 36 54 233 82 49 131 671
internal_value=0.00806945 -2.35934 0.0884254 -1.96885 0.0983839 0.0902791 -0.194656 0.0969117 0.270236 0.0871974 0.0784318 -0.214756 0.268103 0.407686 0.0865069 0.274534 0.457985 0.0770951 0.0816006 0.0877214 0.0990794 -0.0410825 -0.0991166 -0.199241 0.104808 0.0496715 0.235844 -0.0116348 -0.118082 0.134426
internal_weight=2376 78 2298 58 2272 2198 50 2148 114 2034 1940 52 94 61 1888 90 58 1798 1778 1740 1599 141 121 88 1571 549 136 413 180 1022
internal_count=2376 78 2298 58 2272 2198 50 2148 114 2034 1940 52 94 61 1888 90 58 1798 1778 1740 1599 141 121 88 1571 549 136 413 180 1022
is_linear=0
shrinkage=0.05


Tree=6
num_leaves=31
num_cat=0
split_feature=24 23 28 21 41 44 30 23 21 22 25 41 16 39 6 37 45 8 10 21 13 9 46 19 24 11 40 45 10 7
split_gain=163319 11244.4 9182.14 1837 1600.28 1499.55 1512.63 1305.61 1715.48 1362.45 1426.72 1882.18 1794.84 1642.56 2173.77 1437.64 1311.76 3003.98 1654.77 1343.68 1290.61 1276.07 1545.31 1511.85 1606.69 1853.07 1842.69 1580.76 1298.93 1233.04
threshold=149.28571428571431 137.50000000000003 166.96428571428575 12.46136887688189 1250.9477196950947 32282.689285714288 167.50000000000003 226.50000000000003 18.751507875876367 173.50000000000003 13.316724997721286 1640.6766379181138 171.50000000000003 24676.800000000003 0.22877083333333334 2401.6547633222258 1895.897709168202 0.22918749999999996 7.4104166666666673 15.262777629002906 6.5000000000000009 0.28527083333333336 27194.950000000001 165.50000000000003 194.96428571428575 2014.5000000000002 22279.725000000002 1668.9491755560352 7.1583333333333341 0.19389583333333332
decision_type=2 2 2 2 2 2 2 2 2 2 2 2 2 2 2 2 2 2 2 2 2 2 2 2 2 2 2 2 2 2
left_child=1 -1 -2 -3 -4 7 -7 8 9 10 12 -12 -6 14 -13 -15 17 -14 -18 -20 -9 -11 23 -23 25 26 -25 -27 -26 -17
right_child=2 3 4 -5 5 6 -8 20 -10 21 11 13 16 15 -16 29 18 -19 19 -21 -22 22 -24 24 28 27 -28 -29 -30 -31
leaf_value=-3.3171645879745486 -0.7870360100269318 -1.6376905529587358 0.32216230086176784 -2.2209444434554491 0.54846422680550155 -0.52174184352159503 0.039622890890265508 0.59135966780393023 -0.12461274439567015 0.38832732983199614 -0.30733127737867427 -0.038113417832747749 -0.090728259350800394 -0.012014595415065729 0.57476811225597679 0.23479382828683468 -0.054654908723064832 0.42345133103430277 0.3837709171907373 -0.0071976391562762173 0.17214553146571904 -0.30274358424875469 -0.14164438843727112 0.088797043429480665 -0.37366447076201442 0.30576959757180122 -0.54441409200429924 0.10341700179526558 0.010713848570126227 -0.13855620589680398
leaf_weight=20 30 27 74 27 36 20 30 23 95 28 29 23 98 227 39 148 35 40 142 26 91 27 99 27 24 122 20 462 261 26
leaf_count=20 30 27 74 27 36 20 30 23 95 28 29 23 98 227 39 148 35 40 142 26 91 27 99 27 24 122 20 462 261 26
internal_value=0.00766597 -2.30441 0.0819899 -1.92932 0.0934647 0.0857652 -0.184923 0.0920661 0.0828375 0.0930014 0.139509 0.0834277 0.212697 0.107903 0.347409 0.0708721 0.17725 0.0583093 0.258105 0.323264 0.256724 0.0552303 0.0462795 0.0660086 0.0768779 0.121382 -0.180655 0.145689 -0.0216549 0.179006
internal_weight=2376 74 2302 54 2272 2198 50 2148 2034 1939 869 492 377 463 62 401 341 138 203 168 114 1070 1042 943 916 631 47 584 285 174
internal_count=2376 74 2302 54 2272 2198 50 2148 2034 1939 869 492 377 463 62 401 341 138 203 168 114 1070 1042 943 916 631 47 584 285 174
is_linear=0
shrinkage=0.05


end of trees

feature_importances:
Column_20=14
Column_33=13
Column_0=11
Column_25=11
Column_10=10
Column_21=10
Column_22=8
Column_44=8
Column_7=7
Column_23=7
Column_24=7
Column_35=7
Column_37=7
Column_41=7
Column_9=6
Column_2=5
Column_28=5
Column_11=4
Column_19=4
Column_29=4
Column_40=4
Column_45=4
Column_1=3
Column_5=3
Column_6=3
Column_13=3
Column_15=3
Column_26=3
Column_30=3
Column_39=3
Column_46=3
Column_47=3
Column_3=2
Column_8=2
Column_17=2
Column_18=2
Column_27=2
Column_43=2
Column_4=1
Column_16=1
Column_31=1
Column_32=1
Column_42=1

parameters:
[boosting: gbdt]
[objective: regression]
[metric: l1]
[tree_learner: serial]
[device_type: cpu]
[data_sample_strategy: bagging]
[data: ]
[valid: ]
[num_iterations: 500]
[learning_rate: 0.05]
[num_leaves: 31]
[num_threads: 0]
[seed: 42]
[deterministic: 0]
[force_col_wise: 0]
[force_row_wise: 0]
[histogram_pool_size: -1]
[max_depth: -1]
[min_data_in_leaf: 20]
[min_sum_hessian_in_leaf: 0.001]
[bagging_fraction: 0.8]
[pos_bagging_fraction: 1]
[neg_bagging_fraction: 1]
[bagging_freq: 5]
[bagging_seed: 400]
[bagging_by_query: 0]
[feature_fraction: 0.8]
[feature_fraction_bynode: 1]
[feature_fraction_seed: 30056]
[extra_trees: 0]
[extra_seed: 12879]
[early_stopping_round: 0]
[early_stopping_min_delta: 0]
[first_metric_only: 0]
[max_delta_step: 0]
[lambda_l1: 0]
[lambda_l2: 0]
[linear_lambda: 0]
[min_gain_to_split: 0]
[drop_rate: 0.1]
[max_drop: 50]
[skip_drop: 0.5]
[xgboost_dart_mode: 0]
[uniform_drop: 0]
[drop_seed: 17869]
[top_rate: 0.2]
[other_rate: 0.1]
[min_data_per_group: 100]
[max_cat_threshold: 32]
[cat_l2: 10]
[cat_smooth: 10]
[max_cat_to_onehot: 4]
[top_k: 20]
[monotone_constraints: ]
[monotone_constraints_method: basic]
[monotone_penalty: 0]
[feature_contri: ]
[forcedsplits_filename: ]
[refit_decay_rate: 0.9]
[cegb_tradeoff: 1]
[cegb_penalty_split: 0]
[cegb_penalty_feature_lazy: ]
[cegb_penalty_feature_coupled: ]
[path_smooth: 0]
[interaction_constraints: ]
[verbosity: -1]
[saved_feature_importance_type: 0]
[use_quantized_grad: 0]
[num_grad_quant_bins: 4]
[quant_train_renew_leaf: 0]
[stochastic_rounding: 1]
[linear_tree: 0]
[max_bin: 255]
[max_bin_by_feature: ]
[min_data_in_bin: 3]
[bin_construct_sample_cnt: 200000]
[data_random_seed: 175]
[is_enable_sparse: 1]
[enable_bundle: 1]
[use_missing: 1]
[zero_as_missing: 0]
[feature_pre_filter: 1]
[pre_partition: 0]
[two_round: 0]
[header: 0]
[label_column: ]
[weight_column: ]
[group_column: ]
[ignore_column: ]
[categorical_feature: ]
[forcedbins_filename: ]
[precise_float_parser: 0]
[parser_config_file: ]
[objective_seed: 16083]
[num_class: 1]
[is_unbalance: 0]
[scale_pos_weight: 1]
[sigmoid: 1]
[boost_from_average: 1]
[reg_sqrt: 0]
[alpha: 0.9]
[fair_c: 1]
[poisson_max_delta_step: 0.7]
[tweedie_variance_power: 1.5]
[lambdarank_truncation_level: 30]
[lambdarank_norm: 1]
[label_gain: ]
[lambdarank_position_bias_regularization: 0]
[eval_at: ]
[multi_error_top_k: 1]
[auc_mu_weights: ]
[num_machines: 1]
[local_listen_port: 12400]
[time_out: 120]
[machine_list_filename: ]
[machines: ]
[gpu_platform_id: -1]
[gpu_device_id: -1]
[gpu_use_dp: 0]
[num_gpu: 1]

end of parameters

pandas_categorical:null
