tree
version=v4
num_class=1
num_tree_per_iteration=1
label_index=0
max_feature_idx=47
objective=regression
feature_names=Column_0 Column_1 Column_2 Column_3 Column_4 Column_5 Column_6 Column_7 Column_8 Column_9 Column_10 Column_11 Column_12 Column_13 Column_14 Column_15 Column_16 Column_17 Column_18 Column_19 Column_20 Column_21 Column_22 Column_23 Column_24 Column_25 Column_26 Column_27 Column_28 Column_29 Column_30 Column_31 Column_32 Column_33 Column_34 Column_35 Column_36 Column_37 Column_38 Column_39 Column_40 Column_41 Column_42 Column_43 Column_44 Column_45 Column_46 Column_47
feature_infos=[0.22412499999999999:0.87145833333333333] [4.1651666666666669:9.0553333333333317] [0.71083333333333332:0.97224999999999995] [0.68679166666666669:0.81541666666666668] [586.11250000000007:726.67916666666667] [2.9161666666666668:4.3062916666666666] [0.15195833333333331:0.40699999999999997] [0.093458333333333296:0.26729166666666659] [0.11175:0.33620833333333339] [0.25587500000000002:0.47899999999999998] [6.1583333333333341:10.262499999999999] [2014:2022] [1:12] [1:31] [0:6] [1:366] [78:247] [68:247] [67:247] [55:247] [87:207.85714285714286] [3.2513733362133173:26.409774525281236] [68:197] [111:247] [84.571428571428569:202.21428571428572] [5.8201053576059394:22.412834823715951] [67:188] [112:247] [76.5:199.10714285714286] [7.9834484864285979:19.336069866537002] [55:179] [112:247] [11670.5:42673.300000000003] [10768:42673.300000000003] [10768:42673.300000000003] [8408.2999999999993:42673.300000000003] [14194.571428571429:33985.099999999999] [457.93443853946388:4902.1459225236003] [10768:32707.900000000001] [17961.900000000001:42673.300000000003] [13711.678571428571:33478.750000000007] [695.898598500866:3689.6466656900134] [10768:30752.200000000001] [17961.900000000001:42673.300000000003] [12254.514285714287:32898.932142857142] [1013.3944368794588:3363.4574495874308] [8408.2999999999993:29197.5] [17961.900000000001:42673.300000000003]
tree_sizes=2735 2762 2760 2760 2779 2768 2766 2776 2760 2770 2763 2767 2760 2767 2762 2757 2768 2756 2756 2757 2766 2766 2761 2752 2748 2772 2779 2753 2776 2753 2760 2750 2762 2756 2751 2756 2748 2765 2766 2752 2754 2759 2758 2747 2757 2771 2755 2745 2772 2740 2759 2750 2750 2759 2756 2761 2767 2770 2754 2721

Tree=0
num_leaves=31
num_cat=0
split_feature=42 15 42 0 15 0 15 0 47 15 0 26 9 5 1 1 46 34 35 34 0 3 15 29 15 1 24 7 34 0
split_gain=2.78486e+10 3.01962e+09 2.04696e+09 6.89124e+08 4.04967e+08 3.47008e+08 2.27023e+08 1.97309e+08 1.64171e+08 1.03131e+08 9.99906e+07 6.16984e+07 5.69701e+07 5.64609e+07 5.53333e+07 7.58573e+07 5.34726e+07 5.44903e+07 6.38904e+07 4.97978e+07 5.55134e+07 6.13478e+07 4.45683e+07 4.41832e+07 4.38743e+07 3.954e+07 4.05402e+07 3.90311e+07 3.77439e+07 3.76043e+07
threshold=23107.850000000002 118.50000000000001 20462.750000000004 0.66689583333333335 58.500000000000007 0.50933333333333353 331.50000000000006 0.31872916666666667 28417.050000000003 302.50000000000006 0.79285416666666675 173.50000000000003 0.33518750000000003 3.6653333333333342 8.0192291666666673 8.1187500000000021 27110.250000000004 31577.600000000002 31944.050000000003 30926.750000000004 0.35814583333333333 0.72908333333333342 122.50000000000001 14.34892091147462 266.50000000000006 8.2516250000000024 189.17857142857147 0.16485416666666666 20769.700000000004 0.74670833333333342
decision_type=2 2 2 2 2 2 2 2 2 2 2 2 2 2 2 2 2 2 2 2 2 2 2 2 2 2 2 2 2 2
left_child=2 7 4 6 -1 13 12 14 10 29 22 -7 -4 -3 16 -16 -2 -18 -19 20 21 -9 28 -17 -12 26 27 -14 -6 -5
right_child=1 5 3 9 8 11 -8 19 -10 -11 24 -13 25 -15 15 23 17 18 -20 -21 -22 -23 -24 -25 -26 -27 -28 -29 -30 -31
leaf_value=26137.525662667176 26874.068746864348 26711.502217330697 26582.234152089379 26430.190337714532 26386.34572307811 26606.094854134892 26631.651595803229 26862.693927742861 26471.258462289847 26487.10367381118 26333.043511167059 26531.836834456972 26570.516480121019 26664.138051209011 26731.670978130718 26805.300495073654 26806.021790574574 26894.568059892033 26798.87579214387 26764.51531265119 26782.154087871713 26765.085041960443 26388.834923098111 26889.638051074566 26378.626559461423 26576.114426323791 26482.05167655458 26489.455440301408 26298.829560503043 26384.962290704665
leaf_weight=20 148 105 32 114 22 106 59 60 35 60 281 38 33 157 24 44 89 53 26 122 110 22 263 24 65 20 100 27 28 77
leaf_count=20 148 105 32 114 22 106 59 60 35 60 281 38 33 157 24 44 89 53 26 122 110 22 263 24 65 20 100 27 28 77
internal_value=26578.3 26757.9 26414.4 26489.6 26359.3 26648.9 26544.9 26819.3 26365.7 26429.9 26360.1 26586.5 26520.8 26683.1 26842.2 26808.1 26852.2 26832.9 26863.1 26789.5 26805.4 26836.5 26380.6 26835.1 26341.6 26509.8 26501.5 26534 26337.3 26412
internal_weight=2364 1128 1236 522 714 406 271 722 694 251 659 144 212 262 408 92 316 168 79 314 192 82 313 68 346 180 160 60 50 191
internal_count=2364 1128 1236 522 714 406 271 722 694 251 659 144 212 262 408 92 316 168 79 314 192 82 313 68 346 180 160 60 50 191
is_linear=0
shrinkage=1


Tree=1
num_leaves=31
num_cat=0
split_feature=36 15 40 15 15 15 5 15 15 47 15 14 5 44 15 40 8 2 35 6 15 29 6 35 44 32 24 24 8 2
split_gain=2.54448e+10 2.78435e+09 1.91448e+09 3.77759e+08 3.22427e+08 2.4142e+08 2.1975e+08 1.12739e+08 1.55383e+08 1.12026e+08 9.38851e+07 6.49746e+07 7.92183e+07 6.37865e+07 7.981e+07 5.60901e+07 5.21956e+07 5.27876e+07 4.96944e+07 4.89879e+07 4.50019e+07 4.20704e+07 5.59874e+07 5.20511e+07 6.26964e+07 4.92268e+07 5.20254e+07 4.20656e+07 4.1619e+07 3.92732e+07
threshold=26593.892857142859 118.50000000000001 23614.939285714288 58.500000000000007 320.50000000000006 287.50000000000006 3.7189166666666669 106.50000000000001 24.500000000000004 31564.000000000004 306.50000000000006 3.5000000000000004 3.945020833333333 29334.46071428572 332.50000000000006 21191.87142857143 0.17506249999999998 0.90860416666666677 30990.300000000007 0.25183333333333341 180.50000000000003 13.495148698196889 0.29970833333333341 31785.600000000002 31619.689285714288 28988.600000000002 195.46428571428575 193.39285714285717 0.18397916666666667 0.9448958333333336
decision_type=2 2 2 2 2 2 2 2 2 2 2 2 2 2 2 2 2 2 2 2 2 2 2 2 2 2 2 2 2 2
left_child=2 7 3 -1 9 11 16 8 27 10 20 15 -13 14 18 -5 -3 -18 -8 -6 29 25 23 -23 -25 -10 -27 -2 -16 -4
right_child=1 6 4 5 19 -7 13 -9 21 -11 -12 12 -14 -15 28 -17 17 -19 -20 -21 -22 22 -24 24 -26 26 -28 -29 -30 -31
leaf_value=-417.89178100585946 166.70803067623041 49.676523971557621 -127.39406473636627 -303.43607235863095 -34.846722389669985 -135.03240471780302 -25.469143525256385 169.00243888523269 175.19284933767011 -7.7888796537153189 -58.581332942801467 -145.18577797833612 -206.93238319396974 99.014302247943306 114.19412587881089 -219.27050032463626 158.50369190562856 98.325870732907902 58.042369199835747 31.554074540685434 -144.75971093296022 300.44971755981447 229.97298680002041 323.39071594238283 220.72871193721377 252.12004546221567 166.86597949028015 218.63596337880847 37.608112549781801 -57.66799515618218
leaf_weight=20 78 33 46 21 51 128 79 69 31 31 71 68 220 33 24 345 55 108 23 61 121 110 88 20 58 170 20 78 68 36
leaf_count=20 78 33 46 21 51 128 79 69 31 31 71 68 220 33 24 345 55 108 23 61 121 110 88 20 58 170 20 78 68 36
internal_value=0.847318 170.103 -158.134 -203.317 -71.2355 -197.829 68.2379 229.784 236.206 -97.8781 -108.071 -210.12 -192.353 34.7506 23.8192 -224.1 107.022 118.631 -6.63812 1.318 -125.38 249.871 262.888 278.295 247.052 233.614 243.146 192.672 57.5871 -96.7826
internal_weight=2364 1145 1219 802 417 782 423 722 653 305 274 654 288 227 194 366 196 163 102 112 203 497 276 188 78 221 190 156 92 82
internal_count=2364 1145 1219 802 417 782 423 722 653 305 274 654 288 227 194 366 196 163 102 112 203 497 276 188 78 221 190 156 92 82
is_linear=0
shrinkage=0.05


Tree=2
num_leaves=31
num_cat=0
split_feature=36 15 40 15 15 15 15 15 15 15 47 15 15 44 15 3 14 1 6 10 38 39 15 33 17 7 8 35 20 7
split_gain=2.29639e+10 2.51288e+09 1.72782e+09 3.40928e+08 2.9099e+08 2.18055e+08 1.55345e+08 1.19694e+08 1.01747e+08 1.40233e+08 1.01103e+08 8.47313e+07 6.56964e+07 5.88449e+07 6.08527e+07 4.85478e+07 4.69442e+07 5.0695e+07 4.42116e+07 4.07914e+07 5.56277e+07 4.22208e+07 4.06142e+07 4.04725e+07 5.87915e+07 5.9951e+07 6.93045e+07 4.42828e+07 5.15303e+07 4.35821e+07
threshold=26593.892857142859 118.50000000000001 23614.939285714288 58.500000000000007 320.50000000000006 289.50000000000006 132.50000000000003 349.50000000000006 106.50000000000001 24.500000000000004 31564.000000000004 306.50000000000006 144.50000000000003 23419.769642857147 266.50000000000006 0.72977083333333348 1.5000000000000002 7.5877291666666675 0.25183333333333341 8.0979166666666682 25453.900000000005 29776.650000000005 180.50000000000003 32069.250000000004 195.50000000000003 0.16227083333333334 0.21314583333333334 27757.000000000004 196.6428571428572 0.19593749999999996
decision_type=2 2 2 2 2 2 2 2 2 2 2 2 2 2 2 2 2 2 2 2 2 2 2 2 2 2 2 2 2 2
left_child=2 8 3 -1 10 13 -3 12 9 -2 11 22 -8 14 16 19 -5 -18 -6 21 -21 -14 -4 27 -25 26 -26 -11 -29 -27
right_child=1 6 4 5 18 -7 7 -9 -10 23 -12 -13 15 -15 -16 -17 17 -19 -20 20 -22 -23 -24 24 25 29 -28 28 -30 -31
leaf_value=-396.99719268798827 183.03839776943892 129.0563505742457 -91.94348894328607 -239.2036126953125 -33.104384470920941 -124.02520014110365 72.513085039568622 96.983448324299829 160.55231701394789 290.84439431895379 -7.3994344034502593 -55.652266203517655 -17.443045792756259 -154.3985616982873 -176.928411087623 77.224843597412118 -169.71249026343935 -214.94303806757523 29.976371208566135 10.99521834564209 -77.028306443350658 61.981373984163469 -137.52172375513504 308.91926621657154 340.06048017229358 202.99396612188789 230.68371477762858 226.24368625264535 153.10667520982247 266.958450156764
leaf_weight=20 156 77 82 125 51 114 71 99 69 23 31 71 27 67 156 27 84 236 61 50 28 44 121 39 28 89 30 223 27 38
leaf_count=20 156 77 82 125 51 114 71 99 69 23 31 71 27 67 156 27 84 236 61 50 28 44 121 39 28 89 30 223 27 38
internal_value=0.804952 161.598 -150.227 -193.151 -67.6737 -187.938 64.826 50.5319 218.295 224.396 -92.9842 -102.667 31.9137 -198.845 -203.8 15.5356 -213.22 -203.07 1.2521 4.35696 -20.603 31.7777 -119.111 237.377 253.129 241.368 283.486 224.453 218.345 222.133
internal_weight=2364 1145 1219 802 417 782 423 346 722 653 305 274 247 668 601 176 445 320 112 149 78 71 203 497 224 185 58 273 250 127
internal_count=2364 1145 1219 802 417 782 423 346 722 653 305 274 247 668 601 176 445 320 112 149 78 71 203 497 224 185 58 273 250 127
is_linear=0
shrinkage=0.05


Tree=3
num_leaves=31
num_cat=0
split_feature=40 12 40 12 2 0 0 0 44 6 47 12 14 8 33 17 37 21 13 34 3 4 1 3 16 0 40 26 18 41
split_gain=2.05277e+10 2.13512e+09 1.77746e+09 3.42604e+08 3.153e+08 2.50641e+08 1.65912e+08 1.64397e+08 1.17586e+08 8.16592e+07 7.94962e+07 6.40869e+07 6.53684e+07 4.8021e+07 4.6992e+07 5.31349e+07 5.73696e+07 5.76902e+07 4.56663e+07 4.50692e+07 4.47843e+07 5.44079e+07 6.80821e+07 4.71466e+07 4.41589e+07 4.27165e+07 4.1613e+07 3.77182e+07 3.76268e+07 3.75766e+07
threshold=26828.314285714288 4.5000000000000009 23614.939285714288 10.500000000000002 0.77641666666666687 0.50933333333333353 0.32981250000000001 0.79285416666666675 24640.88571428572 0.26341666666666669 31564.000000000004 9.5000000000000018 3.5000000000000004 0.25022916666666667 32069.250000000004 195.50000000000003 2646.1488098627501 17.987429363457199 12.500000000000002 31553.550000000007 0.71910416666666677 696.29791666666677 7.8056875000000003 0.73660416666666684 196.50000000000003 0.40154166666666674 23276.16785714286 171.50000000000003 190.50000000000003 2310.9906705262924
decision_type=2 2 2 2 2 2 2 2 2 2 2 2 2 2 2 2 2 2 2 2 2 2 2 2 2 2 2 2 2 2
left_child=2 6 4 10 -1 13 14 11 -5 -7 -4 12 25 18 20 -16 19 -18 24 -17 -2 23 -23 -22 -3 -6 -13 -11 -20 -21
right_child=1 5 3 8 7 9 -8 -9 -10 27 -12 26 -14 -15 15 16 17 -19 28 29 21 22 -24 -25 -26 -27 -28 -29 -30 -31
leaf_value=-358.27100390625003 172.91330857049854 150.44028066890996 -113.21339926671008 -49.25404838529127 -259.72168393342389 -51.623620809510697 174.58074006784275 -202.55889268066744 23.779236082349506 58.494766270672841 -16.80366771221161 -147.37747965080061 -143.42576927045982 164.2083773803711 296.68803668551976 183.96532907758441 320.15076904296876 224.15484457576977 98.126140866345835 294.7500771262429 222.81138516768669 332.06862404563213 215.42490697400322 157.00926060032202 59.817589206695565 -184.48762390136721 -90.576626707867888 -8.1412973349435003 50.916885450891421 202.33723949085584
leaf_weight=25 63 41 196 116 23 43 267 361 105 54 24 151 96 20 36 70 29 34 72 22 103 22 29 37 20 105 41 35 102 22
leaf_count=25 63 41 196 116 23 43 267 361 105 54 24 151 96 20 36 70 29 34 72 22 103 22 29 37 20 105 41 35 102 22
internal_value=0.764705 155.914 -139.157 -58.5255 -183.494 60.8815 206.019 -177.87 -14.555 4.95421 -102.696 -156.445 -174.615 89.8321 223.994 241.314 230.052 268.343 83.5022 208.89 209.47 221.527 265.742 205.421 120.728 -198.006 -135.248 32.2896 70.4517 248.544
internal_weight=2364 1121 1243 441 802 387 734 777 221 132 220 416 224 255 467 213 177 63 235 114 254 191 51 140 61 128 192 89 174 44
internal_count=2364 1121 1243 441 802 387 734 777 221 132 220 416 224 255 467 213 177 63 235 114 254 191 51 140 61 128 192 89 174 44
is_linear=0
shrinkage=0.05


Tree=4
num_leaves=31
num_cat=0
split_feature=36 0 40 2 0 0 0 0 0 26 35 34 36 42 14 0 29 28 42 46 45 27 28 32 32 35 20 8 18 16
split_gain=1.87167e+10 1.92853e+09 1.40403e+09 2.84558e+08 2.79638e+08 1.87133e+08 1.48368e+08 1.36798e+08 1.21618e+08 6.32297e+07 5.78271e+07 5.47144e+07 5.35066e+07 5.34619e+07 5.14444e+07 5.08264e+07 4.40105e+07 4.08046e+07 4.05549e+07 4.00576e+07 3.9892e+07 3.79953e+07 3.58029e+07 4.76652e+07 3.96888e+07 3.18151e+07 4.71705e+07 3.66172e+07 3.16925e+07 3.61589e+07
threshold=26593.892857142859 0.39835416666666673 23614.939285714288 0.77641666666666687 0.48341666666666672 0.68618750000000017 0.79285416666666675 0.31872916666666667 0.55641666666666678 173.50000000000003 25764.750000000004 30926.750000000004 31631.478571428572 20511.150000000005 3.5000000000000004 0.40154166666666674 13.517723019581931 195.62500000000003 23880.800000000003 25592.200000000004 2232.8740002918835 207.50000000000003 194.41071428571431 28988.600000000002 30573.050000000003 29797.750000000004 190.78571428571431 0.18364583333333331 188.50000000000003 186.50000000000003
decision_type=2 2 2 2 2 2 2 2 2 2 2 2 2 2 2 2 2 2 2 2 2 2 2 2 2 2 2 2 2 2
left_child=2 7 3 -1 18 8 13 16 -4 -6 -10 12 -9 14 15 -5 22 19 -3 -13 -12 -20 23 -2 -25 27 -27 -23 -7 -30
right_child=1 4 5 6 9 28 -8 11 10 -11 20 17 -14 -15 -16 -17 -18 -19 21 -21 -22 25 -24 24 -26 26 -28 -29 29 -31
leaf_value=-340.35745019531254 133.47173738479614 43.891509246826175 50.157965723673506 -246.73559994904892 35.106042667726676 -158.4388954531762 -192.43095013309386 175.99741753375895 -31.27740151505721 -34.842343730926515 -102.35321331853453 104.33255386352539 246.3372154796825 -118.16298447591123 -136.60894993843792 -166.80439439111828 230.97758933015771 91.103333634596609 70.672820464932201 177.87853993074395 -42.626509165256579 89.422168106079113 136.51548549107142 263.07754642262182 201.33462158752991 147.80382244403546 61.711530803034947 160.78099567890169 -145.90911756243025 -76.523288151255827
leaf_weight=25 20 27 33 23 168 31 361 132 152 40 69 24 34 107 139 147 222 26 49 81 47 25 21 34 111 26 41 64 28 57
leaf_count=25 20 27 33 23 168 31 361 132 152 40 69 24 34 107 139 147 222 26 49 81 47 25 21 34 111 26 41 64 28 57
internal_value=0.726469 145.891 -135.625 -174.319 63.7518 -61.2078 -168.977 197.155 -40.4145 21.6544 -51.5671 171.34 190.404 -148.623 -159.171 -177.619 215.946 147.182 101.494 161.068 -78.1536 109.081 198.006 205.832 215.812 121.145 95.1205 140.736 -115.163 -99.3798
internal_weight=2364 1145 1219 802 440 417 777 705 301 208 268 297 166 416 309 170 408 131 232 105 116 205 186 165 145 156 67 89 116 85
internal_count=2364 1145 1219 802 440 417 777 705 301 208 268 297 166 416 309 170 408 131 232 105 116 205 186 165 145 156 67 89 116 85
is_linear=0
shrinkage=0.05


Tree=5
num_leaves=31
num_cat=0
split_feature=36 15 40 43 12 15 0 0 12 5 0 15 0 14 2 47 15 36 44 41 10 30 20 43 45 23 19 9 22 42
split_gain=1.71944e+10 1.99392e+09 1.18622e+09 3.08079e+08 2.2503e+08 2.00069e+08 1.82008e+08 1.3458e+08 8.87998e+07 7.61486e+07 6.33019e+07 6.25588e+07 6.16081e+07 5.41067e+07 8.06962e+07 5.31971e+07 5.25472e+07 5.02613e+07 5.74577e+07 6.37486e+07 6.06759e+07 5.04532e+07 4.69541e+07 4.44582e+07 4.69856e+07 4.08037e+07 4.07338e+07 3.71399e+07 3.87286e+07 3.65044e+07
threshold=26293.021428571436 118.50000000000001 23614.939285714288 22951.550000000007 10.500000000000002 286.50000000000006 0.51222916666666685 0.32785416666666667 6.5000000000000009 3.6653333333333342 0.80920833333333342 329.50000000000006 0.58906250000000016 3.5000000000000004 0.94574999999999998 30719.450000000001 252.50000000000003 31497.114285714288 32212.558928571434 2431.6032741823205 8.1687500000000011 162.50000000000003 182.50000000000003 36184.700000000004 2683.6045530914698 191.50000000000003 181.50000000000003 0.33343750000000005 165.50000000000003 27044.700000000001
decision_type=2 2 2 2 2 2 2 2 2 2 2 2 2 2 2 2 2 2 2 2 2 2 2 2 2 2 2 2 2 2
left_child=2 7 3 -1 8 10 9 17 -4 -3 13 -6 15 25 -15 -8 -12 22 20 -20 23 -22 -2 29 -25 -5 -9 -11 -29 -19
right_child=1 6 4 5 11 -7 12 26 -10 27 16 -13 -14 14 -16 -17 -18 18 19 -21 21 -23 -24 24 -26 -27 -28 28 -30 -31
leaf_value=-359.6052378845215 252.08652870871808 115.0200022687912 -58.526373686453319 -217.06967226111371 -30.754042422286865 -104.88602307900452 66.85632670436587 195.5002416829594 -124.53167832601639 25.417819264249985 -207.084316327106 42.643720988223436 -52.581872109004429 -81.201387621008848 -158.82759693114738 5.5357564787069959 -162.29467998686292 276.24614170619424 113.06547266292574 220.37755816059732 237.27935154612476 161.3840280898074 174.02872516262917 305.44345881144204 214.22738929748536 -164.44842591363033 148.8788807883121 16.75523028166398 88.580413141437603 196.9524255306163
leaf_weight=20 22 100 99 46 123 133 56 61 105 53 174 38 28 46 123 96 105 21 25 31 41 47 155 48 20 185 202 23 102 47
leaf_count=20 22 100 99 46 123 133 56 61 105 53 174 38 28 46 123 96 105 21 25 31 41 47 155 48 20 185 202 23 102 47
internal_value=0.690873 136.305 -132.771 -165.739 -57.6225 -160.964 54.7441 188.188 -92.4997 80.1069 -171.948 -13.4303 15.5727 -159.198 -137.699 28.1275 -190.228 204.586 217.77 172.47 229.095 196.744 183.731 250.028 278.615 -174.927 159.692 60.4928 75.3646 221.44
internal_weight=2375 1178 1197 832 365 812 458 720 204 278 679 161 180 400 169 152 279 457 280 56 224 88 177 136 68 231 263 178 125 68
internal_count=2375 1178 1197 832 365 812 458 720 204 278 679 161 180 400 169 152 279 457 280 56 224 88 177 136 68 231 263 178 125 68
is_linear=0
shrinkage=0.05


Tree=6
num_leaves=31
num_cat=0
split_feature=36 15 40 43 12 15 0 0 12 15 15 0 15 47 36 45 44 10 25 36 25 16 44 15 32 40 19 8 15 36
split_gain=1.5518e+10 1.79951e+09 1.07056e+09 2.78041e+08 2.03089e+08 1.80563e+08 1.64262e+08 1.21458e+08 8.01418e+07 5.89732e+07 5.64593e+07 5.56013e+07 5.29728e+07 4.80104e+07 4.53609e+07 5.66963e+07 5.88017e+07 5.37281e+07 4.40572e+07 4.37995e+07 5.97304e+07 5.03198e+07 4.20964e+07 3.82168e+07 6.03579e+07 3.71645e+07 3.67623e+07 3.61935e+07 3.58295e+07 3.53668e+07
threshold=26293.021428571436 118.50000000000001 23614.939285714288 22951.550000000007 10.500000000000002 286.50000000000006 0.51222916666666685 0.32785416666666667 6.5000000000000009 208.50000000000003 329.50000000000006 0.58906250000000016 252.50000000000003 30719.450000000001 31497.114285714288 1992.7031981106572 32144.116071428576 8.1937500000000014 10.265832800486384 30625.314285714288 14.789363567283184 177.50000000000003 31155.551785714288 354.50000000000006 27766.400000000005 22844.357142857149 181.50000000000003 0.18677083333333333 132.50000000000003 31839.942857142862
decision_type=2 2 2 2 2 2 2 2 2 2 2 2 2 2 2 2 2 2 2 2 2 2 2 2 2 2 2 2 2 2
left_child=2 7 3 -1 8 9 18 14 -4 25 -6 13 -11 -8 19 -16 17 22 -3 21 -21 -2 -17 28 -25 27 -9 -5 -20 -24
right_child=1 6 4 5 10 -7 11 26 -10 12 -12 -13 -14 -15 15 16 -18 -19 23 20 -22 -23 29 24 -26 -27 -28 -29 -30 -31
leaf_value=-341.62498359680177 263.88356958007813 31.973677848247771 -55.60005509540288 -104.51777765025264 -29.216340252635923 -99.641721997942241 63.513510308946877 185.72522834402616 -118.30509536686398 -185.60896131886557 40.51153548642209 -49.952777235848565 -153.26933407278338 5.2589684446652738 129.83254867900504 312.03589311079548 174.33284667968752 195.56865512697323 104.38240129260694 182.31022012969595 107.63306080818177 168.54189300537109 293.51825256347655 47.819463772773744 153.76803291134718 -110.62372695191266 141.43493677649167 -177.21289268038166 56.162415867453234 218.12631765093124
leaf_weight=20 25 47 99 23 123 133 56 61 105 293 38 28 223 96 22 22 70 76 59 81 40 31 20 20 41 73 202 67 111 70
leaf_count=20 25 47 99 23 123 133 56 61 105 293 38 28 223 96 22 22 70 76 59 81 40 31 20 20 41 73 202 67 111 70
internal_value=0.65633 129.49 -126.133 -157.452 -54.7414 -152.916 52.0069 178.778 -87.8747 -163.351 -12.7588 14.7941 -171.633 26.7212 194.357 206.882 213.452 228.017 76.1016 174.544 157.624 211.105 250.036 85.08 119.031 -137.133 151.708 -158.635 72.8976 234.88
internal_weight=2375 1178 1197 832 365 812 458 720 204 679 161 180 516 152 457 280 258 188 278 177 121 56 112 231 61 163 263 90 170 90
internal_count=2375 1178 1197 832 365 812 458 720 204 679 161 180 516 152 457 280 258 188 278 177 121 56 112 231 61 163 263 90 170 90
is_linear=0
shrinkage=0.05


Tree=7
num_leaves=31
num_cat=0
split_feature=42 15 42 0 43 0 0 0 15 14 23 5 15 42 42 33 3 26 15 33 10 28 6 16 41 2 34 7 3 13
split_gain=1.37737e+10 1.46584e+09 1.14284e+09 3.87993e+08 2.39496e+08 1.31445e+08 1.1695e+08 1.10614e+08 1.07244e+08 6.53454e+07 9.70861e+07 6.45851e+07 6.31052e+07 5.6239e+07 5.18451e+07 4.81223e+07 6.90538e+07 5.70963e+07 4.61842e+07 4.38496e+07 5.48537e+07 4.10997e+07 4.09632e+07 3.6771e+07 3.59683e+07 3.52807e+07 3.51755e+07 3.48458e+07 3.82334e+07 3.43634e+07
threshold=23107.850000000002 118.50000000000001 20462.750000000004 0.66689583333333335 22951.550000000007 0.51222916666666685 0.7541041666666668 0.34083333333333338 331.50000000000006 3.5000000000000004 193.50000000000003 3.6653333333333342 298.50000000000006 20933.200000000001 26264.700000000004 31771.350000000002 0.71160416666666682 176.50000000000003 252.50000000000003 29898.300000000003 7.4979166666666677 195.01785714285717 0.2651041666666667 191.50000000000003 1581.3744219009316 0.96254166666666674 23670.300000000003 0.16518749999999996 0.73614583333333339 8.5000000000000018
decision_type=2 2 2 2 2 2 2 2 2 2 2 2 2 2 2 2 2 2 2 2 2 2 2 2 2 2 2 2 2 2
left_child=2 7 4 8 -1 11 9 14 13 10 -6 -3 25 -4 -2 19 -17 27 -8 -16 -21 24 29 26 -15 -5 -11 -18 -29 -7
right_child=1 5 3 12 6 22 18 -9 -10 23 -12 -13 -14 21 15 16 17 -19 -20 20 -22 -23 -24 -25 -26 -27 -28 28 -30 -31
leaf_value=-324.54373366832738 227.80627681187221 104.23404283620874 33.297851151433484 -109.65309953348977 -198.90888254746147 29.548305776844856 -175.32870133740084 139.29820273308528 45.790941777722594 -90.488233979543054 -105.40069130880494 53.536656790018085 -64.359974248785733 -4.4312150435014201 183.13361124707083 280.05133056640625 206.41445734500886 245.6886381149292 -145.04890630086263 204.55514127291167 122.59224066081799 23.794150316147579 36.008047364308283 -139.26270039876303 -63.269366329712945 -174.13633752441407 -11.564212806224823 142.22545965200061 215.8370975353501 -47.884888889209222
leaf_weight=20 56 98 29 140 46 23 286 210 58 48 70 175 76 33 117 21 52 32 225 26 95 21 78 24 122 25 20 89 22 38
leaf_count=20 56 98 29 140 46 23 286 210 58 48 70 175 76 33 117 21 52 32 225 26 95 21 78 24 122 25 20 89 22 38
internal_value=0.623513 126.799 -114.285 -56.2304 -153.878 51.5837 -149.131 169.839 -14.2354 -117.523 -142.482 71.7357 -102.059 -31.2184 182.415 176.816 193.903 184.626 -161.996 161.308 140.204 -41.849 12.0044 -86.0546 -50.7425 -119.423 -67.2753 172.638 156.815 -18.6888
internal_weight=2375 1132 1243 504 739 412 719 720 263 208 116 273 241 205 510 454 216 195 511 238 121 176 139 92 155 165 68 163 111 61
internal_count=2375 1132 1243 504 739 412 719 720 263 208 116 273 241 205 510 454 216 195 511 238 121 176 139 92 155 165 68 163 111 61
is_linear=0
shrinkage=0.05


Tree=8
num_leaves=31
num_cat=0
split_feature=36 12 40 2 12 0 36 5 12 28 8 24 12 36 30 4 40 14 31 45 34 0 17 41 5 27 14 0 40 16
split_gain=1.26434e+10 1.33686e+09 9.96701e+08 2.26662e+08 1.90716e+08 1.30246e+08 1.12198e+08 1.09416e+08 7.28532e+07 6.6327e+07 6.01214e+07 5.55192e+07 5.04406e+07 7.13276e+07 4.59617e+07 4.53655e+07 4.28664e+07 5.21059e+07 6.51624e+07 4.16371e+07 4.02814e+07 3.9852e+07 3.8283e+07 3.75637e+07 3.69095e+07 3.58563e+07 3.5608e+07 3.55783e+07 3.49948e+07 3.3877e+07
threshold=26517.500000000004 4.5000000000000009 23614.939285714288 0.77641666666666687 10.500000000000002 0.75620833333333348 31663.63571428572 3.6653333333333342 6.5000000000000009 196.16071428571431 0.18550000000000003 189.03571428571431 11.500000000000002 27516.592857142863 163.50000000000003 642.43958333333342 31223.67142857143 3.5000000000000004 229.50000000000003 2232.8740002918835 33500.05000000001 0.26991666666666669 199.50000000000003 1584.6194348019255 3.492104166666667 217.50000000000003 2.5000000000000004 0.80920833333333342 23318.910714285714 189.50000000000003
decision_type=2 2 2 2 2 2 2 2 2 2 2 2 2 2 2 2 2 2 2 2 2 2 2 2 2 2 2 2 2 2
left_child=2 6 3 -1 8 15 11 22 19 16 -6 29 13 -9 -12 26 -8 18 21 -4 24 -18 -3 -16 -19 -23 -5 28 -7 -2
right_child=1 7 4 5 10 27 9 12 -10 -11 14 -13 -14 -15 23 -17 17 20 -20 -21 -22 25 -24 -25 -26 -27 -28 -29 -30 -31
leaf_value=-290.45493878173829 189.66958330491011 74.648921495584347 -75.690647660532306 -182.94505330403649 57.101221669514977 -132.66995267586444 262.22579345703127 -36.944648714065551 -107.14165514264788 113.42165962219238 29.637824474062242 131.41874150797881 57.932418291709013 35.173105356428358 1.0132545205049737 -94.268834363751949 165.33403836204894 190.80445949847882 148.64552031622995 -13.29148727477865 208.9962725485525 210.26405407587686 143.73349959274819 -58.203290278475052 118.29398732715184 276.41025146484378 -109.64240149420662 -163.53101563760214 -193.57412977952225 140.35584271317822
leaf_weight=25 85 65 62 30 30 254 20 45 105 30 35 287 136 144 43 180 21 26 36 47 31 42 29 71 54 40 37 280 26 59
leaf_count=25 85 65 62 30 30 254 20 45 105 30 35 287 136 144 43 180 21 26 36 47 31 42 29 71 54 40 37 280 26 59
internal_value=0.592337 119.659 -111.184 -142.181 -45.5621 -137.588 160.473 48.4527 -77.4177 183.952 -7.47767 144.13 34.7115 18.0022 -20.4801 -107.342 191.789 186.154 206.552 -48.7846 160.61 226.791 95.9622 -35.8672 141.86 242.53 -142.464 -150.928 -138.325 169.465
internal_weight=2375 1150 1225 832 393 807 731 419 214 300 179 431 325 189 149 247 270 250 139 109 111 103 94 114 80 82 67 560 280 144
internal_count=2375 1150 1225 832 393 807 731 419 214 300 179 431 325 189 149 247 270 250 139 109 111 103 94 114 80 82 67 560 280 144
is_linear=0
shrinkage=0.05


Tree=9
num_leaves=31
num_cat=0
split_feature=36 15 40 5 43 15 15 36 12 15 1 1 17 15 5 14 2 28 15 14 23 9 15 31 26 13 17 23 35 15
split_gain=1.14141e+10 1.32718e+09 7.89515e+08 2.14529e+08 2.09898e+08 1.50087e+08 1.38433e+08 9.76461e+07 6.30185e+07 5.81254e+07 5.14754e+07 5.40987e+07 4.85491e+07 4.59571e+07 4.58794e+07 5.09005e+07 4.91798e+07 4.60594e+07 4.46746e+07 6.16739e+07 4.69046e+07 4.33125e+07 4.20186e+07 3.83472e+07 3.78257e+07 3.62853e+07 3.47991e+07 3.14255e+07 3.08807e+07 3.6702e+07
threshold=26293.021428571436 106.50000000000001 23614.939285714288 3.6653333333333342 22951.550000000007 304.50000000000006 286.50000000000006 31663.63571428572 6.5000000000000009 354.50000000000006 7.718583333333334 7.6049791666666673 200.50000000000003 329.50000000000006 3.6403333333333334 4.5000000000000009 0.8927708333333334 195.73214285714289 208.50000000000003 3.5000000000000004 191.50000000000003 0.36877083333333333 252.50000000000003 229.50000000000003 174.50000000000003 16.500000000000004 200.50000000000003 202.50000000000003 31028.350000000002 332.50000000000006
decision_type=2 2 2 2 2 2 2 2 2 2 2 2 2 2 2 2 2 2 2 2 2 2 2 2 2 2 2 2 2 2
left_child=2 7 4 21 -1 8 18 10 -4 24 11 27 -12 -7 15 17 -17 23 19 20 -6 25 -20 -9 28 -3 -27 -2 29 -5
right_child=1 3 5 9 6 13 -8 14 -10 -11 12 -13 -14 -15 -16 16 -18 -19 22 -21 -22 -23 -24 -25 -26 26 -28 -29 -30 -31
leaf_value=-295.09232345581057 177.20855995019278 80.351201935701596 -47.183353836006589 -0.60711760832884609 -180.85461492123812 -25.813570948028566 -84.483945582683816 210.41811601465398 -103.0488159679672 84.486912423914134 138.29980521577778 211.80433549426854 80.697800695135243 36.976806093517105 236.13590124881631 167.3520166031858 79.381303914388027 118.20970037551155 -159.92351974724909 -84.542279243469238 -107.30735903484066 58.196889478510087 -131.12108041652115 150.99267436436244 -22.946686201829181 112.74565655355869 186.03393750000001 124.97917183902528 57.846956131193373 41.206167320140359
leaf_weight=20 48 43 99 107 46 125 133 121 103 44 165 42 47 38 33 47 24 21 293 76 41 44 223 35 39 46 25 72 72 103
leaf_count=20 48 43 99 107 46 125 133 121 103 44 165 42 47 38 33 47 24 21 293 76 41 44 223 35 39 46 25 72 72 103
internal_value=0.56272 111.055 -108.176 51.6629 -135.072 -46.8678 -131.131 158.479 -75.6692 30.5939 141.745 162.965 125.53 -11.1753 180.751 173.381 137.615 187.727 -140.268 -117.449 -146.194 100.335 -147.476 197.085 23.2066 116.599 138.551 145.871 29.5896 19.9013
internal_weight=2375 1178 1197 523 832 365 812 655 202 365 374 162 212 163 281 248 71 177 679 163 87 158 516 156 321 114 71 120 282 210
internal_count=2375 1178 1197 523 832 365 812 655 202 365 374 162 212 163 281 248 71 177 679 163 87 158 516 156 321 114 71 120 282 210
is_linear=0
shrinkage=0.05


Tree=10
num_leaves=31
num_cat=0
split_feature=36 15 36 5 15 23 15 46 6 15 8 15 35 46 39 26 29 28 15 29 5 1 21 26 8 22 6 2 29 17
split_gain=1.0367e+10 1.16551e+09 6.84471e+08 1.70114e+08 1.46829e+08 1.29589e+08 1.01465e+08 8.34757e+07 5.61137e+07 7.26222e+07 5.59341e+07 5.54637e+07 5.1919e+07 6.08316e+07 4.84769e+07 6.29996e+07 4.64336e+07 4.45563e+07 4.32654e+07 3.94641e+07 3.8458e+07 5.59549e+07 3.6177e+07 3.58097e+07 4.85069e+07 4.4764e+07 3.611e+07 3.16297e+07 3.01581e+07 3.89913e+07
threshold=26593.892857142859 114.50000000000001 23984.185714285719 3.7151041666666669 329.50000000000006 141.50000000000003 285.50000000000006 25140.450000000004 0.26702083333333343 306.50000000000006 0.17506249999999998 208.50000000000003 32359.000000000004 26803.750000000004 29967.950000000004 173.50000000000003 11.908158245683492 191.66071428571431 266.50000000000006 12.597870809416223 3.6446666666666663 8.0983750000000025 10.776957511924993 166.50000000000003 0.20722916666666666 177.50000000000003 0.30393750000000003 0.90860416666666677 13.794696417093478 196.50000000000003
decision_type=2 2 2 2 2 2 2 2 2 2 2 2 2 2 2 2 2 2 2 2 2 2 2 2 2 2 2 2 2 2
left_child=2 7 5 10 8 -1 11 -2 9 -4 -3 -7 16 -14 -5 -16 -9 -10 -13 -18 21 23 -11 26 28 -26 -21 -12 -25 -30
right_child=1 3 4 14 -6 6 -8 12 17 22 27 18 13 -15 15 -17 19 -19 -20 20 -22 -23 -24 24 25 -27 -28 -29 29 -31
leaf_value=-249.20905325753347 108.09420611063641 9.5801803442148064 -93.126111713707019 -19.371585877282282 26.802050143877665 -110.31364774074196 -85.758464880703258 137.11251333662608 20.50097232273647 7.7649511521862395 114.23074840818134 -149.82255660881432 167.36953536890732 109.52191653920111 45.001278175424652 -34.038439769129603 226.75771690817442 -59.865597128868103 -114.75092052796968 220.03111760275706 220.01648161917024 103.07819182452033 -58.042862539738422 133.77560090564546 157.00740613937378 63.059345799400695 141.76361778259277 70.922390156422026 246.77654806283806 155.17420501708986
leaf_weight=21 108 26 141 70 60 212 147 103 35 31 70 354 79 107 135 31 34 34 117 56 33 34 64 21 32 21 20 106 26 21
leaf_count=21 108 26 141 70 60 212 147 103 35 31 70 354 79 107 135 31 34 34 117 56 33 34 64 21 32 21 20 106 26 21
internal_value=-0.585196 108.234 -101.977 44.3538 -44.6975 -126.545 -123.441 148.493 -58.763 -70.3594 78.0347 -131.551 155.925 134.092 15.5253 30.2408 166.053 -19.0999 -141.11 176.056 169.526 162.313 -36.5687 172.536 155.641 119.783 199.434 88.1473 183.59 205.848
internal_weight=2349 1133 1216 438 365 851 830 695 305 236 202 683 587 186 236 166 401 69 471 298 264 231 95 197 121 53 76 176 68 47
internal_count=2349 1133 1216 438 365 851 830 695 305 236 202 683 587 186 236 166 401 69 471 298 264 231 95 197 121 53 76 176 68 47
is_linear=0
shrinkage=0.05


Tree=11
num_leaves=31
num_cat=0
split_feature=36 15 36 0 15 36 0 15 39 5 6 15 42 35 44 8 8 38 22 37 14 42 28 45 5 21 22 10 0 11
split_gain=9.3562e+09 1.05187e+09 6.17735e+08 1.55813e+08 1.32513e+08 1.19776e+08 7.96952e+07 6.83261e+07 6.41566e+07 5.73835e+07 5.06426e+07 6.55415e+07 5.03827e+07 5.01355e+07 5.08808e+07 4.08101e+07 4.39602e+07 4.27474e+07 5.78866e+07 4.20906e+07 4.04971e+07 4.70851e+07 4.0212e+07 3.36838e+07 3.85309e+07 3.26498e+07 3.1815e+07 3.14405e+07 3.04927e+07 4.1025e+07
threshold=26593.892857142859 114.50000000000001 23984.185714285719 0.50933333333333353 329.50000000000006 21210.157142857148 0.79285416666666675 24.500000000000004 22606.750000000004 3.6653333333333342 0.26702083333333343 306.50000000000006 24265.000000000004 32359.000000000004 31223.942857142862 0.20722916666666666 0.16172916666666667 29003.900000000005 181.50000000000003 3049.8595937620989 4.5000000000000009 28201.000000000004 191.66071428571431 1854.3153738822575 4.0958333333333341 10.776957511924993 165.50000000000003 7.4270833333333348 0.27793750000000006 2019.5000000000002
decision_type=2 2 2 2 2 2 2 2 2 2 2 2 2 2 2 2 2 2 2 2 2 2 2 2 2 2 2 2 2 2
left_child=2 7 5 9 10 8 23 -2 -1 -3 11 -4 -5 15 -15 16 -9 28 -19 27 -16 -22 -12 24 -7 -13 -11 -17 -18 -30
right_child=1 3 4 12 -6 6 -8 13 -10 26 22 25 -14 14 20 19 17 18 -20 -21 21 -23 -24 -25 -26 -27 -28 -29 29 -31
leaf_value=-239.18759495661809 110.92869692718662 91.419347229003904 -88.469805590311694 21.221803546401691 25.461947499910991 -80.028690716045162 -133.17778570473982 114.56684297279077 -147.88397476093189 2.3823351916144877 19.475924072265627 7.3767041790869925 -40.087413032687444 194.38433715820315 135.13764984519395 186.02629669189454 122.0253139557377 256.616704827386 163.99093066800026 200.77297007242839 123.80260183400122 28.005881599757984 -56.872317196341129 -114.44257314160187 -145.67637719726562 -55.140719959884883 56.538649163762138 117.67734083184655 157.13268193562828 232.3263561542218
leaf_weight=26 148 115 141 106 60 211 303 27 74 34 35 31 49 25 108 20 31 37 31 24 29 23 34 212 25 64 134 106 60 26
leaf_count=26 148 115 141 106 60 211 303 27 74 34 35 31 49 25 108 20 31 37 31 24 29 23 34 212 25 64 134 106 60 26
internal_value=-0.555936 102.823 -96.8781 42.1361 -42.4626 -120.217 -113.372 141.068 -171.623 64.2064 -55.8248 -66.8414 1.84018 149.223 128.048 160.044 174.165 182.864 214.39 140.086 117.683 81.431 -18.1449 -99.9772 -86.9829 -34.7403 45.5784 128.526 164.54 179.866
internal_weight=2349 1133 1216 438 365 851 751 695 100 283 305 236 155 547 185 362 212 185 68 150 160 52 69 448 236 95 168 126 117 86
internal_count=2349 1133 1216 438 365 851 751 695 100 283 305 236 155 547 185 362 212 185 68 150 160 52 69 448 236 95 168 126 117 86
is_linear=0
shrinkage=0.05


Tree=12
num_leaves=31
num_cat=0
split_feature=40 12 12 40 44 2 0 47 0 0 24 9 35 13 2 25 25 46 31 32 0 3 37 14 37 33 17 13 6 44
split_gain=8.40236e+09 7.82023e+08 6.61863e+08 1.85921e+08 1.28935e+08 9.33968e+07 8.68305e+07 7.87755e+07 7.67266e+07 5.48128e+07 5.16474e+07 4.86962e+07 4.66837e+07 3.99884e+07 5.16513e+07 3.79291e+07 4.98597e+07 4.5458e+07 3.35752e+07 3.30519e+07 3.12695e+07 3.08612e+07 2.89847e+07 2.86123e+07 3.29513e+07 3.20815e+07 3.05421e+07 3.1051e+07 4.90519e+07 3.46816e+07
threshold=27314.785714285717 10.500000000000002 4.5000000000000009 22844.357142857149 24640.88571428572 0.77641666666666687 0.49975000000000008 31564.000000000004 0.32981250000000001 0.80920833333333342 188.39285714285717 0.38016666666666671 29969.600000000002 26.500000000000004 0.88168750000000007 10.483630765285874 11.319534760290473 23092.250000000004 224.50000000000003 23803.500000000004 0.45241666666666674 0.73077083333333348 1757.4298854859646 4.5000000000000009 2094.838370615586 32890.900000000001 199.50000000000003 18.500000000000004 0.26827083333333335 29788.923214285714
decision_type=2 2 2 2 2 2 2 2 2 2 2 2 2 2 2 2 2 2 2 2 2 2 2 2 2 2 2 2 2 2
left_child=1 3 8 5 22 -1 15 12 13 -7 -10 -8 18 -2 -15 -4 -17 -18 -5 -11 -19 -6 -3 25 -25 26 27 29 -29 -12
right_child=2 4 6 7 21 9 11 -9 10 19 23 -13 -14 14 -16 16 17 20 -20 -21 -22 -23 -24 24 -26 -27 -28 28 -30 -31
leaf_value=-214.72409888373483 137.69567040311128 -29.703386960404643 17.628819556114003 -83.072977922877229 7.0845969853862645 -106.15151198705037 25.527351441254488 -0.62473433264370626 182.71588197187944 -131.09356607090342 111.47499787614152 -56.434024810791016 -11.806688919067383 227.91351674397788 136.59248487353327 142.53812854073266 123.77676441955566 71.33286301380879 -122.80727908207821 -190.70615480863131 21.555908702503555 64.379028057229931 -75.129352773469066 109.43365863453258 38.225290092825894 160.30013432184856 57.627128851002659 25.782519960403445 124.46505703645595 191.92447844005767
leaf_weight=27 410 89 39 292 124 327 74 29 22 220 37 24 20 30 32 22 25 74 65 26 55 29 58 33 32 30 29 20 34 21
leaf_count=27 410 89 39 292 124 327 74 29 22 220 37 24 20 30 32 22 25 74 65 26 55 29 58 33 32 30 29 20 34 21
internal_value=-0.528139 -85.0365 105.29 -106.165 -14.1854 -123.847 44.462 -80.0346 131.371 -119.565 109.445 5.45518 -86.143 143.355 180.78 62.2418 72.1276 62.069 -90.3075 -137.394 50.1101 17.9443 -47.6266 102.615 74.3772 113.349 103.359 115.2 87.916 140.603
internal_weight=2349 1306 1043 1006 300 600 313 406 730 573 258 98 377 472 62 215 176 154 357 246 129 153 147 236 65 171 141 112 54 58
internal_count=2349 1306 1043 1006 300 600 313 406 730 573 258 98 377 472 62 215 176 154 357 246 129 153 147 236 65 171 141 112 54 58
is_linear=0
shrinkage=0.05


Tree=13
num_leaves=31
num_cat=0
split_feature=40 15 15 40 0 15 15 46 47 23 47 41 35 8 25 35 0 9 35 44 18 38 10 17 15 8 40 29 2 13
split_gain=7.58313e+09 7.40177e+08 6.31021e+08 1.69812e+08 1.01969e+08 9.63475e+07 8.68521e+07 7.27952e+07 7.13979e+07 6.63654e+07 5.35375e+07 5.50937e+07 4.20728e+07 3.58536e+07 3.43303e+07 4.48375e+07 4.59966e+07 4.29784e+07 4.03611e+07 3.76724e+07 4.65537e+07 3.62165e+07 3.40341e+07 3.13778e+07 3.0066e+07 2.95191e+07 3.16201e+07 2.94455e+07 4.00272e+07 2.9103e+07
threshold=27314.785714285717 307.50000000000006 108.50000000000001 22844.357142857149 0.48341666666666672 330.50000000000006 266.50000000000006 25140.450000000004 31564.000000000004 141.50000000000003 31017.500000000004 2045.0834771764337 29969.600000000002 0.17506249999999998 10.794916385226779 32359.000000000004 0.265125 0.35385416666666675 27982.600000000002 31338.833928571436 202.50000000000003 28572.150000000005 8.502083333333335 188.50000000000003 357.50000000000006 0.20722916666666666 31630.946428571431 13.138356030609485 0.96035416666666673 23.500000000000004
decision_type=2 2 2 2 2 2 2 2 2 2 2 2 2 2 2 2 2 2 2 2 2 2 2 2 2 2 2 2 2 2
left_child=1 3 7 6 13 22 9 -2 12 -1 -6 -12 27 -4 21 16 -16 18 -18 -17 -21 -9 23 -3 -15 26 -20 28 -5 -19
right_child=2 5 4 8 10 -7 -8 14 -10 -11 11 -13 -14 24 15 19 17 29 25 20 -22 -23 -24 -25 -26 -27 -28 -29 -30 -31
leaf_value=-216.39137580508279 91.777866583400311 13.220789480209351 21.970132941168711 -57.925447453313808 77.017055335411669 22.545858693673061 -87.646040944581813 58.139593975360576 -0.5934973354997306 -125.24152388815067 -34.489550011754034 38.697441652086049 -11.21635524749756 66.744135343840071 86.234567451477062 173.90397564923322 211.93273176193239 170.59323386096958 124.5051187205959 94.566286836480202 170.41699291992188 129.15655698447392 -71.447501677655154 -42.572348691546729 116.94277396731907 117.48962040660174 186.90036005655926 -98.131354278126409 -120.16612288951875 235.99397860440342
leaf_weight=21 108 42 37 134 26 130 172 26 29 407 60 45 20 174 24 27 20 75 37 106 25 58 47 63 36 92 45 209 32 22
leaf_count=21 108 42 37 134 26 130 172 26 29 407 60 45 20 174 24 27 20 75 37 106 25 58 47 63 36 92 45 209 32 22
internal_value=-0.501732 -80.7847 100.025 -100.538 48.4412 -9.05623 -117.654 129.347 -76.3168 -129.714 12.7821 -3.1237 -81.8762 67.3535 136.631 141.862 152.765 158.252 144.664 120.126 109.042 107.175 -36.0843 -20.2551 75.3496 136.932 158.746 -85.6447 -69.9236 185.426
internal_weight=2349 1306 1043 1024 378 282 600 665 424 428 131 105 395 247 557 473 315 291 194 158 131 84 152 105 210 174 82 375 166 97
internal_count=2349 1306 1043 1024 378 282 600 665 424 428 131 105 395 247 557 473 315 291 194 158 131 84 152 105 210 174 82 375 166 97
is_linear=0
shrinkage=0.05


Tree=14
num_leaves=31
num_cat=0
split_feature=36 15 36 5 15 39 0 46 8 14 8 7 34 42 8 35 15 3 47 45 39 26 15 8 7 19 7 41 21 18
split_gain=6.87846e+09 7.77259e+08 4.63104e+08 1.23088e+08 1.00359e+08 9.83861e+07 8.77588e+07 5.86064e+07 4.56653e+07 4.28703e+07 5.67038e+07 4.93693e+07 4.5288e+07 4.73337e+07 4.30019e+07 4.23046e+07 3.96127e+07 3.8098e+07 3.72193e+07 4.00512e+07 3.71916e+07 5.58354e+07 3.55882e+07 3.43239e+07 3.29178e+07 3.49635e+07 3.10223e+07 3.08651e+07 2.94526e+07 4.28295e+07
threshold=26593.892857142859 114.50000000000001 24089.021428571432 3.7151041666666669 327.50000000000006 22606.750000000004 0.80920833333333342 25140.450000000004 0.17506249999999998 4.5000000000000009 0.20577083333333332 0.17235416666666661 34417.450000000004 27081.650000000005 0.19131249999999997 32126.350000000002 290.50000000000006 0.72447916666666679 31564.000000000004 1660.1124698539909 29744.650000000005 173.50000000000003 252.50000000000003 0.16839583333333333 0.17435416666666662 187.50000000000003 0.17464583333333333 2346.7756891393406 14.246135649796116 189.50000000000003
decision_type=2 2 2 2 2 2 2 2 2 2 2 2 2 2 2 2 2 2 2 2 2 2 2 2 2 2 2 2 2 2
left_child=2 7 5 8 18 26 16 -2 -3 10 14 27 13 17 23 -13 -7 -12 19 -4 -5 -22 -8 -9 25 -15 -1 -11 -16 -30
right_child=1 3 4 20 -6 6 22 9 -10 11 12 15 -14 24 28 -17 -18 -19 -20 -21 21 -23 -24 -25 -26 -27 -28 -29 29 -31
leaf_value=-223.18728630065917 87.188973703842478 2.7932614839993994 0.8145844014485677 -23.298617167308414 17.859441256849731 -95.092510236274947 -138.76213566898522 177.0569879705256 73.783020680600941 109.07178428286598 185.60613442697834 107.97866139487616 189.11723243713379 114.07992147281766 155.21287589439979 40.033254381020868 -63.250268031704813 101.69569580554963 15.848126293364027 -60.720803466506077 36.411236908700737 -34.827162372364718 -99.410184288024908 116.56174438853323 124.40392112731934 46.607379379868512 -135.12149078369143 174.25263472795487 160.54287212371827 264.01933807373047
leaf_weight=20 108 26 30 58 73 460 153 33 176 42 31 63 20 32 52 36 124 24 21 223 144 34 92 81 53 48 20 32 20 20
leaf_count=20 108 26 30 58 73 460 153 33 176 42 31 63 20 32 52 36 124 24 21 223 144 34 92 81 53 48 20 32 20 20
internal_value=-0.476645 88.1626 -83.0657 35.9959 -34.2356 -102.564 -98.8684 121.039 64.6457 127.267 136.002 106.364 117.586 109.977 154.596 83.2712 -88.3315 148.991 -48.1149 -53.4241 11.4736 22.8039 -123.985 134.074 93.843 73.5964 -179.154 137.258 180.025 212.281
internal_weight=2349 1133 1216 438 347 869 829 695 202 587 414 173 208 188 206 99 584 55 274 253 236 178 245 114 133 80 40 74 92 40
internal_count=2349 1133 1216 438 347 869 829 695 202 587 414 173 208 188 206 99 584 55 274 253 236 178 245 114 133 80 40 74 92 40
is_linear=0
shrinkage=0.05


Tree=15
num_leaves=31
num_cat=0
split_feature=40 15 15 40 5 2 15 5 28 10 36 20 34 9 8 15 26 28 28 39 40 42 32 18 41 18 3 34 19 41
split_gain=6.17013e+09 5.98532e+08 5.80305e+08 1.61687e+08 9.87445e+07 8.28295e+07 5.51465e+07 4.89025e+07 4.64643e+07 3.91055e+07 3.61288e+07 4.80882e+07 3.90797e+07 4.3071e+07 3.55753e+07 3.49832e+07 5.53639e+07 3.47674e+07 3.29782e+07 3.23627e+07 3.07058e+07 4.86244e+07 4.8504e+07 4.13154e+07 3.95095e+07 3.49362e+07 2.82011e+07 3.55229e+07 2.80695e+07 2.73982e+07
threshold=27314.785714285717 108.50000000000001 302.50000000000006 24153.285714285717 3.6653333333333342 0.77641666666666687 327.50000000000006 4.1074791666666677 194.55357142857147 7.9520833333333343 31193.228571428575 182.21428571428575 34417.450000000004 0.3808125 0.24364583333333331 354.50000000000006 174.50000000000003 190.23214285714289 192.30357142857147 23783.650000000005 32308.275000000005 28397.400000000005 33654.600000000006 194.50000000000003 2215.2377382402033 190.50000000000003 0.71039583333333345 22316.100000000002 198.50000000000003 2017.9105223250415
decision_type=2 2 2 2 2 2 2 2 2 2 2 2 2 2 2 2 2 2 2 2 2 2 2 2 2 2 2 2 2 2
left_child=2 10 3 5 8 -1 -4 19 29 17 11 -2 13 14 20 16 18 -5 -6 -7 21 22 23 -12 -23 -22 -9 -28 -25 -3
right_child=1 4 6 9 15 7 -8 26 -10 -11 12 -13 -14 -15 -16 -17 -18 -19 -20 -21 25 24 -24 28 -26 -27 27 -29 -30 -31
leaf_value=-185.91262567593503 174.25118905703229 123.84139795070742 -30.138012246665717 24.528833883780024 47.397246322631844 -112.24769871598583 12.498652844922297 -91.253752240827012 27.337891367862102 -68.180615314782841 156.64246522279888 100.30497253013931 170.74257579878267 180.88988627115884 58.306110780135441 67.031628325715289 -47.430238927205409 -43.449909933632426 4.8272250673045285 -83.174844340412818 43.252868706247085 138.26542872767297 73.742958985675472 56.159438705444337 227.08972615287416 120.24424715739924 -106.4831584151586 -162.11403590809218 138.00316787719726 72.234141999396726
leaf_weight=26 24 41 159 27 90 118 145 62 38 102 78 262 51 30 23 39 30 62 92 507 23 31 44 22 21 41 60 55 20 69
leaf_count=26 24 41 159 27 90 118 145 62 38 102 78 262 51 30 23 39 30 62 92 507 23 31 44 22 21 41 60 55 20 69
internal_value=1.75596 91.0922 -70.4288 -88.5158 42.6107 -98.0816 -9.80145 -95.2343 75.0033 -47.0473 119.964 106.51 129.984 123.742 118.084 23.5107 15.5045 -22.8271 25.8783 -88.6638 122.994 132.007 118.649 135.114 174.137 92.5755 -118.435 -133.089 95.1326 91.4696
internal_weight=2392 1069 1323 1019 399 828 304 802 148 191 670 286 384 333 303 251 212 89 182 625 280 216 164 120 52 64 177 115 42 110
internal_count=2392 1069 1323 1019 399 828 304 802 148 191 670 286 384 333 303 251 212 89 182 625 280 216 164 120 52 64 177 115 42 110
is_linear=0
shrinkage=0.05


Tree=16
num_leaves=31
num_cat=0
split_feature=40 15 36 15 5 2 2 28 44 10 24 9 3 19 41 44 3 5 10 4 15 3 44 34 15 17 29 39 17 7
split_gain=5.56854e+09 5.40175e+08 5.25221e+08 1.13487e+08 8.91169e+07 8.10313e+07 6.4957e+07 4.19341e+07 4.05482e+07 3.89148e+07 3.33799e+07 3.27243e+07 3.26904e+07 3.242e+07 4.46556e+07 5.3628e+07 3.37162e+07 3.1411e+07 4.57504e+07 4.40584e+07 3.06059e+07 2.84262e+07 3.05028e+07 2.70812e+07 3.31712e+07 2.90801e+07 2.67356e+07 3.33576e+07 2.57607e+07 2.55066e+07
threshold=27314.785714285717 108.50000000000001 23984.185714285719 320.50000000000006 3.6653333333333342 0.77641666666666687 0.95425000000000004 194.55357142857147 30358.360714285718 7.8770833333333341 196.89285714285717 0.39814583333333337 0.73077083333333348 201.50000000000003 2025.1815124104558 27525.410714285717 0.71868750000000003 3.6403333333333334 8.1312500000000032 703.93333333333351 266.50000000000006 0.71281250000000007 29334.46071428572 23670.300000000003 279.50000000000006 132.50000000000003 11.147519708010513 29320.100000000002 203.50000000000003 0.13412499999999997
decision_type=2 2 2 2 2 2 2 2 2 2 2 2 2 2 2 2 2 2 2 2 2 2 2 2 2 2 2 2 2 2
left_child=2 8 5 9 7 -1 23 28 -2 11 13 -4 -5 14 15 -6 -15 19 -19 29 -8 -16 -23 24 25 -7 -11 -28 -3 -10
right_child=1 4 3 12 10 6 20 -9 17 26 -12 -13 -14 16 21 -17 -18 18 -20 -21 -22 22 -24 -25 -26 -27 27 -29 -30 -31
leaf_value=-176.61699768213126 93.117323606413919 75.142596255527451 -36.349369128648334 -4.6654882852894231 57.830277895927431 -39.007942641865128 -105.05747258851403 25.970996660935256 74.837779479980469 -8.3255081176757812 -38.00823974609375 29.490674377441408 45.787622447130161 99.512011459895547 -4.1841155370076502 -33.035022224918485 24.382459998130798 208.09800039927165 105.70430418014526 79.208031450647582 -79.322538333341299 32.971518139961439 105.57204144104668 -45.096805569094222 -49.088222022554767 -101.58172007062856 -80.499608157764783 -21.777740868829913 136.70854499453591 127.05196027440473
leaf_weight=26 173 89 77 148 22 22 380 38 25 22 21 25 41 28 24 62 32 24 20 65 166 39 23 89 67 119 110 31 21 363
leaf_count=26 173 89 77 148 22 22 380 38 25 22 21 25 41 28 24 62 32 24 20 65 166 39 23 89 67 119 110 31 21 363
internal_value=1.66816 86.5376 -66.9073 -23.3217 40.4802 -89.6782 -86.9968 71.2532 113.966 -44.4334 22.3352 -20.2121 6.27937 27.8448 16.6925 -9.23697 59.4429 121.223 161.555 117.305 -97.2333 42.0189 59.904 -68.1782 -78.0544 -91.8184 -59.5904 -67.5891 86.8961 123.688
internal_weight=2392 1069 1323 454 399 869 843 148 670 265 251 102 189 230 170 84 60 497 44 453 546 86 62 297 208 141 163 141 110 388
internal_count=2392 1069 1323 454 399 869 843 148 670 265 251 102 189 230 170 84 60 497 44 453 546 86 62 297 208 141 163 141 110 388
is_linear=0
shrinkage=0.05


Tree=17
num_leaves=31
num_cat=0
split_feature=40 12 40 12 0 14 40 0 0 1 34 46 41 10 34 33 43 14 0 9 20 31 45 10 44 34 18 43 24 45
split_gain=5.02561e+09 4.5065e+08 4.46986e+08 8.7866e+07 8.69137e+07 6.52154e+07 1.16923e+08 5.14842e+07 4.79011e+07 4.43693e+07 4.52209e+07 4.24104e+07 3.95125e+07 3.67929e+07 3.62509e+07 3.62169e+07 4.82927e+07 5.0505e+07 4.8053e+07 4.88891e+07 4.2364e+07 3.91274e+07 6.1244e+07 4.38178e+07 3.78648e+07 7.02231e+07 3.60075e+07 3.59593e+07 3.50818e+07 3.50621e+07
threshold=27314.785714285717 4.5000000000000009 24153.285714285717 9.5000000000000018 0.58906250000000016 3.5000000000000004 21096.317857142862 0.51222916666666685 0.72664583333333355 7.378750000000001 23901.250000000004 18148.650000000005 2045.0834771764337 7.8645833333333348 20311.750000000004 32069.250000000004 33465.150000000009 2.5000000000000004 0.26991666666666669 0.36829166666666674 182.21428571428575 225.50000000000003 2520.6175549788272 7.5770833333333343 31719.680357142857 31839.200000000004 197.50000000000003 34731.600000000006 192.53571428571431 2496.4102032873857
decision_type=2 2 2 2 2 2 2 2 2 2 2 2 2 2 2 2 2 2 2 2 2 2 2 2 2 2 2 2 2 2
left_child=2 15 3 5 -4 6 -1 -3 -5 14 11 -11 -9 -6 -7 20 -17 24 -19 27 -2 22 -22 -23 28 -26 -24 -20 -18 -29
right_child=1 7 4 8 13 9 -8 12 -10 10 -12 -13 -14 -15 -16 16 17 18 19 -21 21 23 26 -25 25 -27 -28 29 -30 -31
leaf_value=-206.98374577275032 159.64281918207806 45.159929906678897 8.4813117843407859 -30.37473836447063 -13.519021755017732 -73.499071478074598 -98.973592982398372 -33.794654604446059 -75.410293609973721 -31.443127050853914 -43.543915405273438 -107.50328036679161 33.987923407000167 -52.287774235148767 4.9875523754528599 46.486863834207711 142.02321308277271 167.386033982497 131.87959024180537 151.44694832393103 92.924523698734944 118.30644461142052 112.33131778717041 55.75069839062899 63.108048629760745 173.40446543539724 207.20955810546877 26.240398934012969 225.10545654296877 92.908591694948157
leaf_weight=27 24 241 156 95 95 31 348 43 156 21 50 144 43 172 28 22 27 26 23 28 239 37 20 115 27 31 20 38 24 41
leaf_count=27 24 241 156 95 95 31 348 43 156 21 50 144 43 172 28 22 27 26 23 28 239 37 20 115 27 31 20 38 24 41
internal_value=1.58475 82.2107 -63.562 -83.4864 -21.1695 -93.2021 -106.75 33.3084 -58.365 -74.6598 -85.1999 -97.8229 0.0966344 -38.4936 -36.2512 103.762 117.671 123.58 105.334 92.9241 94.9887 91.3885 102.508 70.9781 149.694 122.06 159.77 76.859 181.121 60.8403
internal_weight=2392 1069 1323 900 423 649 375 327 251 274 215 165 86 267 59 742 287 265 156 130 455 431 279 152 109 58 40 102 51 79
internal_count=2392 1069 1323 900 423 649 375 327 251 274 215 165 86 267 59 742 287 265 156 130 455 431 279 152 109 58 40 102 51 79
is_linear=0
shrinkage=0.05


Tree=18
num_leaves=31
num_cat=0
split_feature=42 15 36 5 39 15 0 32 41 24 4 41 9 42 18 24 6 9 21 8 29 33 22 5 39 32 17 9 3 20
split_gain=4.47608e+09 5.99162e+08 3.17458e+08 8.87907e+07 7.14536e+07 6.35382e+07 5.50316e+07 4.52939e+07 4.75762e+07 3.8241e+07 3.43275e+07 3.10173e+07 2.98578e+07 3.63144e+07 3.84552e+07 4.57817e+07 6.70616e+07 3.27403e+07 3.20191e+07 3.00544e+07 2.88746e+07 3.51715e+07 3.97767e+07 2.85292e+07 3.96422e+07 2.75411e+07 2.75188e+07 2.72354e+07 2.63121e+07 2.77231e+07
threshold=23107.850000000002 108.50000000000001 23984.185714285719 3.6653333333333342 22416.900000000005 320.50000000000006 0.74920833333333348 28396.350000000002 2078.4699567606708 188.53571428571431 669.92916666666679 1604.8840608786938 0.3760208333333333 28385.150000000005 201.50000000000003 194.75000000000003 0.27635416666666673 0.34385416666666674 21.75731940269273 0.20764583333333328 14.193089271481613 20611.400000000005 120.50000000000001 3.4736041666666675 34851.650000000001 24421.900000000005 206.50000000000003 0.31264583333333335 0.7281875000000001 191.35714285714286
decision_type=2 2 2 2 2 2 2 2 2 2 2 2 2 2 2 2 2 2 2 2 2 2 2 2 2 2 2 2 2 2
left_child=2 12 4 26 -1 9 20 8 10 -4 11 -5 13 18 15 16 -15 -16 -2 -18 -6 -22 -23 -14 -25 -11 28 -9 -3 -30
right_child=1 3 5 7 6 -7 -8 27 -10 25 -12 -13 23 14 17 -17 19 -19 -20 -21 21 22 -24 24 -26 -27 -28 -29 29 -31
leaf_value=-155.53401417886059 88.469812844385501 73.990319930751568 1.9852278833803922 -32.016282494862871 -46.820717958124675 5.7594005770981314 -87.602491360706296 -13.51196384628614 40.55427783702811 -70.773831902929103 -40.703995909955772 42.688198887218135 80.845228091153231 60.35666324297587 204.53372337704616 58.917881527462526 200.39965844726564 118.18340500541356 151.76725529261998 118.16679069519044 -28.977077526279857 -155.44612037658692 -76.610175417661665 120.12016758388944 203.3166742234003 -33.851020368679549 115.87747787475587 44.56683148211382 55.273302679061885 -12.701126352945964
leaf_weight=31 411 71 46 24 164 112 546 24 48 83 72 33 22 24 21 37 25 23 21 20 28 20 80 45 21 129 20 127 40 24
leaf_count=31 411 71 46 24 164 112 546 24 48 83 72 33 22 24 21 37 25 23 21 20 28 20 80 45 21 129 20 127 40 24
internal_value=1.50552 72.4077 -64.4753 29.9563 -80.9899 -25.6882 -78.2323 15.2193 -1.94216 -39.3399 -17.7548 11.2337 103.011 98.9063 120.102 103.791 127.853 159.396 91.5468 163.852 -60.7113 -78.5086 -92.3774 130.155 146.592 -48.3066 61.1417 35.3358 53.0327 29.7829
internal_weight=2392 1153 1239 483 869 370 838 328 177 258 129 57 670 582 150 106 69 44 432 45 292 128 100 88 66 212 155 151 135 64
internal_count=2392 1153 1239 483 869 370 838 328 177 258 129 57 670 582 150 106 69 44 432 45 292 128 100 88 66 212 155 151 135 64
is_linear=0
shrinkage=0.05


Tree=19
num_leaves=31
num_cat=0
split_feature=42 15 15 44 5 16 32 41 41 5 44 10 44 28 19 4 14 13 14 9 24 10 24 4 42 18 7 18 18 45
split_gain=4.03966e+09 5.40744e+08 2.71414e+08 1.15404e+08 8.01336e+07 6.06917e+07 4.08778e+07 4.29375e+07 3.98693e+07 3.78976e+07 3.70376e+07 3.32839e+07 3.30385e+07 3.23519e+07 3.10677e+07 3.16644e+07 3.21999e+07 3.02996e+07 3.18322e+07 5.95608e+07 3.75099e+07 6.18463e+07 4.37932e+07 3.57629e+07 3.3337e+07 2.9151e+07 2.91444e+07 3.6295e+07 3.67739e+07 2.90191e+07
threshold=23107.850000000002 108.50000000000001 302.50000000000006 24872.978571428579 3.6653333333333342 112.50000000000001 28396.350000000002 2078.4699567606708 2417.9077780004159 4.1074791666666677 24640.88571428572 7.4104166666666673 30358.360714285718 194.55357142857147 177.50000000000003 670.81875000000014 2.5000000000000004 26.500000000000004 2.5000000000000004 0.3760208333333333 192.53571428571431 8.2145833333333353 191.17857142857147 687.97708333333355 27737.300000000007 188.50000000000003 0.20197916666666663 182.50000000000003 206.50000000000003 2044.6990616750675
decision_type=2 2 2 2 2 2 2 2 2 2 2 2 2 2 2 2 2 2 2 2 2 2 2 2 2 2 2 2 2 2
left_child=2 12 3 5 13 -1 7 14 11 -7 -4 -5 -2 -3 -6 -16 -17 18 20 23 22 -22 24 -20 -14 -26 27 -25 -29 -12
right_child=1 4 10 8 6 9 -8 -9 -10 -11 29 -13 17 -15 15 16 -18 -19 19 -21 21 -23 -24 26 25 -27 -28 28 -30 -31
leaf_value=-165.98132790327074 79.041065377031458 70.875913030010153 -25.885886459101261 11.542433214187623 -74.150325050353999 -72.16331419203182 33.56897624699485 38.526563722888632 15.526100265979768 -98.175664527722574 62.394216088453931 -56.821029762528909 145.66399858986458 17.290844510052658 21.858496897037213 2.3202051101192351 -73.131200276888336 138.37558281668302 110.99489000889294 142.52774803524926 177.35506666501362 88.436626786896682 38.104269653320316 116.03161175515916 125.97207112312317 42.566568725759339 9.8582027616954999 39.191500790018438 111.93780351721723 -4.4921237926483153
leaf_weight=20 173 118 153 21 20 643 151 48 32 179 24 117 41 37 52 31 26 58 57 42 48 33 25 36 20 22 21 71 23 50
leaf_count=20 173 118 153 21 20 643 151 48 32 179 24 117 41 37 52 31 26 58 57 42 48 33 25 36 20 22 21 71 23 50
internal_value=1.43024 68.7873 -61.2515 -72.3349 28.4585 -79.9217 14.4584 -1.84505 -34.7578 -77.8278 -11.84 -46.4179 97.8601 58.0846 -16.8671 -6.35636 -32.0962 104.411 99.9234 88.2168 115.408 141.129 96.1179 77.2502 113.592 82.2835 64.5121 73.3408 56.9911 17.2007
internal_weight=2392 1153 1239 1012 483 842 328 177 170 822 227 138 670 155 129 109 57 497 439 250 189 81 108 208 83 42 151 130 94 74
internal_count=2392 1153 1239 1012 483 842 328 177 170 822 227 138 670 155 129 109 57 497 439 250 189 81 108 208 83 42 151 130 94 74
is_linear=0
shrinkage=0.05


Tree=20
num_leaves=31
num_cat=0
split_feature=40 12 12 24 0 44 43 0 14 5 1 1 34 3 36 25 29 7 19 37 44 5 7 5 5 24 24 14 32 7
split_gain=3.70913e+09 4.69407e+08 2.07955e+08 9.15989e+07 7.24142e+07 5.94982e+07 5.1187e+07 4.75594e+07 4.0447e+07 3.75507e+07 4.46236e+07 3.71125e+07 3.58641e+07 3.538e+07 3.5364e+07 3.15378e+07 3.21873e+07 3.09686e+07 3.01789e+07 2.95941e+07 2.70516e+07 2.59655e+07 2.51419e+07 2.49278e+07 3.38197e+07 4.18862e+07 3.78381e+07 3.43261e+07 3.90816e+07 2.88478e+07
threshold=25912.957142857147 4.5000000000000009 9.5000000000000018 115.5714285714286 0.58906250000000016 24640.88571428572 26104.650000000005 0.33570833333333333 3.5000000000000004 3.7189166666666669 8.1088333333333349 7.5677500000000011 34261.700000000004 0.72120833333333334 23144.742857142865 9.4546331645119377 11.783176734165098 0.13202083333333334 179.50000000000003 1970.1231443673616 27736.444642857146 3.8415416666666675 0.16412499999999999 3.6403333333333334 3.5659375000000009 192.25000000000003 191.32142857142858 3.5000000000000004 31432.500000000004 0.18047916666666666
decision_type=2 2 2 2 2 2 2 2 2 2 2 2 2 2 2 2 2 2 2 2 2 2 2 2 2 2 2 2 2 2
left_child=2 7 3 -1 9 14 8 17 13 10 11 20 18 -5 -4 -10 -17 -2 -9 -18 -3 -11 -7 24 25 26 -19 28 -27 -29
right_child=1 4 5 6 -6 22 -8 12 15 21 -12 -13 -14 -15 -16 16 19 23 -20 -21 -22 -23 -24 -25 -26 27 -28 29 -30 -31
leaf_value=-176.84216388204823 34.47373375665574 63.21344878787086 -61.595102409134064 -81.926014914336037 -34.598984262055041 63.413135299682622 -57.971532934325843 112.24134590148927 -122.24268767038983 7.0535480370597234 -25.794780654907228 68.962488692438498 2.9863901710510259 -117.41256791776227 -27.804625387967491 -12.955620022477774 -81.929440888491555 95.116488173482367 64.368443746207873 -29.132829060274016 -9.3798978413483418 50.947978722176906 -14.045072295448998 135.37382790414912 67.219378155104977 100.83399158760353 32.979267808369229 64.211208355065551 178.30455034302503 133.21215259007045
leaf_weight=23 21 21 123 162 51 20 268 40 24 189 20 117 20 124 209 29 121 196 186 34 33 41 22 38 98 27 28 33 41 28
leaf_count=23 21 21 123 162 51 20 268 40 24 189 20 117 20 124 209 29 121 196 186 34 33 41 22 38 98 27 28 33 41 28
internal_value=0.241855 60.793 -63.9142 -78.533 21.6697 -33.2302 -75.5657 85.2192 -85.1107 28.4861 44.8726 53.1378 67.1622 -97.3118 -40.3234 -68.3342 -61.3027 93.9291 72.8415 -70.3482 18.8508 14.8782 22.8398 96.4824 93.2055 100.42 87.3493 123.116 147.544 95.8838
internal_weight=2387 1228 1159 785 472 374 762 756 494 421 191 171 246 286 332 208 184 510 226 155 54 230 42 489 451 353 224 129 68 61
internal_count=2387 1228 1159 785 472 374 762 756 494 421 191 171 246 286 332 208 184 510 226 155 54 230 42 489 451 353 224 129 68 61
is_linear=0
shrinkage=0.05


Tree=21
num_leaves=31
num_cat=0
split_feature=39 15 15 5 15 47 28 8 8 46 33 0 15 30 10 33 37 3 3 30 28 8 15 35 28 24 37 10 3 14
split_gain=3.39437e+09 4.50591e+08 1.86521e+08 9.07622e+07 8.57218e+07 5.9675e+07 4.79588e+07 4.74536e+07 4.79795e+07 4.46348e+07 4.2313e+07 3.81284e+07 4.15327e+07 5.36578e+07 3.81135e+07 3.70514e+07 3.58545e+07 3.36959e+07 3.31756e+07 3.73002e+07 3.20488e+07 3.76047e+07 3.00351e+07 3.30766e+07 3.44792e+07 3.18334e+07 2.88609e+07 2.92988e+07 2.87322e+07 4.43624e+07
threshold=28640.650000000005 106.50000000000001 290.50000000000006 3.6653333333333342 58.500000000000007 30214.800000000007 190.48214285714289 0.20631249999999998 0.19131249999999997 20944.300000000003 29345.550000000003 0.31666666666666671 48.500000000000007 162.50000000000003 7.5520833333333348 27044.250000000004 3414.4714096550774 0.74031250000000015 0.71843750000000017 163.50000000000003 194.55357142857147 0.23806250000000004 330.50000000000006 31501.300000000003 190.16071428571431 196.89285714285717 1502.6810208631116 7.885416666666667 0.71335416666666684 3.5000000000000004
decision_type=2 2 2 2 2 2 2 2 2 2 2 2 2 2 2 2 2 2 2 2 2 2 2 2 2 2 2 2 2 2
left_child=2 7 4 20 -1 28 -7 8 14 15 -10 12 -12 -14 -2 -5 17 18 19 -9 21 -3 23 24 -11 -24 -16 -28 -6 -30
right_child=1 3 -4 9 5 6 -8 16 10 22 11 -13 13 -15 26 -17 -18 -19 -20 -21 -22 -23 25 -25 -26 -27 27 -29 29 -31
leaf_value=-168.00005705460259 125.95613394237701 56.078717369442693 -23.329433841371735 3.9070438385009769 -57.243373120496727 23.900920157596985 -63.624833819445442 85.415449390411382 65.150020915064317 48.611455425849329 212.33351648504086 96.005248359658509 186.01427507815154 82.087917779993134 128.89714021228608 -85.197355957031263 134.24506713867189 4.0413304283505402 82.045109512351161 13.439159452385372 14.287893125745985 130.66482513427735 47.48161448124236 39.192823438927284 -14.017065629824785 -18.258052964644001 30.443809064229328 78.30397445052418 -90.892005108010807 -63.728060274413139
leaf_weight=23 42 109 243 28 197 29 34 30 29 26 22 44 23 27 21 20 20 21 173 45 36 20 113 59 142 22 42 134 349 264
leaf_count=23 42 109 243 28 197 29 34 30 29 26 22 44 23 27 21 20 20 21 173 45 36 20 113 59 142 22 42 134 349 264
internal_value=0.229763 57.1908 -62.1823 24.6875 -72.7194 -70.2091 -23.3352 84.9611 96.4791 12.0855 119.17 132.675 155.084 129.894 82.7128 -33.2198 69.6567 64.8546 70.0042 42.2297 56.0015 67.6425 18.0928 6.98613 -4.32456 36.7685 73.4935 66.8828 -73.8549 -79.1933
internal_weight=2387 1248 1139 575 896 873 63 673 384 410 145 116 72 50 239 48 289 269 248 75 165 129 362 227 168 135 197 176 810 613
internal_count=2387 1248 1139 575 896 873 63 673 384 410 145 116 72 50 239 48 289 269 248 75 165 129 362 227 168 135 197 176 810 613
is_linear=0
shrinkage=0.05


Tree=22
num_leaves=31
num_cat=0
split_feature=40 0 12 24 0 44 43 8 8 14 0 44 18 37 41 14 21 28 3 25 29 3 47 37 9 1 21 9 32 45
split_gain=3.02698e+09 3.81533e+08 1.71292e+08 7.43886e+07 6.78972e+07 5.00774e+07 4.38e+07 3.73753e+07 4.60524e+07 4.85349e+07 4.93558e+07 4.20908e+07 3.46042e+07 3.42442e+07 4.01275e+07 3.38944e+07 3.11373e+07 3.9471e+07 3.05105e+07 2.85316e+07 2.90183e+07 2.81243e+07 4.68693e+07 2.67264e+07 2.59349e+07 4.15844e+07 3.67831e+07 3.55686e+07 3.53821e+07 3.39837e+07
threshold=25912.957142857147 0.38902083333333343 9.5000000000000018 115.5714285714286 0.58131250000000012 24640.88571428572 26104.650000000005 0.20577083333333332 0.19131249999999997 4.5000000000000009 0.31666666666666671 32075.32321428572 209.50000000000003 1516.222579236156 1891.2184429759773 3.5000000000000004 8.8895311849467458 192.16071428571431 0.72120833333333334 9.4546331645119377 11.783176734165098 0.71831250000000002 36363.650000000009 1970.1231443673616 0.32385416666666667 7.8708750000000007 14.447771078181095 0.38114583333333335 28290.950000000001 2228.7996013268421
decision_type=2 2 2 2 2 2 2 2 2 2 2 2 2 2 2 2 2 2 2 2 2 2 2 2 2 2 2 2 2 2
left_child=2 7 3 -1 13 16 15 8 12 10 11 -10 -2 14 -3 18 17 -4 -5 -17 -21 22 -9 -22 25 -15 28 -28 -26 -27
right_child=1 4 5 6 -6 -7 -8 21 9 -11 -12 -13 -14 24 -16 19 -18 -19 -20 20 23 -23 -24 -25 26 29 27 -29 -30 -31
leaf_value=-159.60005260965102 82.793201564465264 -15.777784626287957 42.30246271811999 -74.04324621742154 -26.360526607075681 21.549165076301211 -52.0572811813052 -2.3993572725568497 190.57411021697214 64.012435251957669 88.66813486610971 102.77360425676619 17.077865687283602 102.66657332829067 53.74554082936254 -113.07924664815266 -44.025464701114743 -36.831772117614747 -106.99733982393819 -9.2108804505446855 -74.710876415977793 75.162818745410803 76.37687842671464 -24.537466621398927 19.880474359216826 -7.0748996169478806 -4.027540248048072 59.592781666346959 67.959279388979255 71.543811437061862
leaf_weight=23 224 73 26 162 61 42 268 35 39 37 41 21 22 35 29 24 266 40 124 29 121 231 41 34 71 27 102 28 83 28
leaf_count=23 224 73 26 162 61 42 268 35 39 37 41 21 22 35 29 24 266 40 124 29 121 231 41 34 71 27 102 28 83 28
internal_value=0.218275 54.9188 -57.7388 -71.0065 23.3041 -29.8907 -68.3325 79.4876 89.8851 113.004 130.951 159.844 76.9162 29.6687 3.98865 -77.1619 -36.3981 -5.65768 -88.331 -61.8044 -55.1163 66.4824 40.0983 -63.7051 36.6723 60.0615 29.2603 9.6753 45.7931 32.9492
internal_weight=2387 1228 1159 785 537 374 762 691 384 138 101 60 246 476 102 494 332 66 286 208 184 307 76 155 374 90 284 130 154 55
internal_count=2387 1228 1159 785 537 374 762 691 384 138 101 60 246 476 102 494 332 66 286 208 184 307 76 155 374 90 284 130 154 55
is_linear=0
shrinkage=0.05


Tree=23
num_leaves=31
num_cat=0
split_feature=39 15 15 5 39 35 8 36 5 14 5 29 37 3 4 36 36 46 33 35 41 2 39 18 14 3 3 13 40 9
split_gain=2.77179e+09 3.71228e+08 1.54777e+08 7.44946e+07 7.18425e+07 5.33571e+07 3.92578e+07 4.49438e+07 4.22477e+07 4.51285e+07 4.12559e+07 3.60407e+07 3.17866e+07 3.0468e+07 3.40466e+07 4.38754e+07 3.48706e+07 2.99429e+07 3.32022e+07 2.99401e+07 3.44126e+07 2.68751e+07 2.55868e+07 3.061e+07 2.44834e+07 3.89267e+07 3.59058e+07 3.16897e+07 3.09908e+07 3.08913e+07
threshold=28640.650000000005 106.50000000000001 286.50000000000006 3.7189166666666669 21878.100000000002 29797.750000000004 0.20631249999999998 31663.63571428572 3.6403333333333334 3.5000000000000004 3.5586458333333342 12.328908413568051 3414.4714096550774 0.74031250000000015 691.0562500000002 31143.364285714291 30350.450000000001 20944.300000000003 27044.250000000004 26334.200000000004 2384.6264700134484 0.88097916666666676 34602.30000000001 199.50000000000003 3.5000000000000004 0.71402083333333344 0.73764583333333344 23.500000000000004 21191.87142857143 0.35922916666666671
decision_type=2 2 2 2 2 2 2 2 2 2 2 2 2 2 2 2 2 2 2 2 2 2 2 2 2 2 2 2 2 2
left_child=2 6 4 11 -1 24 7 -2 9 10 -9 -3 13 14 15 16 -8 18 -5 -13 -21 -11 -16 -24 25 -6 27 -26 -27 -29
right_child=1 3 -4 17 5 -7 12 8 -10 21 -12 19 -14 -15 22 -17 -18 -19 -20 20 -22 -23 23 -25 26 28 -28 29 -30 -31
leaf_value=-160.03821350097655 72.672420936256515 8.4511305936177585 -22.800515057583503 4.8490937914167134 -50.766106773835645 14.543289693196616 94.735122222900401 159.76654176712037 173.47374721708752 111.59672850247087 73.222231111072361 96.983318912982952 123.78062801361085 0.61782090323311945 69.166297549095702 121.52276830258577 18.500146980285646 12.53754257980515 -79.499873962402347 24.152978069807894 70.565193631308418 51.52270265725943 4.741436874389648 74.438501217054281 -71.915729197456329 -142.85216880798339 -18.225399636322599 15.538083215193318 -78.719690491829397 -55.781332712757347
leaf_weight=20 221 60 266 28 135 21 30 40 21 29 21 32 20 21 69 46 30 272 20 93 70 52 50 23 229 20 53 22 324 49
leaf_count=20 221 60 266 28 135 21 30 40 21 29 21 32 20 21 69 46 30 272 20 93 70 52 50 23 229 20 53 22 324 49
internal_value=0.207361 51.6803 -56.1914 22.1779 -66.3655 -64.1692 76.8866 87.3629 107.281 97.4916 129.973 42.3385 62.9665 58.445 63.3417 84.784 56.6176 6.11246 -30.2963 52.7654 44.0846 73.0307 47.3354 26.7008 -66.1559 -73.5191 -56.1646 -62.8672 -82.4483 -33.6824
internal_weight=2387 1248 1139 575 873 853 673 384 163 142 61 255 289 269 248 106 60 320 48 195 163 81 142 73 832 479 353 300 344 71
internal_count=2387 1248 1139 575 873 853 673 384 163 142 61 255 289 269 248 106 60 320 48 195 163 81 142 73 832 479 353 300 344 71
is_linear=0
shrinkage=0.05


Tree=24
num_leaves=31
num_cat=0
split_feature=39 15 15 5 39 47 21 20 20 46 45 9 36 4 5 20 18 11 44 9 4 4 19 39 7 17 1 26 1 14
split_gain=2.50154e+09 3.35033e+08 1.4045e+08 6.83477e+07 6.55609e+07 4.77311e+07 3.36761e+07 3.32842e+07 3.14088e+07 3.3441e+07 2.82647e+07 3.48423e+07 2.77515e+07 4.02825e+07 4.75839e+07 2.9484e+07 2.90759e+07 4.30751e+07 3.87037e+07 2.96099e+07 2.62375e+07 2.77746e+07 3.24305e+07 3.13152e+07 2.86167e+07 2.57227e+07 3.30756e+07 2.47993e+07 2.4313e+07 3.61683e+07
threshold=28640.650000000005 106.50000000000001 290.50000000000006 3.6653333333333342 21878.100000000002 30214.800000000007 14.53403231171937 192.92857142857147 188.21428571428575 20973.150000000005 2019.1231768273594 0.34135416666666668 31193.228571428575 690.51875000000007 3.6403333333333334 181.92857142857147 202.50000000000003 2017.5000000000002 32212.558928571434 0.35743750000000002 699.78541666666672 689.06875000000025 187.50000000000003 33751.150000000009 0.19389583333333332 187.50000000000003 7.7946041666666668 165.50000000000003 7.7259375000000015 2.5000000000000004
decision_type=2 2 2 2 2 2 2 2 2 2 2 2 2 2 2 2 2 2 2 2 2 2 2 2 2 2 2 2 2 2
left_child=2 12 4 28 -1 -6 7 -5 -8 -10 -9 -12 15 -14 16 -2 18 -18 19 -15 21 24 -23 -24 -17 26 -4 -7 29 -3
right_child=1 3 25 6 5 27 8 10 9 -11 11 -13 13 14 -16 20 17 -19 -20 -21 -22 22 23 -25 -26 -27 -28 -29 -30 -31
leaf_value=-152.03630294799805 114.15912651062013 70.320005279428827 43.424639907959971 43.20672282542823 -63.730816684965717 12.321431887149812 40.834961555744044 -28.888905157694001 -63.16954154968262 -3.8391054923074286 -15.19563715081466 47.791386710680456 108.54749358268012 51.192688764108198 122.65829562162742 38.831842112340851 53.843424065907804 153.1982424926758 -0.33824541909354078 103.93627623489925 16.30682975544649 116.33621157691591 92.739296843554527 26.267609607472139 103.47147827029228 -32.03392986043707 -20.552353290031697 -50.427142998480029 68.512960965816802 4.2481414866897298
leaf_weight=20 25 34 31 106 813 32 29 41 30 114 38 52 105 111 39 119 24 20 28 35 34 42 37 34 20 154 58 31 78 53
leaf_count=20 25 34 31 106 813 32 29 41 30 114 38 52 105 111 39 119 24 20 28 35 34 42 37 34 20 154 58 31 78 53
internal_value=0.196993 49.0963 -53.3819 21.069 -62.5255 -60.4819 10.1333 22.3763 -6.6389 -16.1996 5.52117 21.1969 73.0423 82.4532 71.7921 62.0881 62.6922 99.0047 53.5097 63.8367 57.5364 63.0992 81.5095 60.9078 48.1325 -19.6671 1.73177 -18.5549 48.2427 30.0693
internal_weight=2387 1248 1139 575 896 876 410 237 173 144 131 90 673 362 257 311 218 44 174 146 286 252 113 71 139 243 89 63 165 87
internal_count=2387 1248 1139 575 896 876 410 237 173 144 131 90 673 362 257 311 218 44 174 146 286 252 113 71 139 243 89 63 165 87
is_linear=0
shrinkage=0.05


Tree=25
num_leaves=31
num_cat=0
split_feature=39 36 15 15 38 8 25 13 4 20 6 32 15 47 7 34 9 33 35 31 16 24 33 33 4 24 16 30 37 24
split_gain=2.03405e+09 2.21988e+08 1.89257e+08 5.71936e+07 4.14076e+07 3.74945e+07 4.97495e+07 4.97526e+07 3.65781e+07 3.4919e+07 4.64794e+07 4.35796e+07 3.67223e+07 3.26744e+07 3.13301e+07 3.23461e+07 3.04348e+07 2.90396e+07 2.85693e+07 2.75922e+07 2.71869e+07 2.69029e+07 2.61996e+07 2.57305e+07 3.71949e+07 3.15779e+07 3.63286e+07 2.56054e+07 3.04933e+07 2.80469e+07
threshold=29591.900000000005 23984.185714285719 106.50000000000001 306.50000000000006 29003.900000000005 0.20677083333333332 14.856548452875783 21.500000000000004 687.34166666666681 194.07142857142858 0.27960416666666671 28631.100000000002 357.50000000000006 25093.500000000004 0.17860416666666667 21145.550000000003 0.31835416666666672 31862.500000000004 30305.900000000005 217.50000000000003 196.50000000000003 197.53571428571431 29216.850000000002 23135.700000000004 649.59583333333342 189.53571428571431 200.50000000000003 170.50000000000003 1233.7092348733195 192.46428571428575
decision_type=2 2 2 2 2 2 2 2 2 2 2 2 2 2 2 2 2 2 2 2 2 2 2 2 2 2 2 2 2 2
left_child=1 13 4 23 -2 6 7 -6 -7 10 18 -12 16 14 -1 -16 -11 21 22 -5 -10 -18 -4 -3 -25 -26 -27 -15 29 -29
right_child=2 3 9 19 5 8 -8 -9 20 12 11 -13 -14 27 15 -17 17 -19 -20 -21 -22 -23 -24 24 25 26 -28 28 -30 -31
leaf_value=-96.896208375629627 57.393172392222496 -79.768229869842529 11.605916372159633 29.733469642351753 101.88389386494954 112.66259218616921 154.00217319835318 14.812926410493397 11.889675401386462 -50.920948242187507 30.978492599063454 87.200049730936698 71.659084777832035 -58.063721502725855 -25.274719149271647 -81.765750490385926 9.6039660857274001 61.724078403819696 40.28378090461095 -8.6267930823883034 82.777916971842444 -53.717117424011235 -58.197258148193363 35.285999696904966 -3.7819118499755859 -70.499202017045363 -7.0063586032751832 36.950239229202275 -50.011288419333837 -43.22085315525532
leaf_weight=95 448 25 41 73 75 22 33 21 38 25 81 60 20 524 45 58 104 22 48 131 21 20 20 22 56 71 33 24 93 20
leaf_count=95 448 25 41 73 75 22 33 21 38 25 81 60 20 524 45 58 104 22 48 131 21 20 20 22 56 71 33 24 93 20
internal_value=-0.810575 -43.9094 48.9942 -13.6884 65.9807 84.3007 101.042 82.8371 57.6385 23.6493 35.9471 54.9026 7.55266 -58.369 -76.1864 -57.0852 0.0548312 8.78356 11.4268 5.10016 37.1211 -0.609112 -11.2804 -32.2046 -25.6711 -34.0528 -50.3524 -53.0318 -33.7858 0.508834
internal_weight=2369 1270 1099 411 658 210 129 96 81 441 250 141 191 859 198 103 171 146 109 204 59 124 61 207 182 160 104 661 137 44
internal_count=2369 1270 1099 411 658 210 129 96 81 441 250 141 191 859 198 103 171 146 109 204 59 124 61 207 182 160 104 661 137 44
is_linear=0
shrinkage=0.05


Tree=26
num_leaves=31
num_cat=0
split_feature=39 36 0 12 8 38 44 8 42 4 25 21 0 20 1 33 30 37 36 5 5 6 20 32 25 26 42 30 8 20
split_gain=1.83573e+09 2.00344e+08 1.56531e+08 4.34464e+07 3.92742e+07 3.64659e+07 5.56949e+07 3.89874e+07 3.46809e+07 3.14601e+07 4.64976e+07 3.97299e+07 3.15878e+07 3.05949e+07 4.13134e+07 3.04188e+07 2.98684e+07 3.19323e+07 2.97453e+07 2.93906e+07 3.59515e+07 3.39058e+07 2.83141e+07 3.50113e+07 2.75487e+07 2.74932e+07 3.05639e+07 2.74459e+07 2.68359e+07 2.53665e+07
threshold=29591.900000000005 23984.185714285719 0.45241666666666674 9.5000000000000018 0.23933333333333331 29139.200000000001 32250.146428571428 0.20837499999999998 28658.950000000001 632.52291666666679 15.205280282292284 12.722308727378175 0.7963125000000002 182.21428571428575 7.2915208333333341 23135.700000000004 170.50000000000003 1594.2088141479114 23570.414285714291 3.5479791666666673 3.5586458333333342 0.31993750000000004 196.6428571428572 28433.350000000002 14.856548452875783 168.50000000000003 19733.900000000005 172.50000000000003 0.24497916666666666 201.35714285714286
decision_type=2 2 2 2 2 2 2 2 2 2 2 2 2 2 2 2 2 2 2 2 2 2 2 2 2 2 2 2 2 2
left_child=1 9 5 15 22 13 7 24 -9 10 11 -1 16 -2 -15 -3 17 -11 25 21 -21 -16 23 -4 -7 26 -19 -5 -22 -14
right_child=2 3 4 27 -6 6 -8 8 -10 12 -12 -13 29 14 19 -17 -18 18 -20 20 28 -23 -24 -25 -26 -27 -28 -29 -30 -31
leaf_value=-69.004322294755411 100.74738613161549 -87.29072872343518 14.344906028898635 11.720309666044573 -33.565070791244509 88.393836411009445 13.045972585678101 19.355869009835381 89.743489510672433 -69.749046097631037 -35.815270900726318 -162.02734324137373 -60.654358596295019 -3.7630282190110949 57.849714246521835 -23.484219851296331 -18.797694655604985 -37.021201582044085 -79.641611700791586 -20.958968026297434 42.472348133776109 114.37418026539588 -9.6343015269229291 64.525518860007239 144.8949720655169 -65.531847560152102 10.331779448509216 -30.100760889053348 97.424959421157837 -113.16732705688476
leaf_weight=22 29 21 101 170 40 94 32 35 35 138 28 24 287 36 184 169 92 107 39 21 299 31 57 53 28 47 50 51 24 25
leaf_count=22 29 21 101 170 40 94 32 35 35 138 28 24 287 36 184 169 92 107 39 21 299 31 57 53 28 47 50 51 24 25
internal_value=-0.770046 -41.7139 46.5445 -13.004 11.8603 56.8107 74.1162 84.2946 54.5497 -55.4505 -86.6159 -117.538 -52.5127 50.5985 48.1542 -30.5365 -44.3667 -50.5409 -39.6325 51.4977 42.434 65.9998 20.4717 31.6149 101.361 -31.9837 -21.9406 2.06929 46.5555 -64.8621
internal_weight=2369 1270 1099 411 251 848 224 192 70 859 74 46 785 624 595 190 473 381 243 559 344 215 211 154 122 204 157 221 323 312
internal_count=2369 1270 1099 411 251 848 224 192 70 859 74 46 785 624 595 190 473 381 243 559 344 215 211 154 122 204 157 221 323 312
is_linear=0
shrinkage=0.05


Tree=27
num_leaves=31
num_cat=0
split_feature=39 36 15 3 29 15 44 36 10 34 17 10 6 3 20 6 8 15 11 28 9 1 34 47 7 34 3 0 9 16
split_gain=1.65674e+09 1.80811e+08 1.57806e+08 5.46673e+07 4.21984e+07 3.48048e+07 3.46546e+07 5.05847e+07 3.67682e+07 3.56692e+07 3.23484e+07 5.0261e+07 3.1424e+07 3.11413e+07 3.04039e+07 4.09879e+07 4.15052e+07 3.17066e+07 2.9688e+07 3.25529e+07 2.90828e+07 3.58507e+07 2.79666e+07 2.76608e+07 2.77679e+07 2.8726e+07 2.74817e+07 2.69928e+07 2.67633e+07 2.56562e+07
threshold=29591.900000000005 23984.185714285719 106.50000000000001 0.73264583333333344 11.092861987516551 327.50000000000006 32333.067857142862 31587.38571428572 8.1687500000000011 33631.80000000001 193.50000000000003 8.2645833333333361 0.26374999999999998 0.71660416666666682 194.07142857142858 0.27960416666666671 0.17470833333333333 357.50000000000006 2018.5000000000002 188.41071428571431 0.35664583333333338 7.8964583333333342 30577.250000000004 25093.500000000004 0.17860416666666667 21145.550000000003 0.72431250000000014 0.28510416666666671 0.31835416666666672 187.50000000000003
decision_type=2 2 2 2 2 2 2 2 2 2 2 2 2 2 2 2 2 2 2 2 2 2 2 2 2 2 2 2 2 2
left_child=1 23 6 4 -3 -6 7 10 9 20 18 -12 -5 -10 15 -4 -17 28 -2 -20 21 27 -21 24 -1 -26 -15 -9 -16 -18
right_child=2 3 14 12 5 -7 -8 8 13 -11 11 -13 -14 26 17 16 29 -19 19 22 -22 -23 -24 -25 25 -27 -28 -29 -30 -31
leaf_value=-88.568495469344299 83.918622353736396 31.878272126172039 9.522871602784603 -5.0158635094052277 -34.650209737228138 1.4649827182933848 11.316870771135603 68.332247657775881 12.066493409255456 147.90825456472544 13.886662951055564 76.955498305426715 78.735408981641143 120.04017139781607 -48.715204818725589 -8.0849996414184577 34.451997894936419 65.621693964004521 100.98885680111972 60.336367766062416 121.44213523155935 36.812094792260062 6.0761252058313246 -47.767386999397161 -21.111436225043406 -74.347467682279387 53.375620702596819 143.32228408813475 7.2722991384872024 82.350484458864599
leaf_weight=95 94 37 109 21 236 93 35 30 29 26 106 45 24 22 25 25 47 20 22 48 37 45 47 661 45 58 52 20 146 69
leaf_count=95 94 37 109 21 236 93 35 30 29 26 106 45 24 22 25 25 47 20 22 48 37 45 47 661 45 58 52 20 146 69
internal_value=-0.731544 -39.6282 44.2173 -12.3538 -18.7478 -24.4414 59.7282 62.448 79.2271 94.3793 50.3503 32.682 39.6515 55.9839 21.0739 32.5492 50.3497 6.05398 62.9944 46.1836 83.8357 69.189 33.4918 -52.678 -69.0716 -51.089 73.1948 98.3283 -0.913008 62.9433
internal_weight=2369 1270 1099 411 366 329 658 623 261 158 362 151 45 103 441 250 141 191 211 117 132 95 95 859 198 103 74 50 171 116
internal_count=2369 1270 1099 411 366 329 658 623 261 158 362 151 45 103 441 250 141 191 211 117 132 95 95 859 198 103 74 50 171 116
is_linear=0
shrinkage=0.05


Tree=28
num_leaves=31
num_cat=0
split_feature=39 40 15 15 38 44 8 4 20 15 33 4 15 3 25 20 41 20 24 1 35 43 41 11 11 33 9 0 25 9
split_gain=1.49521e+09 1.66213e+08 1.4242e+08 4.48839e+07 3.26779e+07 4.04177e+07 3.55223e+07 3.90407e+07 2.80567e+07 4.02902e+07 2.7812e+07 2.95306e+07 2.70674e+07 2.62314e+07 2.48988e+07 2.41859e+07 2.28574e+07 4.10084e+07 2.32377e+07 2.24816e+07 2.83009e+07 2.15489e+07 2.10284e+07 2.65003e+07 2.24211e+07 2.15399e+07 2.07768e+07 2.74372e+07 2.69098e+07 2.60253e+07
threshold=29591.900000000005 23614.939285714288 106.50000000000001 306.50000000000006 29003.900000000005 32282.689285714288 0.20677083333333332 687.34166666666681 191.07142857142858 354.50000000000006 22879.900000000005 649.59583333333342 266.50000000000006 0.74212500000000015 14.682724969878146 182.21428571428575 2556.9328757220542 126.42857142857144 195.39285714285717 8.0133750000000017 30410.150000000005 30824.300000000007 2060.5313818576292 2015.5000000000002 2017.5000000000002 32274.100000000002 0.37139583333333342 0.82962500000000017 15.989694468563806 0.32385416666666667
decision_type=2 2 2 2 2 2 2 2 2 2 2 2 2 2 2 2 2 2 2 2 2 2 2 2 2 2 2 2 2 2
left_child=1 12 4 10 13 6 14 -8 19 22 -3 -12 16 15 -6 -2 17 -1 26 20 -4 -13 24 -24 -10 -25 27 28 29 -19
right_child=2 3 8 -5 5 -7 7 -9 9 -11 11 21 -14 -15 -16 -17 -18 18 -20 -21 -22 -23 23 25 -26 -27 -28 -29 -30 -31
leaf_value=-123.72946027119954 103.09805571816185 -68.406895611737227 28.334043365478518 2.7649845001360056 82.563986482620237 10.470019365393597 112.53586467742922 30.334585566245593 -48.866171239217124 57.937408019275203 27.417290788226662 -35.181071878863918 -37.881662460445433 -0.65398206710815432 133.12654249463762 49.253959487367453 -14.283730474011652 -62.558689701810799 -81.704318174531195 9.109944915771484 84.759673194885252 18.790253321329754 -27.599996835844863 17.053155643023825 1.7345982723030045 72.3964711870466 -66.852418432866827 -79.855968007174411 -82.51974093914032 -19.885596593754403
leaf_weight=24 22 37 50 219 80 23 20 52 30 41 27 155 258 25 35 401 29 47 79 42 40 21 28 108 81 21 153 44 28 149
leaf_count=24 22 37 50 219 80 23 20 52 30 41 27 155 258 25 35 401 29 47 79 42 40 21 28 108 81 21 153 44 28 149
internal_value=-0.694967 -37.6468 42.0064 -13.6029 56.7418 73.0165 80.7094 53.1683 20.0202 11.7774 -28.5386 -21.2719 -51.2549 49.113 97.9526 52.0544 -57.4941 -59.8855 -56.821 39.316 53.4121 -28.7413 4.71561 16.4921 -11.9413 26.0625 -52.1517 -43.7591 -36.6686 -30.1184
internal_weight=2369 1270 1099 459 658 210 187 72 441 309 240 203 811 448 115 423 553 524 500 132 90 176 268 157 111 129 421 268 224 196
internal_count=2369 1270 1099 459 658 210 187 72 441 309 240 203 811 448 115 423 553 524 500 132 90 176 268 157 111 129 421 268 224 196
is_linear=0
shrinkage=0.05


Tree=29
num_leaves=31
num_cat=0
split_feature=39 40 15 15 38 44 34 10 9 18 32 15 16 24 41 14 15 33 4 47 10 30 7 13 7 0 16 1 33 0
split_gain=1.34943e+09 1.50007e+08 1.28534e+08 4.05077e+07 2.94918e+07 3.6477e+07 4.02662e+07 3.4657e+07 2.95462e+07 2.89017e+07 2.60446e+07 3.82115e+07 3.78151e+07 3.03696e+07 2.68784e+07 2.52471e+07 4.2736e+07 2.51004e+07 2.66514e+07 2.49481e+07 2.40702e+07 2.56996e+07 2.5673e+07 2.23172e+07 2.7832e+07 3.1327e+07 2.46213e+07 2.1727e+07 2.14272e+07 2.32655e+07
threshold=29591.900000000005 23614.939285714288 106.50000000000001 306.50000000000006 29003.900000000005 32282.689285714288 31300.250000000004 8.2479166666666686 0.32333333333333342 186.50000000000003 28550.100000000002 354.50000000000006 197.50000000000003 194.25000000000003 2352.6853391327886 1.5000000000000002 274.50000000000006 22879.900000000005 649.59583333333342 31564.000000000004 7.8687500000000012 166.50000000000003 0.17622916666666669 6.5000000000000009 0.13839583333333333 0.67108333333333337 147.50000000000003 8.0554791666666681 28852.250000000004 0.52502083333333338
decision_type=2 2 2 2 2 2 2 2 2 2 2 2 2 2 2 2 2 2 2 2 2 2 2 2 2 2 2 2 2 2
left_child=1 15 4 17 -2 6 9 8 -8 -6 14 12 13 -12 28 16 -1 -3 -19 27 22 -22 -14 -17 -25 26 -26 -20 29 -4
right_child=2 3 10 -5 5 -7 7 -9 -10 -11 11 -13 20 -15 -16 23 -18 18 19 -21 21 -23 -24 24 25 -27 -28 -29 -30 -31
leaf_value=-76.145957938054707 46.657395479029844 -64.986551552849846 30.958674541272615 2.6267350826089242 72.122425593751856 9.9465178779933776 75.605246807280039 59.217206264264661 149.50539896111738 12.236800973168735 82.994809326058942 85.61645533697947 7.6142345162325134 15.698422400156657 35.13919294993083 -63.23065314588294 -26.524281618150617 26.04642656820792 -53.825372077211924 8.5697906378068431 3.4805026616805641 68.421738739013676 -59.831530882063362 -89.85714549064636 -28.674633175287497 -41.076065753218415 34.140381277524504 -13.532353939926416 -26.767585454845712 -19.956999059625574
leaf_weight=164 448 37 57 219 66 23 21 33 38 29 38 28 43 30 60 113 59 27 81 38 39 25 21 25 39 385 26 57 63 37
leaf_count=164 448 37 57 219 66 23 21 33 38 29 38 28 43 30 60 113 59 27 81 38 39 25 21 25 39 385 26 57 63 37
internal_value=-0.660218 -35.7644 39.9061 -12.9227 53.9047 69.3657 76.674 100.251 123.202 53.8416 19.0192 30.9788 23.1734 53.3052 6.67387 -48.6921 -63.0174 -27.1117 -20.2083 -27.3042 7.16588 28.8482 -14.5164 -43.2592 -38.5082 -35.6554 -3.54863 -37.1826 -4.2046 10.9174
internal_weight=2369 1270 1099 459 658 210 187 92 59 95 441 224 196 68 217 811 223 240 203 176 128 64 64 588 475 450 65 138 157 94
internal_count=2369 1270 1099 459 658 210 187 92 59 95 441 224 196 68 217 811 223 240 203 176 128 64 64 588 475 450 65 138 157 94
is_linear=0
shrinkage=0.05


Tree=30
num_leaves=31
num_cat=0
split_feature=36 15 40 2 3 24 36 29 40 44 37 1 9 37 30 26 29 8 10 8 8 36 18 21 8 44 29 26 8 15
split_gain=1.37505e+09 1.52242e+08 1.10036e+08 4.88349e+07 4.60878e+07 4.26932e+07 3.71685e+07 3.25449e+07 3.05772e+07 3.04867e+07 3.02781e+07 3.03992e+07 3.56219e+07 3.22501e+07 5.18307e+07 3.9491e+07 2.94997e+07 2.9587e+07 2.81693e+07 2.81237e+07 2.60027e+07 3.51875e+07 3.78074e+07 2.56875e+07 2.51519e+07 4.1496e+07 2.51406e+07 2.65144e+07 3.87473e+07 3.76237e+07
threshold=26293.021428571436 106.50000000000001 22844.357142857149 0.95322916666666668 0.73227083333333354 189.75000000000003 20961.800000000007 15.592508451185562 27887.525000000005 27459.966071428575 2467.0849419146389 7.8796875000000002 0.36635416666666665 2094.838370615586 163.50000000000003 167.50000000000003 11.499827106396983 0.19156250000000002 8.0270833333333353 0.17720833333333333 0.23806250000000004 31663.63571428572 203.50000000000003 16.14812280044001 0.17837499999999998 31513.494642857146 11.471150837388562 164.50000000000003 0.19602083333333328 323.50000000000006
decision_type=2 2 2 2 2 2 2 2 2 2 2 2 2 2 2 2 2 2 2 2 2 2 2 2 2 2 2 2 2 2
left_child=2 10 6 19 8 -5 7 -1 9 -3 11 13 -13 15 -15 -2 17 -17 -7 -4 21 22 23 -12 -23 -26 -21 29 -29 -28
right_child=1 4 3 5 -6 18 -8 -9 -10 -11 20 12 -14 14 -16 16 -18 -19 -20 26 -22 24 -24 -25 25 -27 27 28 -30 -31
leaf_value=-111.31358873193915 113.37754690987725 11.445940941471164 29.209160006918559 16.604879801613944 56.960511552471011 -25.777999164036345 -46.44602381832329 -39.873886413574219 24.218705681987871 -34.506315102027017 103.19419122583727 17.887802754679036 74.384962579939099 78.500195230756503 -2.6273732503255207 -20.3951386487484 76.349537255666036 61.947822666168214 -67.219417063395184 24.266546914384172 23.808482088361469 50.951221983773365 -1.4942385673522951 46.86334902954102 168.93802124023438 88.210110414945177 -16.142897211207025 -82.783445318283583 -21.121608052803921 50.302263302273218
leaf_weight=44 42 118 41 28 73 70 537 25 283 52 34 124 36 35 45 20 73 24 99 37 28 28 24 50 20 78 101 31 143 27
leaf_count=44 42 118 41 28 73 70 537 25 283 52 34 124 36 35 45 20 73 24 99 37 28 28 24 50 20 78 101 31 143 27
internal_value=2.14437 40.1652 -36.005 -20.3774 20.0918 -40.5799 -50.8848 -85.4296 14.1505 -2.61004 56.1388 47.4673 30.5997 58.7594 32.8659 71.7875 56.8578 24.5192 -50.0543 -9.90397 69.3448 74.7936 53.851 69.6639 92.7443 104.685 -14.6345 -19.4005 -32.1073 -2.12712
internal_weight=2370 1187 1183 577 526 197 606 69 453 170 661 399 160 239 80 159 117 44 169 380 262 234 108 84 126 98 339 302 174 128
internal_count=2370 1187 1183 577 526 197 606 69 453 170 661 399 160 239 80 159 117 44 169 380 262 234 108 84 126 98 339 302 174 128
is_linear=0
shrinkage=0.05


Tree=31
num_leaves=31
num_cat=0
split_feature=39 15 42 0 24 16 2 25 11 6 34 35 37 23 17 0 47 15 42 40 17 4 39 8 6 35 13 0 34 44
split_gain=1.25553e+09 1.57621e+08 8.68205e+07 4.19444e+07 3.65647e+07 3.30851e+07 3.26126e+07 3.33713e+07 3.17444e+07 2.93633e+07 2.86977e+07 2.81337e+07 2.7326e+07 3.54135e+07 2.67476e+07 2.59069e+07 2.57912e+07 2.56016e+07 2.98035e+07 2.91755e+07 3.33775e+07 2.6356e+07 2.3703e+07 2.61576e+07 2.52e+07 2.97669e+07 2.29499e+07 2.27667e+07 3.38506e+07 3.98269e+07
threshold=28640.650000000005 106.50000000000001 20261.500000000004 0.50933333333333353 189.39285714285717 112.50000000000001 0.95756249999999998 11.058906909042893 2017.5000000000002 0.27597916666666666 24001.850000000002 25522.550000000007 2467.0849419146389 199.50000000000003 211.50000000000003 0.2614583333333334 30719.450000000001 132.50000000000003 26665.950000000001 29059.71428571429 184.50000000000003 681.69166666666672 33848.250000000007 0.23806250000000004 0.29970833333333341 32618.800000000003 17.500000000000004 0.3126666666666667 32062.050000000003 31700.633928571431
decision_type=2 2 2 2 2 2 2 2 2 2 2 2 2 2 2 2 2 2 2 2 2 2 2 2 2 2 2 2 2 2
left_child=2 12 5 9 8 -1 7 10 11 -3 -6 -4 13 -2 -7 -15 -5 18 -11 20 -19 -22 -14 24 25 -24 -10 28 -17 -30
right_child=1 3 4 16 6 14 -8 -9 26 17 -12 -13 22 15 -16 27 -18 19 -20 -21 21 -23 23 -25 -26 -27 -28 -29 29 -31
leaf_value=-111.51828784942627 92.394858651028756 8.2871954559186189 -42.203365009586989 21.248546348219719 -23.420820143416123 -49.198570273904238 -53.855759535895459 -30.108139974661551 2.354204713730585 115.55713285446168 37.315405645603086 22.815178128651212 24.05554122924805 -9.7988538106282554 -10.723099630706166 35.223485433302429 -10.928066079568545 -4.9845543801784515 44.92928147396799 -19.479311324931956 72.923957994428733 9.8243191262950074 103.83159733200074 24.02796205373911 52.874406830923903 50.809752760993113 76.274784851074216 29.922952733895716 39.679519813939152 107.58782917022705
leaf_weight=20 36 109 41 107 37 578 90 198 21 20 41 28 30 24 49 95 149 32 59 27 59 23 100 26 70 36 21 156 38 50
leaf_count=20 36 109 41 107 37 578 90 198 21 20 41 28 30 24 49 95 149 32 59 27 59 23 100 26 70 36 21 156 38 50
internal_value=2.03715 36.6019 -36.2793 17.6985 -20.0951 -48.2111 -27.7188 -19.1958 5.0423 29.5085 8.50463 -15.819 53.3319 45.0939 -46.1917 40.4029 2.52075 40.0227 62.8098 27.2555 38.3243 55.2253 65.8775 71.2855 77.2501 89.7964 39.3145 43.957 55.9205 78.2638
internal_weight=2370 1246 1124 585 477 647 366 276 111 329 78 69 661 399 627 363 256 220 79 141 114 82 262 232 206 136 42 339 183 88
internal_count=2370 1246 1124 585 477 647 366 276 111 329 78 69 661 399 627 363 256 220 79 141 114 82 262 232 206 136 42 339 183 88
is_linear=0
shrinkage=0.05


Tree=32
num_leaves=31
num_cat=0
split_feature=39 15 42 9 5 30 2 36 14 21 37 23 21 21 1 38 9 27 9 11 6 13 34 21 24 30 9 24 20 39
split_gain=1.13312e+09 1.42253e+08 7.83555e+07 4.00506e+07 3.76775e+07 4.15089e+07 3.3263e+07 3.19149e+07 4.0294e+07 3.01356e+07 2.46617e+07 3.19607e+07 2.39631e+07 5.04624e+07 2.55945e+07 3.56251e+07 4.32719e+07 3.54629e+07 4.46677e+07 2.6904e+07 2.67529e+07 2.33662e+07 2.57273e+07 2.40676e+07 2.32317e+07 2.25112e+07 2.24678e+07 2.22489e+07 2.19162e+07 2.1392e+07
threshold=28640.650000000005 106.50000000000001 20261.500000000004 0.3542083333333334 3.6446666666666663 169.50000000000003 0.95372916666666663 20961.800000000007 2.5000000000000004 14.447771078181095 2467.0849419146389 199.50000000000003 14.53403231171937 13.569924728710282 7.7983958333333341 28356.500000000004 0.36572916666666672 220.50000000000003 0.36731249999999999 2019.5000000000002 0.29312500000000002 23.500000000000004 21943.150000000005 13.693933200537087 189.10714285714289 172.50000000000003 0.33289583333333339 186.89285714285717 186.92857142857147 33848.250000000007
decision_type=2 2 2 2 2 2 2 2 2 2 2 2 2 2 2 2 2 2 2 2 2 2 2 2 2 2 2 2 2 2
left_child=2 10 7 4 5 -3 24 8 -1 25 11 -2 13 14 15 -13 19 18 20 -17 -16 -9 23 -23 27 -5 -6 -4 -24 -12
right_child=1 3 6 9 26 -7 -8 21 -10 -11 29 12 -14 -15 17 16 -18 -19 -20 -21 -22 22 28 -25 -26 -27 -28 -29 -30 -31
leaf_value=-124.17694470541818 87.775114801194945 83.545001177517875 -17.200551617940267 24.940132816361661 3.2482497771581018 -0.99239601135253919 -35.67848369701489 -47.888351624162055 -46.365440569854371 -16.88007994911127 22.852764129638672 19.102479178950471 -2.2417892513853133 109.3022344149076 -4.2981798251469936 117.45781978607179 14.215678497314455 -24.223426222801208 103.25473475933074 53.554468808855326 45.975666750127623 -26.757049280664194 -90.533344385102396 31.404886087877998 -16.723277308734041 -28.662239572276242 33.713625797005584 38.903009252770005 -29.262092726318926 67.721267205374005
leaf_weight=28 36 53 30 132 114 20 185 429 41 114 30 53 33 26 51 40 25 32 20 28 55 46 20 29 219 23 129 43 54 232
leaf_count=28 36 53 30 132 114 20 185 429 41 114 30 53 33 26 51 40 25 32 20 28 55 46 20 29 219 23 129 43 54 232
internal_value=1.93529 34.7718 -34.4653 16.8136 28.8842 60.3841 -19.0904 -45.8005 -77.9411 2.63397 50.6653 42.8392 38.3828 42.4452 36.7272 51.8196 70.4648 22.781 34.7186 91.1447 21.7873 -41.9637 -24.9054 -4.26777 -8.58077 16.9862 19.4212 15.8468 -45.8219 62.5837
internal_weight=2370 1246 1124 585 316 73 477 647 69 269 661 399 363 330 304 146 93 158 126 68 106 578 149 75 292 155 243 73 74 262
internal_count=2370 1246 1124 585 316 73 477 647 69 269 661 399 363 330 304 146 93 158 126 68 106 578 149 75 292 155 243 73 74 262
is_linear=0
shrinkage=0.05


Tree=33
num_leaves=31
num_cat=0
split_feature=40 15 15 44 1 27 22 0 26 10 46 10 37 8 25 27 17 8 20 22 5 3 17 11 28 8 8 24 42 10
split_gain=1.01415e+09 1.36807e+08 6.57372e+07 4.37164e+07 3.73063e+07 3.24649e+07 3.03503e+07 3.31404e+07 3.51415e+07 2.8074e+07 2.6972e+07 3.13047e+07 2.55175e+07 2.52245e+07 2.58813e+07 2.5807e+07 2.73497e+07 2.50771e+07 2.44061e+07 2.86966e+07 2.41965e+07 2.73061e+07 2.30226e+07 2.2874e+07 4.23451e+07 3.53644e+07 2.72168e+07 3.83504e+07 4.33781e+07 2.42047e+07
threshold=27386.114285714288 307.50000000000006 106.50000000000001 25175.54285714286 8.2555625000000017 144.00000000000003 182.50000000000003 0.49437500000000006 165.50000000000003 8.9895833333333339 25140.450000000004 8.7979166666666675 1381.0705303167508 0.17720833333333333 16.208209142410499 217.50000000000003 177.50000000000003 0.24531249999999996 188.6428571428572 173.50000000000003 3.6403333333333334 0.71077083333333346 203.50000000000003 2017.5000000000002 194.41071428571431 0.17399999999999996 0.19031249999999997 195.67857142857147 26264.700000000004 7.9312500000000012
decision_type=2 2 2 2 2 2 2 2 2 2 2 2 2 2 2 2 2 2 2 2 2 2 2 2 2 2 2 2 2 2
left_child=1 3 9 5 18 -1 7 12 -9 10 -2 20 -4 -3 15 16 -15 22 -5 -20 23 -22 -14 24 25 -12 -25 28 -28 -30
right_child=2 13 6 4 -6 -7 -8 8 -10 -11 11 -13 17 14 -16 -17 -18 -19 19 -21 21 -23 -24 26 -26 -27 27 -29 29 -31
leaf_value=-97.494852495193484 27.487784472299282 40.671196345793902 91.591298818588257 2.4464783838817055 41.904742883752895 -38.528583473297708 -12.203972559842198 55.295315336144483 -16.335531145601131 -4.9546875953674316 137.28030976795014 107.2507313904939 19.292101872762046 -44.402716477711998 42.665972600664418 -31.694275213216805 14.149598417443745 86.053927230834972 -73.44112349616158 -11.907722110748292 43.413155288696288 121.79606286621095 62.46006255400809 19.867437658764068 17.78976384087613 65.906893739700322 107.34154417618461 113.64622577320445 55.669097698268608 14.931404145956041
leaf_weight=24 109 39 20 56 27 852 55 23 67 24 21 27 165 24 28 77 118 20 36 40 20 25 38 105 38 100 23 22 67 80
leaf_count=24 109 39 20 56 27 852 55 23 67 24 21 27 165 24 28 77 118 20 36 40 20 25 38 105 38 100 23 22 67 80
internal_value=1.83853 -27.3078 38.5424 -35.7662 -11.6463 -40.1441 22.2054 27.8886 1.97013 48.132 50.1322 54.8068 37.488 3.30193 -2.59848 -8.38572 4.25343 32.6357 -22.5999 -41.0551 51.9805 86.9592 27.3728 48.5287 63.8339 78.294 40.335 51.5282 43.4894 33.4989
internal_weight=2370 1321 1049 1035 159 876 388 333 90 661 637 528 243 286 247 219 142 223 132 76 501 45 203 456 159 121 297 192 170 147
internal_count=2370 1321 1049 1035 159 876 388 333 90 661 637 528 243 286 247 219 142 223 132 76 501 45 203 456 159 121 297 192 170 147
is_linear=0
shrinkage=0.05


Tree=34
num_leaves=31
num_cat=0
split_feature=39 5 42 22 37 36 18 39 34 26 8 9 20 5 32 8 6 14 36 19 14 14 47 5 34 2 14 11 2 4
split_gain=9.26138e+08 1.15563e+08 6.50311e+07 5.11235e+07 3.51444e+07 4.24296e+07 3.33647e+07 3.14249e+07 3.0821e+07 3.4229e+07 3.02986e+07 3.306e+07 3.69364e+07 3.24972e+07 2.97466e+07 2.93434e+07 3.33384e+07 2.7905e+07 5.15312e+07 2.91562e+07 2.90155e+07 2.58582e+07 2.8161e+07 2.85144e+07 2.82884e+07 2.49064e+07 2.46406e+07 2.68817e+07 2.45756e+07 2.45029e+07
threshold=28640.650000000005 3.6653333333333342 20261.500000000004 182.50000000000003 1322.0500550142372 31193.228571428575 184.50000000000003 35853.100000000006 34577.250000000007 165.50000000000003 0.18210416666666668 0.40658333333333335 189.21428571428575 3.8803541666666672 32593.900000000005 0.24364583333333331 0.32422916666666673 3.5000000000000004 20779.521428571432 208.50000000000003 5.5000000000000009 5.5000000000000009 36243.450000000004 3.5679583333333338 33724.250000000007 0.96189583333333351 2.5000000000000004 2017.5000000000002 0.94639583333333344 675.90416666666681
decision_type=2 2 2 2 2 2 2 2 2 2 2 2 2 2 2 2 2 2 2 2 2 2 2 2 2 2 2 2 2 2
left_child=2 3 17 4 -2 8 -5 -8 9 29 13 12 26 -4 -3 16 21 18 -1 -20 28 22 23 -7 -24 -14 -12 -28 -19 -6
right_child=1 14 10 6 5 15 7 -9 -10 -11 11 -13 25 -15 -16 -17 -18 20 19 -21 -22 -23 24 -25 -26 -27 27 -29 -30 -31
leaf_value=-115.83533815656391 106.6195369873047 8.773059649488804 65.93370586122785 63.494085832075648 97.236423683166507 72.898418624584494 -27.148718864512894 45.124151538667228 -24.433883993966241 26.098006976786117 -14.992815908285289 -63.043758695775807 -21.9481235133672 -10.244131995382764 56.018196879492876 12.270742834025416 16.456672680762505 14.93167695222899 -50.503112483797253 -3.988699699703016 -51.939153360583127 31.918309585026336 82.418009028001279 2.6475394821166995 147.06295436859133 -68.557870529637199 -2.0474806029221106 68.702547065734862 -28.143533998727801 45.648362176011254
leaf_weight=28 25 447 21 22 32 52 53 21 21 210 65 44 218 42 36 29 31 43 297 38 97 35 110 20 20 33 29 25 144 82
leaf_count=28 25 447 21 22 32 52 53 21 21 210 65 44 218 42 36 29 31 43 297 38 97 35 110 20 20 33 29 25 144 82
internal_value=1.7466 31.433 -31.162 43.5483 48.4584 46.1935 9.43328 -6.63885 34.2672 38.072 -17.1552 -22.0709 -17.1985 15.1485 12.2944 60.0473 65.2172 -41.4885 -50.6732 -45.2269 -29.749 71.5951 78.4698 53.3843 92.3634 -28.0761 5.74499 30.7072 -18.2385 60.1292
internal_weight=2370 1246 1124 763 667 642 96 74 345 324 477 414 370 63 483 297 268 647 363 335 284 237 202 72 130 251 119 54 187 114
internal_count=2370 1246 1124 763 667 642 96 74 345 324 477 414 370 63 483 297 268 647 363 335 284 237 202 72 130 251 119 54 187 114
is_linear=0
shrinkage=0.05


Tree=35
num_leaves=31
num_cat=0
split_feature=42 15 44 21 16 37 8 32 10 34 36 20 9 8 45 40 11 29 4 25 15 20 17 9 15 35 32 28 5 40
split_gain=9.09264e+08 8.18821e+07 7.10105e+07 3.64434e+07 3.38909e+07 3.13611e+07 3.28008e+07 2.89201e+07 3.03604e+07 2.80919e+07 2.79508e+07 3.19863e+07 2.91455e+07 3.54376e+07 2.838e+07 2.83124e+07 4.02443e+07 2.83154e+07 2.76289e+07 3.0012e+07 2.66556e+07 2.81962e+07 3.45532e+07 3.18478e+07 2.83082e+07 2.47658e+07 2.65459e+07 2.43462e+07 2.34744e+07 2.31346e+07
