tree
version=v4
num_class=1
num_tree_per_iteration=1
label_index=0
max_feature_idx=47
objective=regression
feature_names=Column_0 Column_1 Column_2 Column_3 Column_4 Column_5 Column_6 Column_7 Column_8 Column_9 Column_10 Column_11 Column_12 Column_13 Column_14 Column_15 Column_16 Column_17 Column_18 Column_19 Column_20 Column_21 Column_22 Column_23 Column_24 Column_25 Column_26 Column_27 Column_28 Column_29 Column_30 Column_31 Column_32 Column_33 Column_34 Column_35 Column_36 Column_37 Column_38 Column_39 Column_40 Column_41 Column_42 Column_43 Column_44 Column_45 Column_46 Column_47
feature_infos=[0.22412499999999999:0.87145833333333333] [4.1651666666666669:9.0553333333333317] [0.71083333333333332:0.97224999999999995] [0.68679166666666669:0.81541666666666668] [586.11250000000007:726.67916666666667] [2.9161666666666668:4.3062916666666666] [0.15195833333333331:0.40699999999999997] [0.093458333333333296:0.26729166666666659] [0.11175:0.33620833333333339] [0.25587500000000002:0.47899999999999998] [6.1583333333333341:10.262499999999999] [2014:2022] [1:12] [1:31] [0:6] [1:366] [78:247] [68:247] [67:247] [55:247] [87:207.85714285714286] [3.2513733362133173:26.409774525281236] [68:197] [111:247] [84.571428571428569:202.21428571428572] [5.8201053576059394:22.412834823715951] [67:188] [112:247] [76.5:199.10714285714286] [7.9834484864285979:19.336069866537002] [55:179] [112:247] [11670.5:42673.300000000003] [10768:42673.300000000003] [10768:42673.300000000003] [8408.2999999999993:42673.300000000003] [14194.571428571429:33985.099999999999] [457.93443853946388:4902.1459225236003] [10768:32707.900000000001] [17961.900000000001:42673.300000000003] [13711.678571428571:33478.750000000007] [695.898598500866:3689.6466656900134] [10768:30752.200000000001] [17961.900000000001:42673.300000000003] [12254.514285714287:32898.932142857142] [1013.3944368794588:3363.4574495874308] [8408.2999999999993:29197.5] [17961.900000000001:42673.300000000003]
tree_sizes=2619 2716 2710 2722 2710 2711 2701 2715

Tree=0
num_leaves=31
num_cat=0
split_feature=20 19 20 23 35 42 3 4 0 38 2 19 24 2 26 19 17 24 3 21 3 37 2 37 35 35 37 37 4 7
split_gain=289081 14948.8 14764.4 2410.84 1823.67 2243.03 1969.48 2064.93 1700.8 1510.16 1677.23 1361.36 1467.88 1998.65 1470.48 1375.05 1670.43 1425.78 1568.16 1334.6 1315.2 1216.29 2279.05 1381.38 1712.26 1337.61 2187.29 2947.52 1995.53 1768.84
threshold=150.50000000000003 93.000000000000014 173.14285714285717 153.50000000000003 32194.500000000004 28924.750000000004 0.72297916666666673 680.79583333333346 0.84629166666666678 28399.000000000004 0.89852083333333344 204.50000000000003 196.96428571428575 0.95931250000000012 176.50000000000003 210.50000000000003 181.50000000000003 195.17857142857147 0.72272916666666676 11.221789977679654 0.71602083333333344 3079.4364027286415 0.88385416666666683 2822.6276723817091 31367.450000000004 23758.700000000004 2332.8971408670645 1602.1187232638006 670.81875000000014 0.12602083333333333
decision_type=2 2 2 2 2 2 2 2 2 2 2 2 2 2 2 2 2 2 2 2 2 2 2 2 2 2 2 2 2 2
left_child=1 -1 -2 -3 8 6 9 -8 11 10 -6 12 21 14 -14 17 -17 18 -13 -9 -15 23 -23 24 25 28 27 -27 -4 -29
right_child=2 3 4 -5 5 -7 7 19 -10 -11 -12 15 13 20 -16 16 -18 -19 -20 -21 -22 22 -24 -25 -26 26 -28 29 -30 -31
leaf_value=185.74820173234698 188.68923871275962 186.94736301651682 189.90022538970342 187.63174716521803 189.98345166460879 190.14702926891761 190.14484872911154 190.01129258237512 190.33970167259332 189.23705015316563 189.45220167438529 190.16712704718887 189.47121575857159 189.75447439656071 189.80898133729517 189.52461546707897 189.9598103689938 190.39702926079903 189.80314507602571 189.55392581254887 190.31470167035815 189.61720166767594 190.24201648686727 189.62184453007146 190.11984873921367 189.92766463672629 189.97177839519679 189.2922016747689 190.31349199618822 189.72604782915226
leaf_weight=25 27 31 506 22 24 29 34 22 20 33 39 67 71 22 59 29 92 29 53 58 20 20 54 56 68 216 189 25 31 390
leaf_count=25 27 31 506 22 24 29 34 22 20 33 39 67 71 22 59 29 92 29 53 58 20 20 54 56 68 216 189 25 31 390
internal_value=189.749 186.756 189.852 187.231 189.865 189.735 189.678 189.818 189.881 189.511 189.655 189.876 189.86 189.721 189.625 189.981 189.856 190.082 190.006 189.68 190.021 189.875 190.073 189.865 189.875 189.863 189.823 189.778 189.924 189.7
internal_weight=2361 78 2283 53 2256 239 210 114 2017 96 63 1997 1727 172 130 270 121 149 120 80 42 1555 74 1481 1425 1357 820 631 537 415
internal_count=2361 78 2283 53 2256 239 210 114 2017 96 63 1997 1727 172 130 270 121 149 120 80 42 1555 74 1481 1425 1357 820 631 537 415
is_linear=0
shrinkage=1


Tree=1
num_leaves=31
num_cat=0
split_feature=20 19 20 33 44 21 19 39 35 47 41 15 47 8 34 8 33 3 8 13 8 3 47 8 10 32 47 7 15 7
split_gain=260895 13491.3 13324.9 2197.7 2002.48 1572.91 2061.74 1879.05 1507.78 1572.95 1667.99 2118.6 1458.81 1479.01 1423.2 1523.5 1374.3 1363.17 1409.89 1633.57 2051.62 1469.77 1303.92 1301.32 1276.1 1625.99 1256.86 1428.72 1577.08 2474.09
threshold=150.50000000000003 93.000000000000014 173.14285714285717 22218.750000000004 32125.064285714285 10.369368556067212 180.50000000000003 34077.80000000001 32194.500000000004 34552.400000000009 2701.3053721916381 218.50000000000003 36790.450000000004 0.20539583333333333 24072.700000000001 0.19485416666666669 22332.950000000004 0.73006250000000017 0.18677083333333333 7.5000000000000009 0.17962499999999998 0.72677083333333348 26386.300000000003 0.16764583333333333 7.6354166666666679 24645.700000000004 35029.200000000004 0.19974999999999998 80.500000000000014 0.18252083333333333
decision_type=2 2 2 2 2 2 2 2 2 2 2 2 2 2 2 2 2 2 2 2 2 2 2 2 2 2 2 2 2 2
left_child=1 -1 -2 -3 5 6 16 14 9 10 11 17 -10 -14 15 -8 -4 18 19 -7 -21 24 -17 -13 25 -20 -11 28 29 -28
right_child=2 3 4 -5 -6 8 7 -9 12 26 -12 23 13 -15 -16 22 -18 -19 21 20 -22 -23 -24 -25 -26 -27 27 -29 -30 -31
leaf_value=-3.791410018920899 -0.99742492779537484 -2.675229358673096 0.34399577867653641 -2.0284035921096804 -0.095411485897431383 0.18474893776270063 0.60556044670251707 0.60222788410527373 -0.16520551364672811 0.46788038397828741 0.47478066810539793 -0.11147071360907657 0.46405007165411249 -0.065134301877790887 0.14369180301423015 0.15289829993985363 -0.055967842347565161 -0.18900570836968911 -0.10916895142623358 -0.069261412576047912 -0.70086791075766097 0.3957883913176401 0.49523006559182436 0.16168588787304922 -0.011328250342848326 0.43186317576867783 0.15491779789714732 0.55410502284117369 0.28296391987103492 -0.36944131187854279
leaf_weight=25 27 29 27 24 103 26 39 35 95 45 28 47 23 31 247 97 105 78 21 36 20 35 39 603 198 41 82 23 101 31
leaf_count=25 27 29 27 24 103 26 39 35 95 45 28 47 23 31 247 97 105 78 21 36 20 35 39 603 198 41 82 23 101 31
internal_value=0.00959343 -2.83396 0.106745 -2.38233 0.11996 0.130263 0.199903 0.250179 0.104037 0.119967 0.0936673 0.0840101 -0.0472519 0.160259 0.220981 0.330068 0.0258429 0.00126088 0.0406264 -0.142772 -0.294835 0.0916049 0.251067 0.141935 0.0506571 0.24861 0.225635 0.179639 0.139392 0.0110671
internal_weight=2361 78 2283 53 2256 2153 589 457 1564 1415 1133 1105 149 54 422 175 132 455 377 82 56 295 136 650 260 62 282 237 214 113
internal_count=2361 78 2283 53 2256 2153 589 457 1564 1415 1133 1105 149 54 422 175 132 455 377 82 56 295 136 650 260 62 282 237 214 113
is_linear=0
shrinkage=0.05


Tree=2
num_leaves=31
num_cat=0
split_feature=20 18 30 19 44 18 44 39 19 28 25 25 44 9 15 33 22 9 28 9 3 3 33 30 20 7 7 7 17 1
split_gain=235458 12559.1 12065.3 2894.84 1794.66 1754.72 2242.21 1989.09 1942.94 1754.48 1686.64 1808 1835.06 2260.61 1754.65 2279.91 2237.99 1899.44 1623.18 1788.54 1614.63 1548.08 1487.1 1451.48 1445.73 1367.03 1329.07 2351.68 2709.41 1389.26
threshold=150.50000000000003 125.50000000000001 135.50000000000003 88.500000000000014 32125.064285714285 197.50000000000003 31930.232142857145 24443.300000000003 196.50000000000003 192.48214285714289 10.99975024691547 10.830106484920005 30681.85535714286 0.34639583333333335 218.50000000000003 22580.800000000003 165.50000000000003 0.36210416666666673 193.69642857142858 0.36322916666666671 0.71935416666666674 0.71910416666666677 33833.000000000007 170.50000000000003 192.50000000000003 0.17535416666666662 0.14456249999999998 0.17027083333333334 188.50000000000003 7.715416666666667
decision_type=2 2 2 2 2 2 2 2 2 2 2 2 2 2 2 2 2 2 2 2 2 2 2 2 2 2 2 2 2 2
left_child=1 3 -2 -1 5 6 10 -7 -9 -10 11 12 13 24 15 -12 17 -17 19 -11 23 -16 -18 -20 -4 -8 -23 29 -29 -28
right_child=2 -3 4 -5 -6 7 25 8 9 18 14 -13 -14 -15 21 16 22 -19 20 -21 -22 26 -24 -25 -26 -27 27 28 -30 -31
leaf_value=-3.7049825214204333 -1.0137573776145776 -2.0243872745617018 -0.2803949967585504 -2.8644598293304444 -0.09064090459526164 0.25407738051654999 0.24558136562506358 -0.042483255233711159 0.29432467710118271 -0.42999784462153912 -0.26803057500142224 0.64099171554876699 0.48755440091600227 0.26353520985718792 0.29055779094907264 0.39406225111458326 0.0018755307039759292 -0.026824131137446357 0.22993256062269213 0.11214083398467507 0.35886665231082593 0.40354854654182087 0.32604370315869652 -0.37245486736297612 0.17049971913220363 0.79797584953762246 0.12387129691739879 -0.081811221231494036 0.36168640593345142 -0.30192511673524697
leaf_weight=21 24 37 40 20 103 114 24 390 103 32 49 27 49 143 206 91 381 38 20 29 48 33 39 20 32 21 30 57 87 53
leaf_count=21 24 37 40 20 103 114 24 390 103 32 49 27 49 143 206 91 381 38 20 29 48 33 39 20 32 21 30 57 87 53
internal_value=0.00911376 -2.69226 0.101408 -3.29497 0.113255 0.122996 0.156143 0.0616126 0.0274366 0.135646 0.144612 0.251281 0.211424 0.148492 0.115439 0.0587577 0.0879246 0.27008 0.0259551 -0.17226 0.163354 0.188175 0.0319769 -0.0712612 -0.0799973 0.503365 0.107056 0.0639541 0.186135 -0.148023
internal_weight=2361 78 2283 41 2259 2156 1400 756 642 252 1355 291 264 215 1064 598 549 129 149 61 88 466 420 40 72 45 260 227 144 83
internal_count=2361 78 2283 41 2259 2156 1400 756 642 252 1355 291 264 215 1064 598 549 129 149 61 88 466 420 40 72 45 260 227 144 83
is_linear=0
shrinkage=0.05


Tree=3
num_leaves=31
num_cat=0
split_feature=23 18 24 32 44 18 44 10 33 37 37 0 1 10 7 33 0 17 27 41 42 16 8 29 6 33 9 22 5 7
split_gain=212501 11334.6 10892 2553.91 1631.39 1625.22 2008.97 1763.77 1567.98 3076.24 1561.58 1495.44 1493.82 1432.49 2059.91 2027.36 1927.11 1828.35 1685.3 1663.77 1620.38 2965.4 1386.44 1721.43 1658.56 1290.34 1626.67 1253.13 1845.96 1233.74
threshold=166.50000000000003 125.50000000000001 171.89285714285717 19202.200000000004 32125.064285714285 197.50000000000003 31930.232142857145 7.4270833333333348 24131.900000000005 2086.2244373517383 2341.5154970608414 0.83820833333333356 8.0623125000000027 8.2645833333333361 0.20835416666666667 21027.300000000007 0.2940208333333334 167.50000000000003 207.50000000000003 1877.8900361461331 19933.200000000004 182.50000000000003 0.21818749999999998 12.245018415820228 0.25835416666666672 33211.55000000001 0.34352083333333333 182.50000000000003 3.6748958333333337 0.17535416666666662
decision_type=2 2 2 2 2 2 2 2 2 2 2 2 2 2 2 2 2 2 2 2 2 2 2 2 2 2 2 2 2 2
left_child=1 3 -2 -1 5 6 11 12 9 -9 22 13 -7 17 15 -15 -17 -4 19 -19 21 -20 27 -24 -25 -22 -27 28 -10 -8
right_child=2 -3 4 -5 -6 7 29 8 10 -11 -12 -13 -14 14 -16 16 -18 18 20 -21 25 -23 23 24 -26 26 -28 -29 -30 -31
leaf_value=-3.5153338750203456 -0.90195521469469431 -1.9231679065807445 -0.26046662615878241 -2.7258561897277835 -0.086108862623138341 0.35357078374868417 0.23330229309697947 0.22813861785055933 -0.29658239064133401 -0.2592047577444464 0.10242992057137086 0.52171948528289791 -0.0016475647444958272 -0.17713775805064613 -0.1550488395465387 -0.11529565193960745 0.29537126714840872 0.14874237405799204 -0.1824356415442058 0.49534846957848999 0.0074552624280515472 0.34482763259272492 0.42875698234723969 -0.32968289084506758 0.14917913157492876 -0.0069760734046047379 0.60824662702424193 -0.48484217951010011 0.054347390972384037 0.75807704528172815
leaf_weight=21 27 37 35 20 103 83 24 170 77 40 142 25 46 28 37 31 364 118 35 49 475 112 23 33 40 22 21 29 73 21
leaf_count=21 27 37 35 20 103 83 24 170 77 40 142 25 46 28 37 31 364 118 35 49 475 112 23 33 40 22 21 29 73 21
internal_value=0.00865807 -2.55765 0.0963373 -3.13022 0.108285 0.117585 0.149542 0.0585319 0.0238908 0.135311 -0.0322202 0.138603 0.226904 0.131385 0.202705 0.233998 0.263142 0.0935453 0.108438 0.250441 0.0727765 0.219289 -0.101749 0.0515525 -0.0672927 0.0311988 0.293482 -0.183966 -0.125797 0.478197
internal_weight=2361 78 2283 41 2256 2153 1397 756 627 210 417 1352 129 1327 460 423 395 867 832 167 665 147 275 96 73 518 43 179 150 45
internal_count=2361 78 2283 41 2256 2153 1397 756 627 210 417 1352 129 1327 460 423 395 867 832 167 665 147 275 96 73 518 43 179 150 45
is_linear=0
shrinkage=0.05


Tree=4
num_leaves=31
num_cat=0
split_feature=20 18 19 19 44 0 18 39 19 28 28 5 4 21 45 22 21 35 44 8 10 18 14 44 25 29 35 10 8 7
split_gain=191782 10229.4 10134.3 2433.12 1468.03 1407.82 1374.98 1488.84 2203.39 1884.29 1729.97 2621.59 1685.26 1461.57 1425.96 1488.75 1318.24 1823.34 1771.37 1526.36 1463.47 1401.22 1947.97 1273.16 1261.5 1242.12 1312.81 1205.82 1353.49 1177.39
threshold=150.50000000000003 125.50000000000001 152.50000000000003 88.500000000000014 32125.064285714285 0.84629166666666678 196.50000000000003 24443.300000000003 196.50000000000003 192.48214285714289 193.69642857142858 3.6299375 672.11041666666677 15.102033736515333 2592.8271128086349 155.50000000000003 10.369368556067212 31866.300000000007 31619.689285714288 0.16764583333333333 8.0895833333333353 181.50000000000003 5.5000000000000009 30681.85535714286 12.687710856864745 17.012405890696808 28399.000000000004 7.1583333333333341 0.25856249999999997 0.17535416666666662
decision_type=2 2 2 2 2 2 2 2 2 2 2 2 2 2 2 2 2 2 2 2 2 2 2 2 2 2 2 2 2 2
left_child=1 3 -2 -1 5 6 14 -8 27 13 -11 -12 -13 -10 15 -4 21 18 19 20 -18 -17 23 24 -23 26 -16 -9 29 -29
right_child=2 -3 4 -5 -6 -7 7 8 9 10 11 12 -14 -15 25 16 17 -19 -20 -21 -22 22 -24 -25 -26 -27 -28 28 -30 -31
leaf_value=-3.3496057237897605 -0.90964274430274961 -1.8270095064833356 -0.29614143059367226 -2.5790229034423828 -0.081803425047004108 0.52896498724818231 0.2220777306057837 0.25709221622636241 0.39732666803633471 -0.1776844420088608 0.58001033972810823 0.16176318033881809 -0.38800710588693621 -0.051954928947531655 0.7302462163425627 0.34072529384794165 -0.42536836381141963 -0.15400586351752282 0.49279449562231703 0.1195546959690706 0.14353663742542266 0.078434674781081945 -0.24848692474951006 0.5164442165969656 0.44075573847211641 0.025020224939693105 0.28717509700757698 0.029615207129229076 -0.41542622733574652 -0.15458035365953832
leaf_weight=21 25 37 21 20 103 20 115 31 85 61 27 46 20 23 21 129 26 68 30 682 20 140 29 26 29 33 82 223 26 142
leaf_count=21 25 37 21 20 103 20 115 31 85 61 27 46 20 23 21 129 26 68 30 682 20 140 29 26 29 33 82 223 26 142
internal_value=0.00822517 -2.42976 0.0915204 -2.97371 0.102605 0.111419 0.107508 0.0556218 0.0276358 0.141528 0.029237 0.16496 -0.00483388 0.301646 0.138538 0.121148 0.128581 0.094018 0.116268 0.100752 -0.178018 0.209455 0.133858 0.19072 0.140608 0.291979 0.37751 -0.0430745 -0.0668729 -0.0420444
internal_weight=2361 78 2283 41 2258 2155 2135 799 684 262 154 93 66 108 1336 1200 1179 826 758 728 46 353 224 195 169 136 103 422 391 365
internal_count=2361 78 2283 41 2258 2155 2135 799 684 262 154 93 66 108 1336 1200 1179 826 758 728 46 353 224 195 169 136 103 422 391 365
is_linear=0
shrinkage=0.05


Tree=5
num_leaves=31
num_cat=0
split_feature=23 15 18 19 5 9 18 26 44 1 9 7 35 9 38 4 45 23 11 35 38 39 10 10 19 22 20 26 1 33
split_gain=158898 14072.4 4475.79 1873.8 1328.93 1319.1 1272.31 2066.77 1720.95 1557.41 1595.91 1401.61 1571.23 1776.83 1671.09 1537.57 1325.15 1325.73 2202.83 2144.71 2374.87 2133.99 1441.13 1248.16 1226.28 1372.43 1190.72 1103.12 1085.37 1120.97
threshold=183.00000000000003 118.50000000000001 105.50000000000001 158.50000000000003 4.0454375000000011 0.39185416666666667 195.50000000000003 169.50000000000003 32333.067857142862 8.1285208333333347 0.31133333333333341 0.13479166666666667 31603.750000000004 0.32952083333333343 21134.450000000001 641.82916666666677 2592.8271128086349 210.50000000000003 2014.5000000000002 31163.500000000004 28900.850000000002 35420.500000000007 7.4437500000000005 7.3062500000000012 196.50000000000003 178.50000000000003 190.78571428571431 164.50000000000003 7.3935625000000007 30882.950000000004
decision_type=2 2 2 2 2 2 2 2 2 2 2 2 2 2 2 2 2 2 2 2 2 2 2 2 2 2 2 2 2 2
left_child=1 2 -1 -2 6 -6 8 11 16 10 -9 -8 14 -14 15 -13 17 18 -5 21 -21 22 -19 -12 25 27 -26 -16 -25 -30
right_child=3 -3 -4 4 5 -7 7 9 -10 -11 23 12 13 -15 24 -17 -18 19 -20 20 -22 -23 -24 28 26 -27 -28 -29 29 -31
leaf_value=-2.9893707405437127 -0.38709943056106572 -1.1518368938389947 -2.1053309266160176 -0.12951870506629348 0.143974244106435 0.39957660560806596 -0.18363686340195795 0.35270220523079238 -0.28668053287726186 -0.22853549231329692 0.2902476617583522 0.35452223047614101 0.32795535147190097 -0.23473061513393484 0.31314692516689718 -0.10144318881211803 0.26462357594650621 -0.18757461320470881 0.19212073779396588 -0.4164783518048043 0.23404534876346592 0.48245752011576015 0.095378980333054517 -0.42098622083663939 0.7691180205863456 0.57784797237032937 0.27954837266480792 -0.020053565267611435 -0.096131506982689713 0.17731361550589403
leaf_weight=22 20 34 41 60 318 60 35 30 26 92 27 26 20 47 46 64 147 54 472 47 20 31 270 20 23 21 27 54 171 48
leaf_count=22 20 34 41 60 318 60 35 30 26 92 27 26 20 47 46 64 147 54 472 47 20 31 270 20 23 21 27 54 171 48
internal_value=0.0102719 -1.97162 -2.41404 0.0947374 0.099009 0.184546 0.0817923 0.0313771 0.115388 -0.0488522 0.00699525 0.117132 0.149226 -0.0667647 0.204672 0.0302802 0.124882 0.10335 0.155846 0.0371704 -0.222292 0.0861394 0.04822 -0.0319943 0.296457 0.210386 0.50475 0.133219 -0.0683982 -0.0361983
internal_weight=2373 97 63 2276 2256 378 1878 751 1127 388 296 363 328 67 261 90 1101 954 532 422 67 355 324 266 171 121 50 100 239 219
internal_count=2373 97 63 2276 2256 378 1878 751 1127 388 296 363 328 67 261 90 1101 954 532 422 67 355 324 266 171 121 50 100 239 219
is_linear=0
shrinkage=0.05


Tree=6
num_leaves=31
num_cat=0
split_feature=24 36 28 15 34 6 6 40 28 6 32 6 31 42 36 28 7 0 46 23 27 16 19 9 8 8 36 45 1 37
split_gain=143502 11096 3483.11 3221.4 1935.54 1965.24 1932.46 1839.8 1744 1664.16 2124.8 1437.84 1408.73 1202.39 2601.36 1900.59 1271.53 2590.33 1275.21 1192.19 1418.33 1196.89 1193.25 1185.75 1534.18 1181.09 1124.96 1108.47 2262.84 1354.37
threshold=162.96428571428575 21288.185714285715 176.32142857142858 124.50000000000001 29866.700000000001 0.26631250000000001 0.20297916666666663 32152.250000000004 196.16071428571431 0.2514791666666667 29437.300000000007 0.23552083333333332 224.50000000000003 25163.700000000004 30437.742857142861 191.80357142857147 0.16485416666666666 0.26766666666666666 27496.900000000005 213.50000000000003 226.50000000000003 196.50000000000003 181.50000000000003 0.34968749999999998 0.18210416666666668 0.19960416666666667 31092.400000000001 1770.122980061157 7.5750625000000014 1789.1350568192381
decision_type=2 2 2 2 2 2 2 2 2 2 2 2 2 2 2 2 2 2 2 2 2 2 2 2 2 2 2 2 2 2
left_child=1 -1 -2 -3 6 7 -4 12 13 10 27 -12 -6 -7 15 -15 -16 -18 -19 22 -21 -22 23 -11 -25 -17 -24 29 -29 -8
right_child=2 3 4 -5 5 8 9 -9 -10 19 11 -13 -14 14 16 25 17 18 -20 20 21 -23 26 24 -26 -27 -28 28 -30 -31
leaf_value=-2.6043405378187026 -0.47712699660548463 -1.8257317527135215 -0.10186193459718439 -1.0485491534074149 -0.35240515402600736 0.35670856274664403 0.18740437500178816 0.19130273768396089 -0.29865279177824661 -0.1231287882458873 0.25469663384414853 0.84706494536250831 0.01485966505148472 -0.42854129744645875 0.023945056268712506 -0.16292461992631999 -0.2025912949017116 0.24512624533580885 0.61968473565989535 -0.060269508643744932 0.037775520069731609 0.49952661291412687 0.14385782671935377 -0.17808425312950499 0.34967120796442036 0.32272359842345832 0.43430320347348855 -0.2962935762419816 0.15187437213086463 0.45133666521118532
leaf_weight=37 27 30 91 24 79 40 225 33 30 82 21 20 39 39 128 31 28 105 29 206 36 23 451 21 40 21 36 31 308 62
leaf_count=37 27 30 91 24 79 40 225 33 30 82 21 20 39 39 128 31 28 105 29 206 36 23 451 21 40 21 36 31 308 62
internal_value=0.0097583 -1.93734 0.0874032 -1.48032 0.0941626 0.0174023 0.122118 -0.138725 0.0696756 0.135166 0.194949 0.543657 -0.231021 0.0959223 0.0685432 -0.164688 0.141729 0.234794 0.326187 0.0906132 0.00163589 0.21778 0.12804 0.00105258 0.167985 0.0332025 0.165328 0.17211 0.110891 0.244421
internal_weight=2373 91 2282 54 2255 602 1653 151 451 1562 667 41 118 421 381 91 290 162 134 895 265 59 630 143 61 52 487 626 339 287
internal_count=2373 91 2282 54 2255 602 1653 151 451 1562 667 41 118 421 381 91 290 162 134 895 265 59 630 143 61 52 487 626 339 287
is_linear=0
shrinkage=0.05


Tree=7
num_leaves=31
num_cat=0
split_feature=23 15 18 17 34 6 6 28 29 26 3 8 9 9 47 16 17 41 21 22 45 7 13 0 45 2 28 28 27 42
split_gain=129611 11417.1 3805.41 3016.91 1777.74 1771.99 1688.91 1571.14 1553.95 1866.86 2039.74 1655.42 1491.36 1473.73 1778.24 1456.77 1433.43 1808.64 1421.02 2428.22 1296.61 1220.74 1174.42 1171.82 2108.95 1508.56 1336.97 1174.43 1095.64 1088.13
threshold=183.00000000000003 118.50000000000001 105.50000000000001 160.50000000000003 29866.700000000001 0.20158333333333334 0.26631250000000001 196.16071428571431 12.736960320331296 165.50000000000003 0.71039583333333345 0.17962499999999998 0.3969375 0.30997916666666675 36710.30000000001 173.50000000000003 205.50000000000003 2221.4339768476098 9.6226418703326217 172.50000000000003 2295.0865275466854 0.16377083333333334 18.500000000000004 0.46535416666666668 2333.0238147131736 0.91931250000000009 195.26785714285717 194.62500000000003 220.50000000000003 25163.700000000004
decision_type=2 2 2 2 2 2 2 2 2 2 2 2 2 2 2 2 2 2 2 2 2 2 2 2 2 2 2 2 2 2
left_child=1 2 -1 -2 5 -5 20 29 11 10 -10 -7 28 -12 15 -15 23 22 -17 -20 -6 -21 -18 24 -11 -25 27 -27 -13 -8
right_child=3 -3 -4 4 6 8 7 -9 9 16 13 12 -14 14 -16 18 17 -19 19 21 -22 -23 -24 25 -26 26 -28 -29 -30 -31
leaf_value=-2.7096851652318783 -0.51096868827229458 -1.0422878834254603 -1.8945349414174151 -0.10879156569291543 -0.3239662058927395 0.0068624598618883363 0.33887313473969699 -0.28372014959653219 0.45514489758227561 0.53765746763774336 -0.28815292596817016 0.22814077425109983 0.50371365489607511 0.38536034441271494 0.58764475699175489 0.44773294600573454 -0.14106352750365789 0.15435304420116622 0.1386279659386534 -0.56353206336498263 -0.017708481087659798 -0.080931249731465399 -0.57220957328311417 -0.33334248249347392 0.033654586883152232 0.053045902581421479 0.31904822228984403 -0.31155758462846284 0.0033747835445307921 0.064672746213944268
leaf_weight=22 21 34 41 82 54 104 40 30 56 35 20 432 44 43 22 22 56 39 137 20 96 38 22 26 51 277 44 24 62 379
leaf_count=22 21 34 41 82 54 104 40 30 56 35 20 432 44 43 22 22 56 39 137 20 96 38 22 26 51 277 44 24 62 379
internal_value=0.00927038 -1.78069 -2.17919 0.085556 0.0911112 0.117811 0.0172957 0.0658225 0.129617 0.0883835 0.177988 0.189475 0.224776 0.126595 0.15601 0.119487 0.0324975 -0.123662 0.0668024 0.0238257 -0.127961 -0.247345 -0.262669 0.0724769 0.238772 0.0339287 0.0616071 0.0239745 0.199931 0.0908494
internal_weight=2373 97 63 2276 2255 1656 599 449 1574 932 358 642 538 302 282 260 574 117 217 195 150 58 78 457 86 371 345 301 494 419
internal_count=2373 97 63 2276 2255 1656 599 449 1574 932 358 642 538 302 282 260 574 117 217 195 150 58 78 457 86 371 345 301 494 419
is_linear=0
shrinkage=0.05


end of trees

feature_importances:
Column_19=13
Column_7=12
Column_8=11
Column_9=10
Column_18=10
Column_28=10
Column_44=10
Column_3=8
Column_20=8
Column_33=8
Column_35=8
Column_6=7
Column_10=7
Column_37=7
Column_0=6
Column_15=6
Column_23=6
Column_1=5
Column_17=5
Column_21=5
Column_22=5
Column_45=5
Column_47=5
Column_2=4
Column_4=4
Column_24=4
Column_26=4
Column_39=4
Column_42=4
Column_5=3
Column_16=3
Column_25=3
Column_27=3
Column_29=3
Column_32=3
Column_34=3
Column_36=3
Column_38=3
Column_41=3
Column_13=2
Column_30=2
Column_11=1
Column_14=1
Column_31=1
Column_40=1
Column_46=1

parameters:
[boosting: gbdt]
[objective: regression]
[metric: l1]
[tree_learner: serial]
[device_type: cpu]
[data_sample_strategy: bagging]
[data: ]
[valid: ]
[num_iterations: 500]
[learning_rate: 0.05]
[num_leaves: 31]
[num_threads: 0]
[seed: 42]
[deterministic: 0]
[force_col_wise: 0]
[force_row_wise: 0]
[histogram_pool_size: -1]
[max_depth: -1]
[min_data_in_leaf: 20]
[min_sum_hessian_in_leaf: 0.001]
[bagging_fraction: 0.8]
[pos_bagging_fraction: 1]
[neg_bagging_fraction: 1]
[bagging_freq: 5]
[bagging_seed: 400]
[bagging_by_query: 0]
[feature_fraction: 0.8]
[feature_fraction_bynode: 1]
[feature_fraction_seed: 30056]
[extra_trees: 0]
[extra_seed: 12879]
[early_stopping_round: 0]
[early_stopping_min_delta: 0]
[first_metric_only: 0]
[max_delta_step: 0]
[lambda_l1: 0]
[lambda_l2: 0]
[linear_lambda: 0]
[min_gain_to_split: 0]
[drop_rate: 0.1]
[max_drop: 50]
[skip_drop: 0.5]
[xgboost_dart_mode: 0]
[uniform_drop: 0]
[drop_seed: 17869]
[top_rate: 0.2]
[other_rate: 0.1]
[min_data_per_group: 100]
[max_cat_threshold: 32]
[cat_l2: 10]
[cat_smooth: 10]
[max_cat_to_onehot: 4]
[top_k: 20]
[monotone_constraints: ]
[monotone_constraints_method: basic]
[monotone_penalty: 0]
[feature_contri: ]
[forcedsplits_filename: ]
[refit_decay_rate: 0.9]
[cegb_tradeoff: 1]
[cegb_penalty_split: 0]
[cegb_penalty_feature_lazy: ]
[cegb_penalty_feature_coupled: ]
[path_smooth: 0]
[interaction_constraints: ]
[verbosity: -1]
[saved_feature_importance_type: 0]
[use_quantized_grad: 0]
[num_grad_quant_bins: 4]
[quant_train_renew_leaf: 0]
[stochastic_rounding: 1]
[linear_tree: 0]
[max_bin: 255]
[max_bin_by_feature: ]
[min_data_in_bin: 3]
[bin_construct_sample_cnt: 200000]
[data_random_seed: 175]
[is_enable_sparse: 1]
[enable_bundle: 1]
[use_missing: 1]
[zero_as_missing: 0]
[feature_pre_filter: 1]
[pre_partition: 0]
[two_round: 0]
[header: 0]
[label_column: ]
[weight_column: ]
[group_column: ]
[ignore_column: ]
[categorical_feature: ]
[forcedbins_filename: ]
[precise_float_parser: 0]
[parser_config_file: ]
[objective_seed: 16083]
[num_class: 1]
[is_unbalance: 0]
[scale_pos_weight: 1]
[sigmoid: 1]
[boost_from_average: 1]
[reg_sqrt: 0]
[alpha: 0.9]
[fair_c: 1]
[poisson_max_delta_step: 0.7]
[tweedie_variance_power: 1.5]
[lambdarank_truncation_level: 30]
[lambdarank_norm: 1]
[label_gain: ]
[lambdarank_position_bias_regularization: 0]
[eval_at: ]
[multi_error_top_k: 1]
[auc_mu_weights: ]
[num_machines: 1]
[local_listen_port: 12400]
[time_out: 120]
[machine_list_filename: ]
[machines: ]
[gpu_platform_id: -1]
[gpu_device_id: -1]
[gpu_use_dp: 0]
[num_gpu: 1]

end of parameters

pandas_categorical:null
