tree
version=v4
num_class=1
num_tree_per_iteration=1
label_index=0
max_feature_idx=47
objective=regression
feature_names=Column_0 Column_1 Column_2 Column_3 Column_4 Column_5 Column_6 Column_7 Column_8 Column_9 Column_10 Column_11 Column_12 Column_13 Column_14 Column_15 Column_16 Column_17 Column_18 Column_19 Column_20 Column_21 Column_22 Column_23 Column_24 Column_25 Column_26 Column_27 Column_28 Column_29 Column_30 Column_31 Column_32 Column_33 Column_34 Column_35 Column_36 Column_37 Column_38 Column_39 Column_40 Column_41 Column_42 Column_43 Column_44 Column_45 Column_46 Column_47
feature_infos=[0.22412499999999999:0.87145833333333333] [4.1651666666666669:9.0553333333333317] [0.71083333333333332:0.97224999999999995] [0.68679166666666669:0.81541666666666668] [586.11250000000007:726.67916666666667] [2.9161666666666668:4.3062916666666666] [0.15195833333333331:0.40699999999999997] [0.093458333333333296:0.26729166666666659] [0.11175:0.33620833333333339] [0.25587500000000002:0.47899999999999998] [6.1583333333333341:10.262499999999999] [2014:2022] [1:12] [1:31] [0:6] [1:366] [78:247] [68:247] [67:247] [55:247] [87:207.85714285714286] [3.2513733362133173:26.409774525281236] [68:197] [111:247] [84.571428571428569:202.21428571428572] [5.8201053576059394:22.412834823715951] [67:188] [112:247] [76.5:199.10714285714286] [7.9834484864285979:19.336069866537002] [55:179] [112:247] [11670.5:42673.300000000003] [10768:42673.300000000003] [10768:42673.300000000003] [8408.2999999999993:42673.300000000003] [14194.571428571429:33985.099999999999] [457.93443853946388:4902.1459225236003] [10768:32707.900000000001] [17961.900000000001:42673.300000000003] [13711.678571428571:33478.750000000007] [695.898598500866:3689.6466656900134] [10768:30752.200000000001] [17961.900000000001:42673.300000000003] [12254.514285714287:32898.932142857142] [1013.3944368794588:3363.4574495874308] [8408.2999999999993:29197.5] [17961.900000000001:42673.300000000003]
tree_sizes=2609 2704 2720 2725 2714 2717 2725 2727 2711 2711 2721 2721 2735 2732 2726 2730 2722 2703 2712 2726

Tree=0
num_leaves=31
num_cat=0
split_feature=20 34 30 43 28 27 41 25 4 35 38 4 34 34 22 24 41 19 9 28 38 26 1 26 29 23 15 19 19 47
split_gain=319101 17273.9 16641.3 2264.27 1777.87 1836.47 1974.37 2093.35 2113.49 1834.38 1914.21 1959.25 1757.34 1678.7 1953.77 1749.05 1666.69 1777.91 1649.41 1712.48 1559.94 1522.12 1493.61 1502.3 1687.59 1434.16 1359.09 1356.3 1692.81 1506.93
threshold=150.50000000000003 19701.900000000005 141.50000000000003 24651.850000000002 185.69642857142858 236.50000000000003 2099.3510214385128 16.250866178763673 699.1791666666669 30566.550000000007 28344.750000000004 696.86458333333337 31759.350000000002 25403.800000000007 170.50000000000003 192.82142857142858 2473.5888732854969 183.50000000000003 0.36247916666666674 194.66071428571431 20689.900000000005 170.50000000000003 7.4531250000000009 162.50000000000003 12.844177017124645 207.50000000000003 12.500000000000002 200.50000000000003 211.50000000000003 37128.55000000001
decision_type=2 2 2 2 2 2 2 2 2 2 2 2 2 2 2 2 2 2 2 2 2 2 2 2 2 2 2 2 2 2
left_child=1 -1 -2 20 -5 6 7 8 22 10 13 12 -12 -8 16 -16 -15 -18 19 27 -4 -13 25 24 -24 -6 -17 29 -29 -11
right_child=2 -3 3 4 5 -7 9 -9 -10 18 11 21 -14 14 15 26 17 -19 -20 -21 -22 -23 23 -25 -26 -27 -28 28 -30 -31
leaf_value=185.48793970971832 188.50568169971157 187.00842701848234 189.77545508944772 189.28718372624439 189.28970776054365 189.3137462239161 189.8903087291082 189.21541290002017 189.30263511677862 189.5842007709962 189.94761718608211 189.41624622421412 190.53192804412987 189.41697203261089 190.02829167992456 190.0092007761439 189.45660336911484 189.9946285767696 189.82513863576978 189.23803194424741 190.16874622888315 189.99643853630801 190.28124623941329 189.65213534706308 189.73457955985711 189.74451545732168 189.55541289261473 189.30336886722492 189.82510985811228 189.96731765241657
leaf_weight=31 31 47 158 32 52 37 128 30 45 66 31 20 22 93 55 22 28 34 79 35 30 26 20 956 48 26 66 53 22 42
leaf_count=31 31 47 158 32 52 37 128 30 45 66 31 20 22 93 55 22 28 34 79 35 30 26 20 956 48 26 66 53 22 42
internal_value=189.549 186.404 189.656 189.672 189.657 189.663 189.669 189.628 189.639 189.729 189.785 189.983 190.19 189.739 189.674 189.807 189.551 189.752 189.629 189.558 189.838 189.744 189.652 189.668 189.895 189.441 189.669 189.62 189.456 189.733
internal_weight=2365 78 2287 2256 2068 2036 1999 1177 1147 822 525 99 53 426 298 143 155 62 297 218 188 46 1102 1024 68 78 88 183 75 108
internal_count=2365 78 2287 2256 2068 2036 1999 1177 1147 822 525 99 53 426 298 143 155 62 297 218 188 46 1102 1024 68 78 88 183 75 108
is_linear=0
shrinkage=1


Tree=1
num_leaves=31
num_cat=0
split_feature=20 34 30 44 2 29 41 23 7 4 4 8 21 10 8 42 22 32 7 15 34 8 25 20 29 35 20 9 20 20
split_gain=287988 15670.8 15018.8 2193.06 2015.96 1732.93 1709.88 1611.14 1827.42 1671.19 1688.91 1664.08 1631.92 1854.9 1630.21 1852.62 1509.14 1497.29 1478.88 1580.5 1470.98 1811.75 1551.26 1498 1446.98 1871.22 1416.48 1636.78 1670.62 1431.53
threshold=150.50000000000003 17879.000000000004 141.50000000000003 32333.067857142862 0.80089583333333347 14.089378339791146 1157.1576081885194 206.50000000000003 0.12454166666666666 698.22083333333342 692.98541666666677 0.21564583333333329 12.791366135759644 8.4020833333333353 0.19260416666666666 27808.500000000004 167.50000000000003 31268.500000000004 0.14727083333333332 94.500000000000014 31054.450000000004 0.19485416666666669 15.205280282292284 186.6428571428572 12.201542659873462 32225.250000000004 200.78571428571431 0.42120833333333335 186.92857142857147 190.21428571428575
decision_type=2 2 2 2 2 2 2 2 2 2 2 2 2 2 2 2 2 2 2 2 2 2 2 2 2 2 2 2 2 2
left_child=1 -1 -2 6 -3 -5 -4 8 -8 10 16 17 14 20 15 -10 18 -12 -9 -20 21 -14 23 -23 -11 -26 27 28 -18 -30
right_child=2 4 3 5 -6 -7 7 9 12 24 11 -13 13 -15 -16 -17 26 -19 19 -21 -22 22 -24 -25 25 -27 -28 -29 29 -31
leaf_value=-3.982089204054613 -0.98334858830898042 -2.8422339786182751 0.46410778666797442 -0.5538113506067367 -2.212087999979655 0.081189423257654367 -0.3440882254105348 0.280216845258006 0.24430092646678292 -0.37751627984372055 0.49369521019980311 0.74304104919234915 0.033788737654685978 -0.047606693434974423 -0.014486687483661104 -0.13866923496127129 -0.17953640860319139 0.0061253671684572781 -0.35179672646817978 0.047398971341419641 0.017440211336160527 1.0173185684464194 0.20066829863048735 0.44611949448784194 0.20059410851494769 -0.22095464483285562 -0.019254898174187622 -0.1417831906117499 0.43469773128536748 0.21270461683625894
leaf_weight=26 31 22 38 21 30 22 26 56 150 22 32 24 22 46 396 40 25 31 29 171 29 22 21 24 81 39 74 32 81 702
leaf_count=26 31 22 38 21 30 22 26 56 150 22 32 24 22 46 396 40 25 31 29 171 29 22 21 24 81 39 74 32 81 702
internal_value=0.00781375 -2.97982 0.109709 0.124729 -2.47869 -0.228927 0.131601 0.125792 0.0680109 0.157842 0.176209 0.388748 0.082297 0.221714 0.0432793 0.163676 0.160405 0.25378 0.0531065 -0.0104844 0.326704 0.427475 0.556745 0.719302 -0.00474976 0.0635908 0.190458 0.208933 0.222823 0.235669
internal_weight=2365 78 2287 2256 52 43 2213 2175 776 1399 1257 87 750 164 586 190 1170 63 256 200 118 89 67 46 142 120 914 840 808 783
internal_count=2365 78 2287 2256 52 43 2213 2175 776 1399 1257 87 750 164 586 190 1170 63 256 200 118 89 67 46 142 120 914 840 808 783
is_linear=0
shrinkage=0.05


Tree=2
num_leaves=31
num_cat=0
split_feature=20 33 30 25 43 44 28 29 38 28 23 20 16 7 31 30 28 18 13 24 4 10 31 25 35 1 7 28 31 6
split_gain=259909 14375.9 13554.5 2055.23 1988.93 1819.18 1677.06 1563.97 1395.59 1198.73 1416.33 1908.47 2051.4 2381.13 1749.48 1434.4 1611.35 4363.7 1698.88 1521.57 1503.55 1454.23 1417.14 1497.79 1352.34 1446.83 1805.21 1721.13 1920.47 1404.53
threshold=150.50000000000003 18804.350000000002 141.50000000000003 14.035766705574494 24651.850000000002 32333.067857142862 185.69642857142858 14.089378339791146 20689.900000000005 187.26785714285717 206.50000000000003 193.50000000000003 202.50000000000003 0.13139583333333332 212.50000000000003 162.50000000000003 192.12500000000003 193.50000000000003 16.500000000000004 189.96428571428575 686.12291666666681 8.5395833333333346 226.50000000000003 15.617069261152151 32749.100000000002 7.6102500000000015 0.18727083333333333 190.48214285714289 217.50000000000003 0.29377083333333337
decision_type=2 2 2 2 2 2 2 2 2 2 2 2 2 2 2 2 2 2 2 2 2 2 2 2 2 2 2 2 2 2
left_child=1 -1 -2 -3 8 6 -6 -7 -4 -8 11 12 13 -11 -12 21 18 -18 19 -17 -20 -15 24 -24 25 26 27 -16 -29 -26
right_child=2 3 4 -5 5 7 9 -9 -10 10 14 -13 -14 15 22 16 17 -19 20 -21 -22 -23 23 -25 29 -27 -28 28 -30 -31
leaf_value=-3.9138171976262877 -0.93418115185153106 -2.1430489301681521 0.21483843842774772 -2.7551358938217163 -0.24792429003864527 -0.52612078942003704 0.36118312313848611 0.077129949222911498 0.58683450073003773 -0.33759355026607718 0.32682749903921426 -0.17892424534016019 0.39966342030687541 0.29973465628787743 0.0055727049708366398 -0.35248338782694194 0.4325979880585864 -0.10173746841617777 0.16751295554897061 0.043714877886649892 -0.28446738052627313 -0.12237467378377916 0.33809510952948285 0.11092235992352169 0.030352919486661752 0.082111859321127245 -0.050848315060138705 0.91150808276777928 0.31854824142323601 -0.47873418593779204
leaf_weight=22 31 32 158 24 32 21 49 22 30 36 116 79 47 111 20 64 74 79 92 39 23 25 138 153 42 698 30 22 36 20
leaf_count=22 31 32 158 24 32 21 49 22 30 36 116 79 47 111 20 64 74 79 92 39 23 25 138 153 42 698 30 22 36 20
internal_value=0.00742306 -2.83083 0.104224 -2.40537 0.118493 0.104338 0.111171 -0.217481 0.2742 0.116937 0.110781 0.051863 0.082765 0.0553355 0.141695 0.0832358 0.0323164 0.156699 -0.0549799 -0.202467 0.0771169 0.222141 0.123166 0.218654 0.0911534 0.108463 0.278768 0.405543 0.543464 -0.133869
internal_weight=2365 78 2287 56 2256 2068 2025 43 188 1993 1944 669 590 543 1275 507 371 153 218 103 115 136 1159 291 868 806 108 78 58 62
internal_count=2365 78 2287 56 2256 2068 2025 43 188 1993 1944 669 590 543 1275 507 371 153 218 103 115 136 1159 291 868 806 108 78 58 62
is_linear=0
shrinkage=0.05


Tree=3
num_leaves=31
num_cat=0
split_feature=23 18 24 44 27 45 27 3 41 6 41 4 25 17 23 1 22 8 26 18 2 23 7 9 9 34 1 32 2 40
split_gain=234568 13067.1 12014.8 1799.14 1726.26 1524.89 1442.04 1570.75 1551.25 1299.94 1285.19 1861.81 1888.71 1248.25 1358.29 1772.62 1962.47 1683.51 1643.56 1409.34 1372.3 1270.41 1875.41 1237.4 1379.09 2051.37 1967.2 1869.55 1556.22 1629.77
threshold=166.50000000000003 118.00000000000001 178.17857142857144 32333.067857142862 236.50000000000003 2577.4675735367814 226.50000000000003 0.7251875000000001 1157.1576081885194 0.19020833333333334 2104.05024476883 699.1791666666669 16.250866178763673 213.50000000000003 206.50000000000003 7.4531250000000009 165.50000000000003 0.19260416666666666 168.50000000000003 180.50000000000003 0.94900000000000018 200.50000000000003 0.17181249999999998 0.41629166666666667 0.36247916666666674 25877.450000000001 7.6740625000000016 34602.30000000001 0.93643750000000014 32175.164285714291
decision_type=2 2 2 2 2 2 2 2 2 2 2 2 2 2 2 2 2 2 2 2 2 2 2 2 2 2 2 2 2 2
left_child=1 -1 -2 4 6 -5 8 -8 -4 -10 11 12 13 14 15 -11 -17 18 -18 -19 21 -20 -23 24 25 -12 -26 28 29 -27
right_child=2 -3 3 5 -6 -7 7 -9 9 10 23 -13 -14 -15 -16 16 17 19 20 -21 -22 22 -24 -25 26 27 -28 -29 -30 -31
leaf_value=-3.4861449887675628 -0.79467381142281202 -2.1637035978601333 0.42929787722073104 -0.49751284725286749 -0.23896760416753368 0.098151852403368267 0.17178978511955645 0.50132876449093533 0.43899636792725527 -0.23275668512170133 0.35744096871931108 -0.23953639729677337 -0.27761685752442905 -0.19089643482018162 0.15292825727890888 0.40538839185383263 0.50290874652564532 -0.24436009436331949 0.24102837794593404 0.030619719820214983 0.38316959450984828 -0.50362167202908059 0.14210603000088171 -0.22752271682024003 0.53908564084106025 0.11014182840505343 0.18348024439790267 0.47890839665555041 -0.37799691827524279 -0.24394781444523789
leaf_weight=31 37 47 38 22 33 21 138 49 29 52 76 46 35 37 640 41 32 58 28 237 29 23 22 20 54 267 139 26 21 37
leaf_count=31 37 47 38 22 33 21 138 49 29 52 76 46 35 37 640 41 32 58 28 237 29 23 22 20 54 267 139 26 21 37
internal_value=0.00705191 -2.68929 0.0990128 0.113709 0.11995 -0.206607 0.125398 0.25814 0.112905 0.106737 0.101718 0.0727922 0.0844349 0.0950036 0.104107 0.0442498 0.0748973 0.0433119 0.190275 -0.0234441 0.0921936 -0.0233996 -0.187933 0.15957 0.172057 0.121923 0.282976 0.0709273 0.0382888 0.0670454
internal_weight=2365 78 2287 2250 2207 43 2174 187 1987 1949 1920 1280 1234 1199 1162 522 470 429 134 295 102 73 45 640 620 427 193 351 325 304
internal_count=2365 78 2287 2250 2207 43 2174 187 1987 1949 1920 1280 1234 1199 1162 522 470 429 134 295 102 73 45 640 620 427 193 351 325 304
is_linear=0
shrinkage=0.05


Tree=4
num_leaves=31
num_cat=0
split_feature=22 19 2 30 43 44 41 25 18 27 44 32 5 18 4 4 0 32 4 38 26 20 8 36 22 7 27 29 41 4
split_gain=211841 17704.3 3970.65 3475.51 1660.08 1534.41 1579.58 1832.89 1639.93 2113.32 1924.4 2430.22 1549.03 1539.37 1537.82 1489.87 1443.24 1426.42 1535.69 1240.24 1141.99 1251.57 1717.55 1103.7 1061.14 2042.17 2251.43 1531.26 1519.69 1634.41
threshold=141.50000000000003 105.50000000000001 0.85960416666666672 147.50000000000003 24651.850000000002 32402.501785714292 2099.3510214385128 16.250866178763673 183.50000000000003 236.50000000000003 25764.239285714288 30871.450000000004 3.5339791666666671 179.50000000000003 699.1791666666669 668.98750000000007 0.26643750000000005 34602.30000000001 702.38333333333344 20689.900000000005 161.50000000000003 186.78571428571431 0.24022916666666669 21320.478571428575 173.50000000000003 0.1554791666666667 213.50000000000003 15.332082415760363 2017.0140921252967 684.59375000000011
decision_type=2 2 2 2 2 2 2 2 2 2 2 2 2 2 2 2 2 2 2 2 2 2 2 2 2 2 2 2 2 2
left_child=1 -1 -3 -2 19 6 7 14 10 16 -8 12 -12 -13 20 -14 -10 18 -18 23 -6 22 -22 -5 25 26 -23 28 29 -26
right_child=3 2 -4 4 5 -7 8 -9 9 -11 11 13 15 -15 -16 -17 17 -19 -20 -21 21 24 -24 -25 27 -27 -28 -29 -30 -31
leaf_value=-3.2952181816101076 -0.36004595533013345 -2.1373845613919773 -1.2846090487071447 0.39645586163872704 0.34013949871539723 -0.23598288192468533 0.59887784171748804 -0.31372972616264899 -0.2661057938228954 -0.34795630176862086 0.36480785861611364 0.26983989143842146 0.27920056929190956 0.74042866319417966 -0.21065154928300114 -0.18692515673736732 0.15010296710733381 0.44671102955534653 -0.17632997139142112 0.54708555857340491 0.023390495877550998 0.15135003579371187 -0.41974683078350844 0.10910917185246945 0.068909265825139551 0.27072781677137026 -0.37972016334533693 -0.26909281186985251 -0.17235899192315562 0.30859521817238561
leaf_weight=32 40 39 21 48 43 34 37 31 22 24 30 57 24 25 45 60 473 37 39 30 115 64 27 110 464 194 29 33 54 84
leaf_count=32 40 39 21 48 43 34 37 31 22 24 30 57 24 25 45 60 473 37 39 30 115 64 27 110 464 194 29 33 54 84
internal_value=0.00669931 -2.34545 -1.83891 0.101903 0.110178 0.0971066 0.102738 0.0656652 0.155706 0.111672 0.268153 0.20572 0.0563995 0.413312 0.0758746 -0.0537464 0.130991 0.146904 0.125238 0.252364 0.087522 0.0773129 -0.060868 0.196404 0.0985945 0.178382 -0.0142525 0.062533 0.0807118 0.105649
internal_weight=2365 92 60 2273 2233 2045 2011 1183 828 595 233 196 114 82 1152 84 571 549 512 188 1107 1064 142 158 922 287 93 635 602 548
internal_count=2365 92 60 2273 2233 2045 2011 1183 828 595 233 196 114 82 1152 84 571 549 512 188 1107 1064 142 158 922 287 93 635 602 548
is_linear=0
shrinkage=0.05


Tree=5
num_leaves=31
num_cat=0
split_feature=22 18 28 2 14 35 30 1 39 28 18 4 42 8 9 0 19 20 15 39 41 10 16 22 9 41 16 20 30 7
split_gain=168425 19339 4203.85 4160.82 1902.33 1730.52 2286.97 2027.27 1665.62 1430.67 1644.73 1440.82 1277.57 1188.88 1160.88 1149.22 1147.47 1563.61 1396.77 1337.75 1792.53 1301.09 1400.44 1958.03 1375.06 2057.72 1530.84 1686.31 1204.84 1332.15
threshold=141.50000000000003 105.50000000000001 176.32142857142858 0.8741458333333334 2.5000000000000004 29482.000000000004 164.50000000000003 7.2915208333333341 35402.250000000007 191.51785714285717 189.50000000000003 687.57500000000016 25951.850000000002 0.17877083333333332 0.34539583333333335 0.31666666666666671 181.50000000000003 200.78571428571431 260.50000000000006 30389.700000000004 1299.6699410645563 7.7479166666666677 196.50000000000003 161.50000000000003 0.37235416666666665 1568.8722739274335 192.50000000000003 186.35714285714286 162.50000000000003 0.15689583333333332
decision_type=2 2 2 2 2 2 2 2 2 2 2 2 2 2 2 2 2 2 2 2 2 2 2 2 2 2 2 2 2 2
left_child=1 -1 -2 4 -3 8 9 -8 16 10 12 -12 -7 -11 -13 -10 19 21 -19 20 -4 -18 23 -23 26 -26 27 -25 29 -24
right_child=2 3 5 -5 -6 6 7 -9 15 13 11 14 -14 -15 -16 -17 17 18 -20 -21 -22 22 28 24 25 -27 -28 -29 -30 -31
leaf_value=-3.3825244730169128 -0.51838951375749376 -1.6228972053527835 0.3960508759205158 -1.0723465728759767 -2.2461085478464766 -0.22091167616844176 -0.47971966266632082 -0.012624059494857382 0.22096417312111175 -0.29035053968429569 0.59474227747251829 0.4496663575822657 0.20451692412296932 0.088669690703197079 -0.058370791926332148 0.71721119403839118 0.25546841929340131 -0.30188126673045407 0.22471108607947829 0.18915336737957072 -0.038711352681664951 0.50343227867896745 0.36474318836222996 -0.25800878526391208 0.41988286921331153 0.050556759747366113 -0.23839196037437957 0.1129683348214191 0.28563135576498982 -0.10667944411013991
leaf_weight=22 27 25 26 20 24 25 25 328 28 25 43 22 60 120 23 20 308 34 20 136 269 26 22 37 55 120 59 178 202 47
leaf_count=22 27 25 26 20 24 25 25 328 28 25 43 22 60 120 23 20 308 34 20 136 269 26 22 37 55 120 59 178 202 47
internal_value=0.0177993 -2.09166 0.101809 -1.68009 -1.92814 0.109225 0.0419079 -0.0457045 0.137687 0.139163 0.236256 0.387773 0.0793909 0.0233214 0.190003 0.427734 0.128641 0.155568 -0.106847 0.0594172 -0.000393326 0.169012 0.133317 0.0815716 0.0571432 0.166631 -0.012785 0.0491258 0.224015 0.0436292
internal_weight=2376 91 2285 69 49 2258 671 353 1587 318 173 88 85 145 45 48 1539 1108 54 431 295 1054 746 475 449 175 274 215 271 69
internal_count=2376 91 2285 69 49 2258 671 353 1587 318 173 88 85 145 45 48 1539 1108 54 431 295 1054 746 475 449 175 274 215 271 69
is_linear=0
shrinkage=0.05


Tree=6
num_leaves=31
num_cat=0
split_feature=24 19 24 45 44 1 41 25 37 41 40 44 15 25 0 24 10 1 22 34 38 8 8 24 0 15 13 36 32 22
split_gain=152210 16105.9 4177.61 3278.44 1606.03 1400.21 1475.08 987.762 1184.52 1052.98 1599.35 1596.3 1479.39 1362.14 1318.76 1315.25 1224.16 1335.11 1217.7 1313.08 1330.21 1173.35 2485.98 1314.51 1159.61 1139.54 1069.17 1243.56 1324.72 1518.59
threshold=162.96428571428575 105.50000000000001 178.17857142857144 2295.0457835812595 32333.067857142862 8.6195833333333347 1157.1576081885194 18.74620250638624 2332.8971408670645 2099.3510214385128 23689.63571428572 31905.648214285717 225.50000000000003 13.916153940778967 0.31666666666666671 188.53571428571431 7.8645833333333348 7.8224791666666675 168.50000000000003 20019.000000000004 20231.900000000005 0.23647916666666666 0.26414583333333336 185.67857142857147 0.33570833333333333 114.50000000000001 7.5000000000000009 25289.32857142857 27550.250000000004 169.50000000000003
decision_type=2 2 2 2 2 2 2 2 2 2 2 2 2 2 2 2 2 2 2 2 2 2 2 2 2 2 2 2 2 2
left_child=1 -1 -2 -3 5 6 -4 9 -9 11 -11 12 21 16 -15 -16 -12 -18 -14 -20 -21 23 25 -8 -17 -23 -26 -28 -29 -30
right_child=2 3 4 -5 -6 -7 7 8 -10 10 13 -13 18 14 15 24 17 -19 19 20 -22 22 -24 -25 26 -27 27 28 29 -31
leaf_value=-2.9610532300225625 -0.55942660272121436 -1.2035638697007123 0.42695752229239492 -1.9341658013207572 -0.1989136655663335 -0.25516524211718489 0.38833709726376192 -0.40009341418743133 0.051501724728435838 0.47426683994439939 0.39249198510819538 0.52087649163745697 -0.021518547969878232 -0.040312656969946674 0.34696862666186562 0.36631463360455307 0.31689094766974452 0.0032645141154947419 -0.097715423659731959 0.28811313348182338 0.12510264710357519 0.057335737185633708 0.30873679300913448 0.03432564417072187 0.22717976343463847 -0.3505646216780392 -0.33700171262025835 0.24705317117718303 -0.43632464792047232 0.041420187745243309
leaf_weight=29 24 34 37 28 43 26 28 20 53 39 88 21 117 127 67 36 65 71 48 179 416 23 26 413 71 67 24 55 21 80
leaf_count=29 24 34 37 28 43 26 28 20 53 39 88 21 117 127 67 36 65 71 48 179 416 23 26 413 71 67 24 55 21 80
internal_value=0.0169094 -1.98844 0.0967724 -1.53351 0.103738 0.109605 0.113932 0.108557 -0.072223 0.114896 0.162581 0.0883807 0.0814844 0.145339 0.0979105 0.147499 0.247183 0.15316 0.126851 0.153849 0.174143 0.0195834 -0.121913 0.0568026 0.100933 -0.246323 0.0628703 -0.00194066 0.0496072 -0.0579129
internal_weight=2376 91 2285 62 2261 2218 2192 2155 73 2082 744 1338 1317 705 481 354 224 136 760 643 595 557 116 441 287 90 251 180 156 101
internal_count=2376 91 2285 62 2261 2218 2192 2155 73 2082 744 1338 1317 705 481 354 224 136 760 643 595 557 116 441 287 90 251 180 156 101
is_linear=0
shrinkage=0.05


Tree=7
num_leaves=31
num_cat=0
split_feature=24 18 24 2 14 41 29 46 30 25 17 10 24 3 38 15 3 30 33 2 21 6 6 34 34 26 41 24 45 15
split_gain=137370 16059.4 3770.29 3420.66 1679.85 1308.38 1237.61 1296.47 1134.18 1215.25 1138.49 1595.46 1243.55 1095.09 1578.4 1295.39 1266.15 1226.1 2299.33 1857.73 1684.2 1361.12 1758.62 1288.44 1868.65 1626.49 1595.72 1250.91 2986.74 1681.63
threshold=162.96428571428575 105.50000000000001 178.17857142857144 0.8741458333333334 2.5000000000000004 1157.1576081885194 9.7943127262703289 28247.350000000002 170.50000000000003 9.0980609002586057 199.50000000000003 8.5104166666666696 189.89285714285717 0.70712500000000011 25534.400000000005 196.50000000000003 0.70468750000000013 164.50000000000003 25911.600000000002 0.93808333333333338 6.5701222051737878 0.20997916666666669 0.23466666666666666 34261.700000000004 28870.550000000003 173.50000000000003 1690.4033298403276 191.53571428571431 2044.6990616750675 42.500000000000007
decision_type=2 2 2 2 2 2 2 2 2 2 2 2 2 2 2 2 2 2 2 2 2 2 2 2 2 2 2 2 2 2
left_child=1 -1 -2 4 -3 -4 -7 8 13 -10 12 -12 -11 14 15 -8 -16 20 21 27 -15 -19 -23 24 25 26 -22 28 -20 -29
right_child=2 3 5 -5 -6 6 7 -9 9 10 11 -13 -14 17 16 -17 -18 18 19 -21 23 22 -24 -25 -26 -27 -28 29 -30 -31
leaf_value=-3.0653456341136587 -0.53145526448885605 -1.4520335693359376 0.38946526968165451 -0.96292084388434884 -2.0376699328422547 -0.17205706816166641 -0.44509760081768041 -0.1638103825242623 -0.10781545528343746 0.016774644520547655 0.16172424841539138 -0.28004313142597675 0.30397964234239072 -0.31779229328036313 0.39569018972771514 -0.037937804710652147 -0.11790529035386586 0.42075190544883551 -0.18099467375626166 -0.42020978615168603 0.3192599455970857 -0.093979908227920531 0.17265159677106903 -0.12056439885393132 0.2618908818256212 -0.21065502543198433 0.086607015868351414 0.14794955171219415 0.34076099232770507 -0.20008210948660593
leaf_weight=22 24 25 38 20 24 43 30 46 35 45 112 25 232 20 28 56 21 37 48 31 90 85 227 43 292 38 407 49 64 119
leaf_count=22 24 25 38 20 24 43 30 46 35 45 112 25 232 20 28 56 21 37 48 31 90 85 227 43 292 38 407 49 64 119
internal_value=0.0160639 -1.88902 0.0919338 -1.51396 -1.73888 0.0985509 0.0935781 0.0988176 0.104479 0.175093 0.19901 0.0811098 0.257322 0.0856624 -0.0509195 -0.17997 0.175578 0.0975582 0.0459177 -0.0529447 0.135853 0.134016 0.100012 0.146282 0.160157 0.104631 0.128737 -0.0122832 0.117151 -0.0985729
internal_weight=2376 91 2285 69 49 2261 2223 2180 2134 449 414 137 277 1685 135 86 49 1550 660 311 890 349 312 870 827 535 497 280 112 168
internal_count=2376 91 2285 69 49 2261 2223 2180 2134 449 414 137 277 1685 135 86 49 1550 660 311 890 349 312 870 827 535 497 280 112 168
is_linear=0
shrinkage=0.05


Tree=8
num_leaves=31
num_cat=0
split_feature=24 18 24 45 35 30 1 34 19 1 19 41 28 18 4 34 2 3 47 21 8 19 18 45 46 8 31 18 18 0
split_gain=123976 14493.6 3402.69 3146.7 1444.49 1805.55 1794.96 1645.89 1766.3 1546.49 1548.98 1331.98 1246.15 1481.85 1312.17 1150.9 2402.93 1470.58 1804.69 1112.49 1109.22 1095.56 1085.59 1545.57 1066.5 1060.16 1054.56 1562.71 1428.51 1033.88
threshold=162.96428571428575 105.50000000000001 178.17857142857144 2295.0457835812595 29482.000000000004 164.50000000000003 7.2915208333333341 30037.550000000003 181.50000000000003 7.6691250000000002 170.50000000000003 1299.6699410645563 191.51785714285717 189.50000000000003 687.57500000000016 27260.050000000003 0.93616666666666681 0.70712500000000011 25489.950000000001 10.519822558706958 0.22918749999999996 182.50000000000003 200.50000000000003 1613.178679227469 25951.850000000002 0.17877083333333332 226.50000000000003 182.50000000000003 202.50000000000003 0.28841666666666671
decision_type=2 2 2 2 2 2 2 2 2 2 2 2 2 2 2 2 2 2 2 2 2 2 2 2 2 2 2 2 2 2
left_child=1 -1 -2 -3 7 12 -7 8 11 21 -11 -4 13 24 -15 17 20 18 -10 -8 -17 -9 23 -13 -6 -14 27 -21 -28 -27
right_child=2 3 4 -5 5 6 19 9 15 10 -12 22 25 14 -16 16 -18 -19 -20 26 -22 -23 -24 -25 -26 29 28 -29 -30 -31
leaf_value=-2.912078432603316 -0.5048825045426687 -1.1054671135970524 0.35329818450487577 -1.7808476055369657 -0.1735141996414431 -0.45413505578041075 0.12959533375736915 0.3176958376639768 0.32418479770421982 0.54856742180529094 0.074498830999558174 -0.29124403493752815 -0.28580069208145142 0.55046594621137135 0.16421820776330101 0.053627129069339211 -0.32466515056788925 0.17758327348032973 -0.18882974326610566 0.11583601095174488 0.46407810557633644 0.77488386720418934 -0.20192523145904909 0.068322552260961608 0.19442964666695506 -0.25605585932731628 -0.052397327859332599 -0.25883043965396402 0.4102995357730172 0.13774806041270496
leaf_weight=22 24 35 26 34 31 25 95 38 24 21 96 34 25 43 45 93 40 806 60 38 20 20 65 247 54 20 69 104 22 100
leaf_count=22 24 35 26 34 31 25 95 38 24 21 96 34 25 43 45 93 40 806 60 38 20 20 65 247 54 20 69 104 22 100
internal_value=0.0152607 -1.79457 0.0873371 -1.43826 0.0936234 0.0321036 -0.0457429 0.119586 0.101695 0.26424 0.159588 0.00815588 0.118518 0.209134 0.352953 0.135058 0.00838091 0.156835 -0.0422542 -0.0146154 0.126273 0.475347 -0.0177797 0.0248163 0.0602384 0.0104046 -0.0734138 -0.158568 0.0594635 0.0721141
internal_weight=2376 91 2285 69 2261 671 353 1590 1415 175 117 372 318 173 88 1043 153 890 84 328 113 58 346 281 85 145 233 142 91 120
internal_count=2376 91 2285 69 2261 671 353 1590 1415 175 117 372 318 173 88 1043 153 890 84 328 113 58 346 281 85 145 233 142 91 120
is_linear=0
shrinkage=0.05


Tree=9
num_leaves=31
num_cat=0
split_feature=24 33 24 2 21 44 1 41 29 35 34 19 28 28 17 40 35 14 9 28 6 19 18 16 5 3 5 27 43 24
split_gain=111888 13106.9 3094.24 3009.4 1458.53 1373.18 1215.17 1142.42 1201.92 976.367 2059.84 1711.06 1179.8 1363.1 1050.35 1078.42 1033.9 1002.5 1382.69 1002.33 1338.89 1335.68 1053.05 1791.1 1518.06 1250.18 1163.37 1140.74 1026.49 998.462
threshold=162.96428571428575 18281.700000000004 180.07142857142858 0.8741458333333334 13.373748154037514 32333.067857142862 8.6195833333333347 1157.1576081885194 9.7943127262703289 29482.000000000004 30037.550000000003 181.50000000000003 187.26785714285717 188.41071428571431 177.50000000000003 31917.42142857143 30096.400000000005 2.5000000000000004 0.38514583333333335 191.62500000000003 0.28460416666666671 190.50000000000003 193.50000000000003 202.50000000000003 3.5564791666666671 0.72422916666666681 3.5635833333333338 220.50000000000003 36790.450000000004 193.32142857142858
decision_type=2 2 2 2 2 2 2 2 2 2 2 2 2 2 2 2 2 2 2 2 2 2 2 2 2 2 2 2 2 2
left_child=1 -1 -2 4 -3 6 7 -4 -9 10 11 -10 -11 -14 -12 -16 -15 18 -13 20 -18 -21 23 26 28 27 -23 -26 -24 -20
right_child=2 3 5 -5 -6 -7 -8 8 9 12 14 17 13 16 15 -17 19 -19 29 21 -22 22 24 -25 25 -27 -28 -29 -30 -31
leaf_value=-2.8004064105805897 -0.43021550877340914 -1.3024403522411983 0.37451659006041454 -0.85781297743320462 -1.8429705619812013 -0.19027997258790705 -0.24480517426004203 -0.16738545117943093 0.0050527297714025301 0.37565882664460404 -0.041667046433403382 0.15391059565383736 -0.32244616494728973 -0.1220626794237208 0.2784715546464378 0.659035870703784 0.028911643942936938 0.090581387268395819 0.59159455689437246 0.26284636080912921 0.29304025323339261 0.23944769689330347 -0.58257734583069876 0.42532388504062385 -0.29322117163854489 0.34736313531175256 -0.15475898038168423 0.17547993567727863 -0.12478325366973878 0.19924595490578684
leaf_weight=21 29 24 37 20 26 43 26 43 346 26 21 360 26 77 121 22 94 565 34 46 98 27 24 28 34 20 61 21 25 31
leaf_count=21 29 24 37 20 26 43 26 43 346 26 21 360 26 77 121 22 94 565 34 46 98 27 24 28 34 20 61 21 25 31
internal_value=0.0144977 -1.70484 0.0829703 -1.37617 -1.58352 0.0895671 0.0950047 0.0990445 0.0943038 0.0996444 0.121296 0.100768 0.0461392 0.0313931 0.28853 0.33702 0.0479693 0.134219 0.192232 0.0753594 0.163727 0.0160356 -0.0312698 0.077016 -0.132569 0.00883762 -0.0338092 -0.114263 -0.349009 0.404474
internal_weight=2376 91 2285 70 50 2256 2213 2187 2150 2107 1500 1336 607 581 164 143 555 990 425 478 192 286 240 116 124 75 88 55 49 65
internal_count=2376 91 2285 70 50 2256 2213 2187 2150 2107 1500 1336 607 581 164 143 555 990 425 478 192 286 240 116 124 75 88 55 49 65
is_linear=0
shrinkage=0.05


Tree=10
num_leaves=31
num_cat=0
split_feature=24 17 28 45 35 21 11 37 31 37 40 1 15 23 36 25 15 27 11 2 9 1 17 17 41 46 46 1 2 1
split_gain=112283 8533.73 5039.75 1554.6 1474.66 1529.92 2469.17 1508.66 2086.85 1982.83 1629.08 1675.3 1396 1342.73 1615.22 1341.62 1463.34 1271.09 1216.92 1446.33 1448.88 1306.49 1125.62 1101.84 1135.75 1598.73 977.976 1042.96 1561.69 1531.72
threshold=149.28571428571431 112.50000000000001 166.96428571428575 2312.9277393352254 20011.300000000003 8.4880850357633726 2015.5000000000002 1490.1345263964238 219.50000000000003 1682.9841069542197 25682.907142857148 8.0163958333333358 270.50000000000006 200.50000000000003 22426.107142857141 12.957347486849597 295.50000000000006 236.50000000000003 2017.5000000000002 0.8741458333333334 0.3003541666666667 8.3484375000000011 198.50000000000003 217.50000000000003 1818.4408917945655 19801.100000000002 28178.800000000007 7.7027083333333346 0.85960416666666672 7.9791041666666667
decision_type=2 2 2 2 2 2 2 2 2 2 2 2 2 2 2 2 2 2 2 2 2 2 2 2 2 2 2 2 2 2
left_child=1 -1 -2 -3 -4 6 -6 8 13 12 11 -10 -9 -7 -15 16 22 18 19 -11 -21 -22 -8 24 25 -20 27 28 -26 -29
right_child=2 3 4 -5 5 7 15 9 10 17 -12 -13 -14 14 -16 -17 -18 -19 23 20 21 -23 -24 -25 26 -27 -28 29 -30 -31
leaf_value=-2.6371179041655171 -0.65748449054857094 -1.1564466022309803 -0.15010358764700693 -1.692495484101145 -0.40635727667494825 0.59708188632503156 0.13487336590493981 -0.139180345792662 0.34502126742964206 0.47633592311073758 -0.29336457686691453 -0.10044468610714644 0.10142005192606073 0.4949827669019049 0.13460997674825056 0.31855324686450115 -0.23805807294057951 -0.22219643314679463 -0.058463506485734666 0.4847173563365279 0.09559965490113731 0.3550032856576662 -0.20934458347658316 0.35446546145023838 -0.23109161118045451 0.3667520064239701 -0.3198723103106022 -0.11652928159556575 0.20521811072496657 0.079653629895100109
leaf_weight=23 24 21 73 38 38 32 114 165 46 34 29 39 95 44 106 34 56 30 35 29 480 54 30 31 24 60 20 179 141 224
leaf_count=23 24 21 73 38 38 32 114 165 46 34 29 39 95 44 106 34 56 30 35 29 480 54 30 31 24 60 20 179 141 224
internal_value=-0.00255525 -1.82017 0.063219 -1.5017 0.0709339 0.0783732 -0.032525 0.0942742 0.197975 0.0751016 0.0302286 0.140631 -0.0512687 0.303047 0.240319 0.0281828 -0.0211801 0.0996029 0.106967 0.159649 0.140524 0.121831 0.0631613 0.0629175 0.0496847 0.210094 0.0237683 0.0358684 0.141755 -0.00748469
internal_weight=2348 82 2266 59 2242 2169 272 1897 296 1601 114 85 260 182 150 234 200 1341 1311 597 563 534 144 714 683 95 588 568 165 403
internal_count=2348 82 2266 59 2242 2169 272 1897 296 1601 114 85 260 182 150 234 200 1341 1311 597 563 534 144 714 683 95 588 568 165 403
is_linear=0
shrinkage=0.05


Tree=11
num_leaves=31
num_cat=0
split_feature=23 18 30 14 35 21 11 10 3 33 36 35 42 28 6 31 36 37 7 40 17 3 10 28 25 30 28 25 35 26
split_gain=101338 7046.67 6031.19 1624.05 1312.7 1396.07 2228.42 1576.38 1844.78 1424.51 1290.64 1282.59 1673.82 2211.5 1631.68 1171.9 1136.2 1071.9 1108.77 1020.43 1411.48 1450.3 1035.56 975.31 1563.81 1403.77 2080.51 2369.74 1902.26 1732.58
threshold=166.50000000000003 101.50000000000001 141.50000000000003 2.5000000000000004 20011.300000000003 8.4880850357633726 2015.5000000000002 7.1437500000000007 0.73089583333333352 19311.250000000004 21320.478571428575 22143.150000000005 26736.550000000003 193.19642857142858 0.30012500000000003 219.50000000000003 20961.800000000007 2100.3609340907733 0.18606249999999999 32010.892857142859 188.50000000000003 0.71922916666666681 8.4729166666666682 193.37500000000003 15.342338606223676 162.50000000000003 189.30357142857147 9.7840696362481765 22143.150000000005 174.50000000000003
decision_type=2 2 2 2 2 2 2 2 2 2 2 2 2 2 2 2 2 2 2 2 2 2 2 2 2 2 2 2 2 2
left_child=1 -1 -2 -3 -4 6 -6 8 17 -9 16 -8 13 14 15 -13 -11 18 -7 23 21 -21 -22 25 -25 28 -27 -28 -12 -30
right_child=2 3 4 -5 5 7 11 9 -10 10 19 12 -14 -15 -16 -17 -18 -19 -20 20 22 -23 -24 24 -26 26 27 -29 29 -31
leaf_value=-2.5574252809797016 -0.63417352803291815 -1.1840482316017151 -0.14198244336164662 -1.7218989804387093 -0.38603941500186922 0.13690360430628062 0.32632652093325892 -0.3225026163187894 0.59896026223897936 0.068609817969528114 -0.19345634356141092 0.30776346404923172 0.1811093773962795 -0.41250391119921748 -0.36587674859024233 -0.11186934635043144 0.55267283607412265 -0.049952140860259536 0.55912099726822073 0.071174331648009168 0.18164595315089593 -0.46035716696219009 -0.15569344639778138 0.076045669805718946 -0.14517482040287222 -0.23919262112333228 0.48385200599829359 0.06424607840375704 0.230089681785454 -0.2069645643234253
leaf_weight=21 31 25 72 32 38 48 31 22 30 22 32 41 69 44 21 28 27 40 23 21 65 33 35 356 103 52 36 515 411 24
leaf_count=21 31 25 72 32 38 48 31 22 30 22 32 41 69 44 21 28 27 40 23 21 65 33 35 356 103 52 36 515 411 24
internal_value=-0.00242748 -1.77446 0.0584617 -1.486 0.0680516 0.0750301 -0.0308987 0.0902347 0.251077 0.0773049 0.0823833 0.0267737 -0.0189708 -0.121997 0.0200283 0.137478 0.335338 0.157055 0.273678 0.0750186 -0.0476585 -0.25365 0.0635772 0.0873746 0.0264036 0.113529 0.06313 0.0916613 0.178606 0.205976
internal_weight=2348 78 2270 57 2239 2167 272 1895 141 1754 1732 234 203 134 90 69 49 111 71 1683 154 54 100 1529 459 1070 603 551 467 435
internal_count=2348 78 2270 57 2239 2167 272 1895 141 1754 1732 234 203 134 90 69 49 111 71 1683 154 54 100 1529 459 1070 603 551 467 435
is_linear=0
shrinkage=0.05


Tree=12
num_leaves=31
num_cat=0
split_feature=24 17 30 45 35 21 35 17 37 3 30 46 37 25 16 14 12 6 23 13 44 43 1 47 1 9 35 16 33 38
split_gain=91513.1 7108.07 4313.21 1330.77 1184.72 1261.61 1491.89 1550.94 1345.91 2088.72 2264.31 2369.69 1761.57 1538.42 1315.96 1226 1166.8 1050.53 1023.71 1053.15 1246.82 1182.65 1021.47 1598.05 1224.59 1451.1 1548.51 2137.64 2046.51 1868.84
threshold=149.28571428571431 112.50000000000001 141.50000000000003 2312.9277393352254 20011.300000000003 8.772250620701147 21412.050000000007 194.50000000000003 1490.1345263964238 0.7152291666666668 163.50000000000003 20725.050000000003 1682.9841069542197 12.640528239482844 191.50000000000003 1.0000000180025095e-35 8.5000000000000018 0.25227083333333333 198.50000000000003 29.500000000000004 21851.525000000005 33632.100000000006 8.0026875000000022 25899.700000000001 7.8332500000000014 0.33479166666666671 30233.200000000004 190.50000000000003 31037.600000000002 28344.750000000004
decision_type=2 2 2 2 2 2 2 2 2 2 2 2 2 2 2 2 2 2 2 2 2 2 2 2 2 2 2 2 2 2
left_child=1 -1 -2 -3 -4 6 -6 15 9 14 17 13 16 -12 -7 -8 -10 -11 -14 20 -20 -21 24 -24 25 -22 29 28 -28 -27
right_child=2 3 4 -5 5 8 7 -9 12 10 11 -13 18 -15 -16 -17 -18 -19 19 21 22 -23 23 -25 -26 26 27 -29 -30 -31
leaf_value=-2.3888110782789149 -0.57110837742134379 -1.0331333887009393 -0.13488331913120219 -1.5290930980130248 0.33255631625652315 0.28338231429457666 -0.25503423851111839 -0.19873380190447759 -0.16223459624783781 0.35575866181817323 0.49240942119427444 -0.097377020445736984 0.35509045323512206 0.07554212102764532 -0.20243061954236549 0.10259688769777615 0.053004358685755919 0.782823042323192 0.36067840158939363 0.11633090706248034 -0.043942193213034664 0.57059453764687418 -0.2189732775092125 0.14673845774031563 -0.064494588038250186 0.15729601438517221 -0.10698993810585566 -0.26641612433372658 0.42635578497036086 0.58082450484075865
leaf_weight=23 27 21 72 38 27 20 29 114 123 36 53 55 36 38 46 138 129 24 37 38 169 23 32 449 238 163 35 47 37 31
leaf_count=23 27 21 72 38 27 20 29 114 123 36 53 55 36 38 46 138 129 24 37 38 169 23 32 449 238 163 35 47 37 31
internal_value=-0.00230611 -1.64322 0.0570738 -1.35257 0.064649 0.0712786 -0.0224489 -0.0565597 0.0868074 0.189572 0.267998 0.16173 0.0691944 0.318333 -0.0552146 0.0404933 -0.0520528 0.526584 0.0920815 0.0847926 0.0747992 0.287611 0.0659919 0.122408 0.0283025 0.0741235 0.137871 -0.0041264 0.167091 0.224973
internal_weight=2348 82 2266 59 2239 2167 308 281 1859 272 206 146 1587 91 66 167 252 60 1335 1299 1238 61 1201 481 720 482 313 119 72 194
internal_count=2348 82 2266 59 2239 2167 308 281 1859 272 206 146 1587 91 66 167 252 60 1335 1299 1238 61 1201 481 720 482 313 119 72 194
is_linear=0
shrinkage=0.05


Tree=13
num_leaves=31
num_cat=0
split_feature=23 18 28 35 21 10 21 37 35 11 20 25 33 41 35 4 4 42 37 17 8 1 24 2 10 18 6 10 40 17
split_gain=82598 5863.95 4742.02 1016.27 1141.8 1623.75 1898.35 1657.02 1341.05 1758.23 1246.14 1327.28 1217.6 1047.91 1327.55 1743.64 1199.84 1045.85 1282.47 1628.01 1380.36 1350.81 1179.58 1179.21 1202.32 1126.96 1150.83 1297.15 1068.23 1061.46
threshold=166.50000000000003 101.50000000000001 176.32142857142858 20011.300000000003 8.772250620701147 7.085416666666668 11.358863590302922 2508.3323479220571 21412.050000000007 2015.5000000000002 192.50000000000003 12.653128002418541 19311.250000000004 1510.7905108874877 27084.100000000002 661.08333333333348 642.86250000000007 19430.500000000004 1861.1368868921697 173.50000000000003 0.17079166666666667 7.4626666666666663 196.75000000000003 0.96254166666666674 8.0062500000000032 191.50000000000003 0.24927083333333333 8.4979166666666686 26960.560714285719 188.50000000000003
decision_type=2 2 2 2 2 2 2 2 2 2 2 2 2 2 2 2 2 2 2 2 2 2 2 2 2 2 2 2 2 2
left_child=1 -1 -2 -4 8 6 -6 -8 -5 -10 -11 -12 -7 14 15 16 -14 23 19 -19 -21 -22 25 -15 -25 28 -27 -28 29 -23
right_child=2 -3 3 4 5 12 7 -9 9 10 11 -13 13 17 -16 -17 -18 18 -20 20 21 22 -24 24 -26 26 27 -29 -30 -31
leaf_value=-2.3162542978922529 -0.4800652040577516 -1.3388701002848777 -0.12354748933248116 0.31592849919365512 0.59322844175621869 -0.30684268190747216 0.0088740690687640778 0.53331511534750464 -0.35555668487781433 0.10338823541067542 -0.2284223750371624 0.17091740995113339 0.38705301186577845 0.2695386208721206 -0.19702654510736467 0.63829653876955095 0.073733725644648071 0.38094177842140198 0.079152020384214428 -0.35144227791045396 -0.29490300338715314 0.023364125830786571 -0.32997083476056227 0.29671973291445863 -0.16346772862365469 -0.22838475921174936 0.17431425659945518 -0.24859204852581024 -0.019565152092413468 0.40927828179330245
leaf_weight=21 41 57 71 27 32 21 61 20 41 130 81 28 44 117 20 23 100 23 950 35 40 28 23 22 40 57 66 25 55 49
leaf_count=21 41 57 71 27 32 21 61 20 41 130 81 28 44 117 20 23 100 23 950 35 40 28 23 22 40 57 66 25 55 49
internal_value=-0.0021908 -1.60201 0.052781 0.0625821 0.068706 0.0835177 0.267176 0.138366 -0.0205987 -0.0530496 -0.00115504 -0.12584 0.0715767 0.076205 0.187936 0.234039 0.16947 0.0625491 0.0475018 -0.0274801 -0.0523311 -0.0218096 0.0142423 0.176118 -0.000175404 0.042517 -0.0522162 0.0581312 0.148733 0.268946
internal_weight=2348 78 2270 2229 2158 1851 113 81 307 280 239 109 1738 1717 187 167 144 1530 1351 401 378 343 303 179 62 280 148 91 132 77
internal_count=2348 78 2270 2229 2158 1851 113 81 307 280 239 109 1738 1717 187 167 144 1530 1351 401 378 343 303 179 62 280 148 91 132 77
is_linear=0
shrinkage=0.05


Tree=14
num_leaves=31
num_cat=0
split_feature=24 19 30 35 43 21 42 24 35 33 20 46 5 5 11 7 23 29 29 28 31 14 9 18 9 13 17 28 3 3
split_gain=74607.4 6129.06 3552.28 965.44 1109.74 1267.89 1437.91 1288.55 1558.01 1283.37 1118.18 1053.25 1024.48 981.331 968.058 912.458 2362.2 833.316 911.171 829.803 794.415 757.253 756.322 1704.57 1115.54 879.957 817.678 796.193 1569.11 1502.28
threshold=149.28571428571431 105.50000000000001 141.50000000000003 20011.300000000003 24711.000000000004 8.654751968253704 26736.550000000003 191.82142857142858 22803.800000000003 19640.600000000002 179.07142857142858 20802.550000000007 3.9691458333333336 3.8220208333333336 2014.5000000000002 0.12454166666666666 210.50000000000003 12.15546337336133 14.268842547105978 192.16071428571431 205.50000000000003 2.5000000000000004 0.3013541666666667 197.50000000000003 0.31335416666666671 17.500000000000004 178.50000000000003 193.37500000000003 0.71318750000000009 0.70647916666666677
decision_type=2 2 2 2 2 2 2 2 2 2 2 2 2 2 2 2 2 2 2 2 2 2 2 2 2 2 2 2 2 2
left_child=1 -1 -2 17 12 6 7 11 -9 -7 -11 -6 -5 -13 -14 16 -12 -4 -19 -8 -17 -3 23 25 26 -22 -24 -26 29 -29
right_child=2 21 3 4 5 9 19 8 -10 10 15 13 14 -15 -16 20 -18 18 -20 -21 22 -23 24 -25 27 -27 -28 28 -30 -31
leaf_value=-1.9973132568247178 -0.51854969933629036 -0.90398455790498033 0.13472372537309474 0.51321827854428981 -0.22864012539386752 -0.30182108807822933 -0.06891821311606515 0.040024778048197429 -0.39776517084193608 0.43677849656059631 -0.47573813578257201 -0.045999449418741283 -0.14375742059946059 0.3720909450054169 0.19662782941746901 -0.19263701510650141 0.18611173390277796 -0.40882359951734543 0.026868187785148625 0.26577209615270081 -0.059192599666615331 -1.3025624188093039 0.17655742452258158 0.50130883722620856 0.10782094552254162 0.26286792270839215 -0.17859618323789517 -0.070914077566516007 -0.021271203774587383 0.35774298692742984
leaf_weight=34 27 22 22 21 30 23 31 30 63 21 26 32 25 25 127 27 28 30 20 46 48 26 21 34 958 38 71 31 351 60
leaf_count=34 27 22 22 21 30 23 31 30 63 21 26 32 25 25 127 27 28 30 20 46 48 26 21 34 958 38 71 31 351 60
internal_value=-0.00208126 -1.48369 0.051534 0.0584087 0.0643934 0.0538541 -0.0497989 -0.127152 -0.256543 0.0691902 0.0741687 0.0111619 0.185869 0.137374 0.140643 0.0696709 -0.132557 -0.121714 -0.234547 0.131027 0.0763337 -1.11988 0.0808388 0.201602 0.0711259 0.0831132 -0.0975285 0.0822089 0.0266969 0.211717
internal_weight=2348 82 2266 2239 2167 1994 257 180 93 1737 1714 87 173 57 152 1693 54 72 50 77 1639 48 1612 120 1492 86 92 1400 442 91
internal_count=2348 82 2266 2239 2167 1994 257 180 93 1737 1714 87 173 57 152 1693 54 72 50 77 1639 48 1612 120 1492 86 92 1400 442 91
is_linear=0
shrinkage=0.05


Tree=15
num_leaves=31
num_cat=0
split_feature=22 40 24 36 45 18 20 41 28 3 10 32 19 29 31 9 26 21 25 9 23 25 21 27 24 9 10 23 20 13
split_gain=71468.4 6049.81 2326.84 1920.22 1461.36 1350.52 1331.67 1043.38 1043.21 880.644 1015.99 907.951 1249.56 873.139 1059.61 1353.11 1414.32 1289.97 1495.26 1917.57 1145.52 1089.66 1013.43 1125.01 1186.7 1445.37 1236.54 1381.87 1294.78 1210.79
threshold=141.50000000000003 21298.500000000004 178.17857142857144 21320.478571428575 2312.9277393352254 105.50000000000001 186.50000000000003 1157.1576081885194 192.69642857142858 0.7335208333333334 7.1437500000000007 30625.950000000001 184.50000000000003 10.069163001067006 211.50000000000003 0.35129166666666672 167.50000000000003 8.654751968253704 9.7840696362481765 0.35827083333333337 198.50000000000003 12.653128002418541 9.3706736048981707 211.50000000000003 186.82142857142858 0.40658333333333335 8.9895833333333339 203.50000000000003 188.21428571428575 9.5000000000000018
decision_type=2 2 2 2 2 2 2 2 2 2 2 2 2 2 2 2 2 2 2 2 2 2 2 2 2 2 2 2 2 2
left_child=1 5 -2 6 -3 -1 -4 -5 -8 13 -11 -12 -13 -9 15 16 -15 21 19 -19 -20 -16 -22 -24 -25 26 27 28 -26 -27
right_child=2 4 3 7 -6 -7 8 9 -10 10 11 12 -14 14 17 -17 -18 18 20 -21 22 -23 23 24 25 29 -28 -29 -30 -31
leaf_value=-2.0533926668621247 -0.41276196035055018 -0.78564999262905788 0.018309496768883295 0.31369549967348576 -1.3104870563461668 -1.4863371235983713 0.68938509722550712 -0.16638103440040497 0.25029860225416001 0.30139985673484349 -0.0028850560189870303 0.11106508611923172 -0.34853820037469269 0.10847936274581833 -0.15112956463098526 0.0597189974315573 0.5248996792869135 0.058655270910821858 0.35938907284890453 0.63674833384843976 0.2623992110788822 0.14869866065680981 -0.053891019241447437 0.37001387726876045 0.083421004084604122 0.14172273466120597 0.30699038589900396 0.044058878124648204 0.58972286633823223 -0.29662305599451066
leaf_weight=21 26 36 28 38 21 21 24 41 31 21 189 21 50 38 125 103 44 32 31 26 55 40 243 31 28 23 53 881 23 50
leaf_count=21 26 36 28 38 21 21 24 41 31 21 189 21 50 38 125 103 44 32 31 26 55 40 243 31 28 23 53 881 23 50
internal_value=0.000817041 -1.31452 0.0575573 0.0629466 -0.979011 -1.76986 0.299002 0.0539838 0.4419 0.0493893 -0.0331332 -0.0601531 -0.212599 0.0618096 0.0669333 0.180372 0.331924 0.0541446 0.0689665 0.3178 0.0587886 -0.0784439 0.05207 0.0433853 0.0650915 0.0561571 0.0720668 0.0587074 0.311753 -0.158514
internal_weight=2394 99 2295 2269 57 42 83 2186 55 2148 281 260 71 1867 1826 185 82 1641 1476 58 1418 165 1387 1332 1089 1058 985 932 51 73
internal_count=2394 99 2295 2269 57 42 83 2186 55 2148 281 260 71 1867 1826 185 82 1641 1476 58 1418 165 1387 1332 1089 1058 985 932 51 73
is_linear=0
shrinkage=0.05


Tree=16
num_leaves=31
num_cat=0
split_feature=22 33 14 24 36 20 41 28 3 10 40 44 29 21 28 28 1 29 3 7 33 39 21 23 20 26 24 21 22 6
split_gain=64500.2 5628.81 2529.52 2099.98 1733 1201.83 941.65 941.494 794.781 916.933 847.445 991.278 1079.56 946.188 1185.86 1908.3 1281.72 1044.09 1633.77 1650.88 1024.83 1205.85 1008.11 969.159 954.999 1225.61 851.287 1369.72 1252.93 1460.58
threshold=141.50000000000003 18281.700000000004 1.5000000000000002 178.17857142857144 21320.478571428575 186.50000000000003 1157.1576081885194 192.69642857142858 0.7335208333333334 7.1437500000000007 21454.150000000005 21672.90178571429 10.069163001067006 8.654751968253704 190.73214285714289 191.30357142857147 7.8575625000000011 11.499827106396983 0.72085416666666668 0.17381249999999998 29267.850000000002 25482.700000000001 9.3706736048981707 198.50000000000003 192.50000000000003 178.50000000000003 185.82142857142858 14.246135649796067 162.50000000000003 0.27777083333333336
decision_type=2 2 2 2 2 2 2 2 2 2 2 2 2 2 2 2 2 2 2 2 2 2 2 2 2 2 2 2 2 2
left_child=1 -1 -3 -2 5 -5 -6 -7 10 -10 -8 -12 -13 14 -14 -16 -17 18 24 -20 21 -18 -19 -24 -15 -26 27 -25 29 -28
right_child=3 2 -4 4 6 7 8 -9 9 -11 11 12 13 17 15 16 20 22 19 -21 -22 -23 23 26 25 -27 28 -29 -30 -31
leaf_value=-1.9754032793499174 -0.39212386608123784 -0.61286360634409864 -1.237304082865065 0.017394019450460162 0.29801072113608063 0.65491584315896034 -0.20946144441078449 0.23778367448718318 0.28632986495892204 -0.057145490546066026 0.39656250260092996 -0.20131438775704458 0.19317291818913962 0.31412273282590125 -0.5493589037940616 0.15885027422770567 -0.047594859557492396 0.25566559087372193 0.67253700679746176 0.16240208779062545 0.14046071134507657 -0.51590854238580774 0.33674548904101059 -0.020487532267967859 -0.35444975515658206 0.14425180043492999 0.022605122734860678 0.50332893041464 0.05796653583931162 -0.32467210025837029
leaf_weight=21 26 23 55 28 38 24 29 31 21 260 22 39 42 23 21 51 28 66 29 35 20 27 30 24 22 28 82 26 1175 48
leaf_count=21 26 23 55 28 38 24 29 31 21 260 22 39 42 23 21 51 28 66 29 35 20 27 30 24 22 28 82 26 1175 48
internal_value=0.000776188 -1.2488 -1.05317 0.0546794 0.0597992 0.284052 0.0512846 0.419805 0.0469198 -0.0314765 0.0587192 0.0629505 0.058909 0.0646201 -0.0411369 -0.108083 -0.0345366 0.0772071 0.209151 0.393557 -0.16604 -0.277494 0.0647493 0.0556514 0.0474792 -0.0751769 0.049428 0.251897 0.0416705 -0.10562
internal_weight=2394 99 78 2295 2269 83 2186 55 2148 281 1867 1838 1816 1777 189 147 126 1588 137 64 75 55 1451 1385 73 50 1355 50 1305 130
internal_count=2394 99 78 2295 2269 83 2186 55 2148 281 1867 1838 1816 1777 189 147 126 1588 137 64 75 55 1451 1385 73 50 1355 50 1305 130
is_linear=0
shrinkage=0.05


Tree=17
num_leaves=31
num_cat=0
split_feature=22 40 17 14 3 39 17 34 28 34 17 18 5 39 10 31 39 8 17 45 38 22 19 9 41 21 35 7 28 3
split_gain=58211.4 5187.85 1952.24 1856.96 1504.18 1384.21 1168.83 1260.42 1275.63 1091.82 1086.38 919.156 908.869 987.728 988.826 907.358 798.293 901.995 743.25 855.111 1817.74 1330.82 1015.5 1045.79 1123.02 1150.61 1453.98 1138.44 933.132 1032.97
threshold=141.50000000000003 21298.500000000004 159.50000000000003 3.5000000000000004 0.74702083333333347 24423.850000000002 184.50000000000003 19793.600000000002 193.62500000000003 22410.950000000004 112.50000000000001 187.50000000000003 4.0055000000000005 23783.650000000005 7.9520833333333343 215.50000000000003 24778.900000000005 0.2106875 226.50000000000003 2316.6444602095598 29913.150000000005 188.50000000000003 217.50000000000003 0.29168749999999999 2104.05024476883 20.474720706576914 22626.100000000002 0.12454166666666666 194.12500000000003 0.71589583333333351
decision_type=2 2 2 2 2 2 2 2 2 2 2 2 2 2 2 2 2 2 2 2 2 2 2 2 2 2 2 2 2 2
left_child=1 10 -2 -3 5 6 15 -8 12 11 -1 -10 -9 14 -14 -4 17 -7 19 20 21 22 23 -18 27 26 -26 -25 29 -28
right_child=2 3 4 -5 -6 16 7 8 9 -11 -12 -13 13 -15 -16 -17 18 -19 -20 -21 -22 -23 -24 24 25 -27 28 -29 -30 -31
leaf_value=-1.8504751899025658 -0.387483494758606 -0.62341546770185241 0.17969273841658306 -1.1985430822372436 -0.364419195552667 0.070234719305126758 -0.1573057132586837 0.12422549256256649 0.04712305015751294 -0.063627849553906643 -1.3413088834285736 0.5000785447657109 0.52846647368537059 0.6717237228527666 0.092071514964103707 -0.1321271762726646 -0.18596680846065283 -0.328117358982563 0.35368930763565004 -0.0010340386291765623 0.54390478696674105 -0.24508883208036425 0.38121291009279401 -0.28901316022872925 -0.2438945394009352 0.51212465805666785 -0.063520879728783827 0.053718838890962323 0.35478135166214964 0.18298777546733619
leaf_weight=22 25 32 43 25 21 27 20 28 21 43 20 24 27 32 25 51 40 30 20 614 20 34 26 25 24 21 58 786 51 159
leaf_count=22 25 32 43 25 21 27 20 28 21 43 20 24 27 32 25 51 40 30 20 614 20 34 26 25 24 21 58 786 51 159
internal_value=0.000737378 -1.18636 0.0519454 -0.875664 0.056785 0.060718 0.158094 0.221151 0.258997 0.116539 -1.60802 0.288699 0.370927 0.453161 0.318661 0.0105138 0.0449164 -0.139424 0.0505114 0.0472479 0.0710783 0.0633524 0.072165 0.0652619 0.0742024 0.154651 0.128943 0.0431537 0.162331 0.117101
internal_weight=2394 99 2295 57 2270 2249 314 220 200 88 42 45 112 84 52 94 1935 57 1878 1858 1244 1224 1190 1164 1124 313 292 811 268 217
internal_count=2394 99 2295 57 2270 2249 314 220 200 88 42 45 112 84 52 94 1935 57 1878 1858 1244 1224 1190 1164 1124 313 292 811 268 217
is_linear=0
shrinkage=0.05


Tree=18
num_leaves=31
num_cat=0
split_feature=20 33 24 36 17 3 41 33 34 29 20 20 3 32 22 19 41 15 6 19 10 3 31 9 25 30 6 21 25 13
split_gain=52554.7 3841.24 3312.51 1511.8 1067.4 940.018 803.069 745.06 1124.7 898.951 810.534 789.848 1357.33 1102.11 1247.61 1937.27 1708.66 1681.42 1118.07 1743.7 1466.83 1036.99 1026.7 1109.35 1022.96 2209.28 1437.19 998.498 1070.81 1380.07
threshold=158.35714285714286 18281.700000000004 178.17857142857144 21320.478571428575 183.50000000000003 0.76772916666666668 1157.1576081885194 20882.750000000004 22897.500000000004 13.580935127314257 180.21428571428575 187.50000000000003 0.74116666666666675 22271.800000000003 161.50000000000003 198.50000000000003 2657.9018668811846 8.5000000000000018 0.2505 186.50000000000003 8.3895833333333361 0.72564583333333343 211.50000000000003 0.34968749999999998 11.402717847380709 169.50000000000003 0.29970833333333341 12.482368517614137 10.529524066246251 14.500000000000002
decision_type=2 2 2 2 2 2 2 2 2 2 2 2 2 2 2 2 2 2 2 2 2 2 2 2 2 2 2 2 2 2
left_child=1 -1 -2 4 -4 -3 -5 8 -8 -10 -9 12 -12 18 15 16 -15 -16 19 -13 21 -20 23 -19 25 26 -24 28 29 -27
right_child=2 5 3 6 -6 -7 7 10 9 -11 11 13 -14 14 17 -17 -18 22 20 -21 -22 -23 24 -25 -26 27 -28 -29 -30 -31
leaf_value=-1.7885831492287771 -0.42281887974288018 -0.79920169587793022 0.031341148900889584 0.27401330204386459 0.40201385319232941 -1.1771955810095134 -0.20705060312790532 0.36587072685360911 0.36319533977657559 -0.086542257308959966 0.0010169450914667498 -0.19020785770955539 -0.42396852910518651 -0.25402647316455845 0.38247088397804063 -0.55096575021743777 0.36601282149553299 0.32262205307682357 0.58337049479596315 0.19794882201058892 -0.059429078400135039 0.14947799273899623 -0.3321899074061615 0.038826316046632003 0.054893244577427572 -0.078530973332877063 0.12293033911423251 0.38062381872109008 -0.18414245270034102 0.3007050592610811
leaf_weight=21 37 29 31 38 52 38 70 20 20 25 310 42 20 25 38 22 20 66 40 93 20 21 82 72 956 49 22 21 47 47
leaf_count=21 37 29 31 38 52 38 70 20 20 25 310 42 20 25 38 22 20 66 40 93 20 21 82 72 956 49 22 21 47 47
internal_value=0.00070051 -1.19853 0.0464647 0.0541172 0.26357 -1.01359 0.0461645 0.0421336 -0.0816799 0.113341 0.0491374 0.0459905 -0.0247398 0.0598591 0.0443334 -0.166443 0.0215465 0.0544206 0.165305 0.077189 0.312164 0.433998 0.0452679 0.174555 0.0306915 -0.0556402 -0.235914 0.05868 0.0114016 0.107137
internal_weight=2394 88 2306 2269 83 67 2186 2148 115 45 2033 2013 330 1683 1467 67 45 1400 216 135 81 61 1362 138 1224 268 104 164 143 96
internal_count=2394 88 2306 2269 83 67 2186 2148 115 45 2033 2013 330 1683 1467 67 45 1400 216 135 81 61 1362 138 1224 268 104 164 143 96
is_linear=0
shrinkage=0.05


Tree=19
num_leaves=31
num_cat=0
split_feature=22 33 14 24 39 28 35 1 8 1 8 15 24 2 23 23 32 5 32 19 4 28 4 46 20 14 45 47 30 47
split_gain=47478.7 4201.13 2204.56 1621.45 1029.11 1075.58 1243.62 895.38 863.737 1550.81 2466.02 1461.27 1297.87 1828.49 1252.78 1519.38 1466.37 971.308 953.525 1626.57 1443.44 1783.4 1391.52 2020.86 972.232 931.124 1275.36 1104.05 1743.6 1116.06
threshold=141.50000000000003 18281.700000000004 1.5000000000000002 178.17857142857144 24423.850000000002 196.05357142857147 20011.300000000003 8.6195833333333347 0.24022916666666669 7.6352083333333338 0.24739583333333334 324.50000000000006 198.10714285714289 0.93616666666666681 216.50000000000003 221.50000000000003 31785.600000000002 3.9616458333333333 27982.600000000002 216.50000000000003 675.27083333333337 192.12500000000003 672.11041666666677 23626.850000000002 191.35714285714286 3.5000000000000004 2761.8291803034249 36710.30000000001 170.50000000000003 32907.30000000001
decision_type=2 2 2 2 2 2 2 2 2 2 2 2 2 2 2 2 2 2 2 2 2 2 2 2 2 2 2 2 2 2
left_child=1 -1 -3 -2 5 6 -5 8 12 10 -10 14 18 -14 16 -16 17 -11 19 20 -6 24 23 -20 -22 27 -27 29 -29 -24
right_child=3 2 -4 4 7 -7 -8 -9 9 11 -12 -13 13 -15 15 -17 -18 -19 22 -21 21 -23 25 -25 -26 26 -28 28 -30 -31
leaf_value=-1.6991539364769346 -0.34569742119369601 -0.49136352357657059 -1.074315570267764 -0.13486917205154897 0.064465704135117194 -0.21080863986696519 0.19518365311534691 -0.25361599973761123 -0.67100038658017702 -0.10891422960396975 -0.004525045177766255 0.35217978193842137 0.060639697459398539 -0.40477438494563106 -0.53199505756298704 0.036704404198605087 0.44043215513229372 0.17356448273691868 0.11065498962998391 0.52014573320098545 0.27089029369932233 0.4936594334054501 -0.15672628117802864 -0.46686564837441297 -0.12593084399042459 0.14596727310128929 -0.16993310646050508 -0.19273704387370713 0.25857070363484896 0.11161946785724282
leaf_weight=21 26 23 55 32 637 21 264 26 23 94 35 29 51 36 24 23 20 45 28 23 33 47 48 33 29 284 36 121 26 201
leaf_count=21 26 23 55 32 637 21 264 26 23 94 35 29 51 36 24 23 20 45 28 23 33 47 48 33 29 284 36 121 26 201
internal_value=0.000665485 -1.07142 -0.902419 0.0469125 0.0514113 0.134971 0.159502 0.0378415 0.041776 -0.0372722 -0.268817 0.0198751 0.0559592 -0.131945 -0.0269057 -0.253695 0.0401327 -0.0174643 0.0665334 0.106004 0.093236 0.26137 0.0274687 -0.201774 0.0852804 0.0469992 0.110428 -0.0042568 -0.112914 0.0598902
internal_weight=2394 99 78 2295 2269 317 296 1952 1926 293 58 235 1633 87 206 47 159 139 1546 769 746 109 777 61 62 716 320 396 147 249
internal_count=2394 99 78 2295 2269 317 296 1952 1926 293 58 235 1633 87 206 47 159 139 1546 769 746 109 777 61 62 716 320 396 147 249
is_linear=0
shrinkage=0.05


end of trees

feature_importances:
Column_24=28
Column_28=27
Column_41=22
Column_20=21
Column_35=21
Column_1=20
Column_18=20
Column_3=18
Column_25=18
Column_17=17
Column_19=17
Column_21=17
Column_30=17
Column_4=16
Column_9=16
Column_22=16
Column_23=16
Column_10=15
Column_34=15
Column_8=14
Column_2=13
Column_29=13
Column_33=12
Column_6=11
Column_7=11
Column_15=11
Column_14=10
Column_31=10
Column_44=10
Column_45=10
Column_32=9
Column_40=9
Column_26=8
Column_27=8
Column_36=8
Column_37=8
Column_38=8
Column_5=7
Column_39=7
Column_46=7
Column_13=6
Column_16=6
Column_43=6
Column_0=5
Column_11=5
Column_42=5
Column_47=5
Column_12=1

parameters:
[boosting: gbdt]
[objective: regression]
[metric: l1]
[tree_learner: serial]
[device_type: cpu]
[data_sample_strategy: bagging]
[data: ]
[valid: ]
[num_iterations: 500]
[learning_rate: 0.05]
[num_leaves: 31]
[num_threads: 0]
[seed: 42]
[deterministic: 0]
[force_col_wise: 0]
[force_row_wise: 0]
[histogram_pool_size: -1]
[max_depth: -1]
[min_data_in_leaf: 20]
[min_sum_hessian_in_leaf: 0.001]
[bagging_fraction: 0.8]
[pos_bagging_fraction: 1]
[neg_bagging_fraction: 1]
[bagging_freq: 5]
[bagging_seed: 400]
[bagging_by_query: 0]
[feature_fraction: 0.8]
[feature_fraction_bynode: 1]
[feature_fraction_seed: 30056]
[extra_trees: 0]
[extra_seed: 12879]
[early_stopping_round: 0]
[early_stopping_min_delta: 0]
[first_metric_only: 0]
[max_delta_step: 0]
[lambda_l1: 0]
[lambda_l2: 0]
[linear_lambda: 0]
[min_gain_to_split: 0]
[drop_rate: 0.1]
[max_drop: 50]
[skip_drop: 0.5]
[xgboost_dart_mode: 0]
[uniform_drop: 0]
[drop_seed: 17869]
[top_rate: 0.2]
[other_rate: 0.1]
[min_data_per_group: 100]
[max_cat_threshold: 32]
[cat_l2: 10]
[cat_smooth: 10]
[max_cat_to_onehot: 4]
[top_k: 20]
[monotone_constraints: ]
[monotone_constraints_method: basic]
[monotone_penalty: 0]
[feature_contri: ]
[forcedsplits_filename: ]
[refit_decay_rate: 0.9]
[cegb_tradeoff: 1]
[cegb_penalty_split: 0]
[cegb_penalty_feature_lazy: ]
[cegb_penalty_feature_coupled: ]
[path_smooth: 0]
[interaction_constraints: ]
[verbosity: -1]
[saved_feature_importance_type: 0]
[use_quantized_grad: 0]
[num_grad_quant_bins: 4]
[quant_train_renew_leaf: 0]
[stochastic_rounding: 1]
[linear_tree: 0]
[max_bin: 255]
[max_bin_by_feature: ]
[min_data_in_bin: 3]
[bin_construct_sample_cnt: 200000]
[data_random_seed: 175]
[is_enable_sparse: 1]
[enable_bundle: 1]
[use_missing: 1]
[zero_as_missing: 0]
[feature_pre_filter: 1]
[pre_partition: 0]
[two_round: 0]
[header: 0]
[label_column: ]
[weight_column: ]
[group_column: ]
[ignore_column: ]
[categorical_feature: ]
[forcedbins_filename: ]
[precise_float_parser: 0]
[parser_config_file: ]
[objective_seed: 16083]
[num_class: 1]
[is_unbalance: 0]
[scale_pos_weight: 1]
[sigmoid: 1]
[boost_from_average: 1]
[reg_sqrt: 0]
[alpha: 0.9]
[fair_c: 1]
[poisson_max_delta_step: 0.7]
[tweedie_variance_power: 1.5]
[lambdarank_truncation_level: 30]
[lambdarank_norm: 1]
[label_gain: ]
[lambdarank_position_bias_regularization: 0]
[eval_at: ]
[multi_error_top_k: 1]
[auc_mu_weights: ]
[num_machines: 1]
[local_listen_port: 12400]
[time_out: 120]
[machine_list_filename: ]
[machines: ]
[gpu_platform_id: -1]
[gpu_device_id: -1]
[gpu_use_dp: 0]
[num_gpu: 1]

end of parameters

pandas_categorical:null
