tree
version=v4
num_class=1
num_tree_per_iteration=1
label_index=0
max_feature_idx=47
objective=regression
feature_names=Column_0 Column_1 Column_2 Column_3 Column_4 Column_5 Column_6 Column_7 Column_8 Column_9 Column_10 Column_11 Column_12 Column_13 Column_14 Column_15 Column_16 Column_17 Column_18 Column_19 Column_20 Column_21 Column_22 Column_23 Column_24 Column_25 Column_26 Column_27 Column_28 Column_29 Column_30 Column_31 Column_32 Column_33 Column_34 Column_35 Column_36 Column_37 Column_38 Column_39 Column_40 Column_41 Column_42 Column_43 Column_44 Column_45 Column_46 Column_47
feature_infos=[0.22412499999999999:0.87145833333333333] [4.1651666666666669:9.0553333333333317] [0.71083333333333332:0.97224999999999995] [0.68679166666666669:0.81541666666666668] [586.11250000000007:726.67916666666667] [2.9161666666666668:4.3062916666666666] [0.15195833333333331:0.40699999999999997] [0.093458333333333296:0.26729166666666659] [0.11175:0.33620833333333339] [0.25587500000000002:0.47899999999999998] [6.1583333333333341:10.262499999999999] [2014:2022] [1:12] [1:31] [0:6] [1:366] [78:247] [68:247] [67:247] [55:247] [87:207.85714285714286] [3.2513733362133173:26.409774525281236] [68:197] [111:247] [84.571428571428569:202.21428571428572] [5.8201053576059394:22.412834823715951] [67:188] [112:247] [76.5:199.10714285714286] [7.9834484864285979:19.336069866537002] [55:179] [112:247] [11670.5:42673.300000000003] [10768:42673.300000000003] [10768:42673.300000000003] [8408.2999999999993:42673.300000000003] [14194.571428571429:33985.099999999999] [457.93443853946388:4902.1459225236003] [10768:32707.900000000001] [17961.900000000001:42673.300000000003] [13711.678571428571:33478.750000000007] [695.898598500866:3689.6466656900134] [10768:30752.200000000001] [17961.900000000001:42673.300000000003] [12254.514285714287:32898.932142857142] [1013.3944368794588:3363.4574495874308] [8408.2999999999993:29197.5] [17961.900000000001:42673.300000000003]
tree_sizes=2591 2718 2696

Tree=0
num_leaves=31
num_cat=0
split_feature=20 28 15 0 41 37 46 10 34 7 29 0 7 24 17 22 37 37 19 7 7 42 25 31 4 11 29 1 26 33
split_gain=286839 13355.9 12470.4 3781.26 2137.56 1992.73 1650.09 1639.56 1633.88 1587.69 2149.77 2510.94 1543.36 1531.62 1528.13 1735.87 1655.38 1489.74 2039.8 1457.03 1519.96 1411.6 1621.4 1321.47 1205.6 1382.68 1068.48 1437.45 1047.38 1045.51
threshold=153.78571428571431 176.32142857142858 58.500000000000007 0.29297916666666673 1318.1732933265134 2508.3323479220571 26665.950000000001 7.5520833333333348 32093.100000000002 0.16327083333333334 14.654531410964253 0.29460416666666667 0.18102083333333333 188.67857142857147 198.50000000000003 184.50000000000003 2313.2584345659675 2401.6547633222258 186.50000000000003 0.15839583333333332 0.17802083333333332 27840.200000000001 15.705566996300361 226.50000000000003 696.29791666666677 2019.5000000000002 13.242523095653382 7.8169166666666667 166.50000000000003 31165.050000000003
decision_type=2 2 2 2 2 2 2 2 2 2 2 2 2 2 2 2 2 2 2 2 2 2 2 2 2 2 2 2 2 2
left_child=2 -2 -1 -4 -3 6 8 21 17 13 23 -12 -13 -9 15 16 26 -6 -19 -16 -21 22 -7 -11 25 28 29 -28 -15 -8
right_child=1 4 3 -5 5 7 14 9 -10 10 11 12 -14 24 19 -17 -18 18 -20 20 -22 -23 -24 -25 -26 -27 27 -29 -30 -31
leaf_value=185.58272002258582 188.7803515215767 189.91268498155495 186.50271996623235 187.32640411515769 189.71205065536043 190.03512735559781 189.42477876862921 190.1006366115802 189.96239736171472 190.03378055346329 189.35480327669464 190.184862803307 189.7302199499054 189.66909925924699 189.42571994748397 189.10480328371062 189.22610703975897 189.79914852195662 189.24271995575413 190.14496132379352 189.66150372985012 189.30848917449353 189.50513930686031 190.49771995046422 189.37593423251707 189.4673751189523 189.55271994836659 190.08371994372888 190.08396994910447 189.79253475577539
leaf_weight=20 38 143 22 38 1270 27 68 24 62 66 24 35 40 29 25 24 31 28 40 29 37 26 31 20 28 29 26 25 32 27
leaf_count=20 38 143 22 38 1270 27 68 24 62 66 24 35 40 29 25 24 31 28 40 29 37 26 31 20 28 29 26 25 32 27
internal_value=189.607 189.71 186.664 187.024 189.726 189.713 189.689 189.812 189.711 189.862 189.959 189.8 189.942 189.737 189.581 189.504 189.558 189.7 189.472 189.751 189.874 189.615 189.752 190.142 189.662 189.752 189.628 189.813 189.887 189.529
internal_weight=2364 2284 80 60 2246 2103 1692 411 1400 327 185 99 75 142 292 201 177 1338 68 91 66 84 58 86 118 90 146 51 61 95
internal_count=2364 2284 80 60 2246 2103 1692 411 1400 327 185 99 75 142 292 201 177 1338 68 91 66 84 58 86 118 90 146 51 61 95
is_linear=0
shrinkage=1


Tree=1
num_leaves=31
num_cat=0
split_feature=20 24 15 22 41 37 32 7 36 20 7 7 29 17 33 3 44 7 10 24 8 3 21 14 17 24 9 15 41 5
split_gain=258872 11882.2 11254.5 2359.59 1944.5 1843.09 1900.45 1873.01 1507.69 1741.33 1670.37 1974.26 2457.1 1451.07 1377.75 1444.86 1260.5 1250.28 1218.06 1181.18 1149.6 1135.18 1059.55 1149.8 2373.29 1404.2 1340.16 1709.74 2184.43 1809.45
threshold=153.78571428571431 178.17857142857144 58.500000000000007 112.50000000000001 1318.1732933265134 2508.3323479220571 31003.200000000001 0.15906249999999997 32706.192857142862 191.6428571428572 0.16347916666666668 0.18077083333333333 14.654531410964253 189.50000000000003 29311.050000000003 0.73377083333333348 30977.900000000005 0.17568749999999997 7.9979166666666677 193.75000000000003 0.19643749999999996 0.74391666666666689 19.192631703152244 2.5000000000000004 211.50000000000003 192.39285714285717 0.36322916666666671 204.50000000000003 1702.4413388440682 3.9005000000000005
decision_type=2 2 2 2 2 2 2 2 2 2 2 2 2 2 2 2 2 2 2 2 2 2 2 2 2 2 2 2 2 2
left_child=2 -2 -1 -4 -3 6 21 -8 9 14 20 18 -13 16 -7 -16 -9 -15 -12 -19 -11 22 23 24 25 -6 -25 28 -28 -30
right_child=1 4 3 -5 5 8 7 13 -10 10 11 12 -14 17 15 -17 -18 19 -20 -21 -22 -23 -24 26 -26 -27 27 -29 29 -31
leaf_value=-3.8241359615325927 -0.81749142748968939 0.2893307740585162 -2.8522470308386763 -2.2073373021306217 -0.00044963460780315467 0.21983954165875913 -0.23997083762112786 0.19269869029521944 -0.12027258498328074 -0.14821378199950508 0.38515933837741612 0.55942342877388007 -0.033283201999524059 0.38681620165705682 -0.2523058887038912 0.22778771518170837 -0.23708409305219935 0.23224173069876783 0.89237037904817496 -0.19820289547244707 0.26071254863020255 0.43284149864315991 -0.2595622377026649 0.20092806806948027 -0.28756606843398541 0.16059065799768799 -0.48613401273122198 0.14779078450689956 0.17570056546533452 -0.26158151189900108
leaf_weight=20 35 143 23 37 286 100 85 24 35 23 20 36 34 40 42 25 59 34 29 30 68 25 21 407 49 257 26 246 69 36
leaf_count=20 35 143 23 37 286 100 85 24 35 23 20 36 34 40 42 25 59 34 29 30 68 25 21 407 49 257 26 246 69 36
internal_value=-0.00123795 0.0966854 -2.79695 -2.45455 0.110912 0.0987974 0.0757296 -0.0453601 0.193644 0.222787 0.318615 0.441929 0.271537 0.0430994 0.102286 -0.0731665 -0.11281 0.167527 0.685345 0.0304708 0.157358 0.0988916 0.0929154 0.0982948 0.0456967 0.0757702 0.138012 0.0700887 -0.075825 0.0257753
internal_weight=2364 2284 80 60 2249 2106 1694 272 412 377 210 119 70 187 167 67 83 104 49 64 91 1422 1397 1376 592 543 784 377 131 105
internal_count=2364 2284 80 60 2249 2106 1694 272 412 377 210 119 70 187 167 67 83 104 49 64 91 1422 1397 1376 592 543 784 377 131 105
is_linear=0
shrinkage=0.05


Tree=2
num_leaves=31
num_cat=0
split_feature=20 28 3 46 23 20 7 7 15 13 8 7 7 15 42 30 38 6 43 1 18 25 16 20 39 36 24 9 23 31
split_gain=233632 10964.2 10402.9 1818.55 1746.83 1816.68 1638.42 1578.87 1514.29 1482.21 1462.84 1444.97 1835.8 1439.14 1325.43 2221.27 1542.79 1274.24 1900.69 1273.06 1719.79 1182.61 1170.08 1155.65 1769.99 1571.87 1480.34 1132.98 1234.64 1121.91
threshold=153.78571428571431 176.32142857142858 0.7863958333333334 27275.000000000004 226.50000000000003 197.07142857142858 0.18077083333333333 0.15885416666666666 88.500000000000014 26.500000000000004 0.24820833333333334 0.12454166666666666 0.13412499999999997 96.500000000000014 22629.500000000004 163.50000000000003 22882.150000000005 0.26979166666666671 31405.250000000004 8.2973541666666684 194.50000000000003 11.865662736271096 188.50000000000003 193.35714285714286 33956.750000000007 30914.935714285719 188.39285714285717 0.34539583333333335 207.50000000000003 220.50000000000003
decision_type=2 2 2 2 2 2 2 2 2 2 2 2 2 2 2 2 2 2 2 2 2 2 2 2 2 2 2 2 2 2
left_child=2 -2 8 4 5 11 13 10 -1 14 17 22 29 -6 16 -16 21 -7 -19 -14 27 -9 -3 24 25 -5 -26 -21 -29 -13
right_child=1 3 -4 23 6 7 -8 9 -10 -11 -12 12 19 -15 15 -17 -18 18 -20 20 -22 -23 -24 -25 26 -27 -28 28 -30 -31
leaf_value=-2.6065232413155695 -0.75036647068826778 0.68021415443647482 -3.5027947540283204 -0.10717571092503411 0.82337482372919713 -0.53706696263893894 0.079577991398187678 0.32953920328411562 -2.0665067869074205 0.38821713152256881 0.18783292571703594 -0.3001190634071827 0.11984915070672664 0.3099755273033411 0.17091113535257488 -0.32624697889078341 0.53703966528177272 0.27039104580879209 -0.3438917983542471 0.18174446637609176 0.098726453805623005 -0.04576116915007955 0.19683286860104532 0.13074818956599174 0.028378024165119444 0.44000236363638018 -0.41962567628533753 0.27469620227813724 0.7818605167667072 0.12177581087901042
leaf_weight=21 38 21 25 35 21 27 41 29 34 33 24 40 1313 39 39 53 20 20 34 28 73 76 31 70 28 21 54 20 30 26
leaf_count=21 38 21 25 35 21 27 41 29 34 33 24 40 1313 39 39 53 20 20 34 28 73 76 31 70 28 21 54 20 30 26
internal_value=-0.00117605 0.0918511 -2.6571 0.106101 0.120474 0.109904 0.323194 0.00768415 -2.27269 0.0760208 -0.155022 0.132842 0.124032 0.489665 0.0285439 -0.115495 0.134557 -0.256609 -0.11638 0.135661 0.27315 0.0578932 0.392045 -0.0347304 -0.118669 0.0980161 -0.266649 0.436392 0.578995 -0.133918
internal_weight=2364 2284 80 2246 2038 1937 101 355 55 250 105 1582 1530 60 217 92 125 81 54 1464 151 105 52 208 138 56 82 78 50 66
internal_count=2364 2284 80 2246 2038 1937 101 355 55 250 105 1582 1530 60 217 92 125 81 54 1464 151 105 52 208 138 56 82 78 50 66
is_linear=0
shrinkage=0.05


end of trees

feature_importances:
Column_7=12
Column_20=6
Column_15=5
Column_24=5
Column_37=4
Column_3=3
Column_17=3
Column_29=3
Column_41=3
Column_0=2
Column_1=2
Column_8=2
Column_9=2
Column_10=2
Column_22=2
Column_23=2
Column_25=2
Column_28=2
Column_31=2
Column_33=2
Column_36=2
Column_42=2
Column_46=2
Column_4=1
Column_5=1
Column_6=1
Column_11=1
Column_13=1
Column_14=1
Column_16=1
Column_18=1
Column_19=1
Column_21=1
Column_26=1
Column_30=1
Column_32=1
Column_34=1
Column_38=1
Column_39=1
Column_43=1
Column_44=1

parameters:
[boosting: gbdt]
[objective: regression]
[metric: l1]
[tree_learner: serial]
[device_type: cpu]
[data_sample_strategy: bagging]
[data: ]
[valid: ]
[num_iterations: 500]
[learning_rate: 0.05]
[num_leaves: 31]
[num_threads: 0]
[seed: 42]
[deterministic: 0]
[force_col_wise: 0]
[force_row_wise: 0]
[histogram_pool_size: -1]
[max_depth: -1]
[min_data_in_leaf: 20]
[min_sum_hessian_in_leaf: 0.001]
[bagging_fraction: 0.8]
[pos_bagging_fraction: 1]
[neg_bagging_fraction: 1]
[bagging_freq: 5]
[bagging_seed: 400]
[bagging_by_query: 0]
[feature_fraction: 0.8]
[feature_fraction_bynode: 1]
[feature_fraction_seed: 30056]
[extra_trees: 0]
[extra_seed: 12879]
[early_stopping_round: 0]
[early_stopping_min_delta: 0]
[first_metric_only: 0]
[max_delta_step: 0]
[lambda_l1: 0]
[lambda_l2: 0]
[linear_lambda: 0]
[min_gain_to_split: 0]
[drop_rate: 0.1]
[max_drop: 50]
[skip_drop: 0.5]
[xgboost_dart_mode: 0]
[uniform_drop: 0]
[drop_seed: 17869]
[top_rate: 0.2]
[other_rate: 0.1]
[min_data_per_group: 100]
[max_cat_threshold: 32]
[cat_l2: 10]
[cat_smooth: 10]
[max_cat_to_onehot: 4]
[top_k: 20]
[monotone_constraints: ]
[monotone_constraints_method: basic]
[monotone_penalty: 0]
[feature_contri: ]
[forcedsplits_filename: ]
[refit_decay_rate: 0.9]
[cegb_tradeoff: 1]
[cegb_penalty_split: 0]
[cegb_penalty_feature_lazy: ]
[cegb_penalty_feature_coupled: ]
[path_smooth: 0]
[interaction_constraints: ]
[verbosity: -1]
[saved_feature_importance_type: 0]
[use_quantized_grad: 0]
[num_grad_quant_bins: 4]
[quant_train_renew_leaf: 0]
[stochastic_rounding: 1]
[linear_tree: 0]
[max_bin: 255]
[max_bin_by_feature: ]
[min_data_in_bin: 3]
[bin_construct_sample_cnt: 200000]
[data_random_seed: 175]
[is_enable_sparse: 1]
[enable_bundle: 1]
[use_missing: 1]
[zero_as_missing: 0]
[feature_pre_filter: 1]
[pre_partition: 0]
[two_round: 0]
[header: 0]
[label_column: ]
[weight_column: ]
[group_column: ]
[ignore_column: ]
[categorical_feature: ]
[forcedbins_filename: ]
[precise_float_parser: 0]
[parser_config_file: ]
[objective_seed: 16083]
[num_class: 1]
[is_unbalance: 0]
[scale_pos_weight: 1]
[sigmoid: 1]
[boost_from_average: 1]
[reg_sqrt: 0]
[alpha: 0.9]
[fair_c: 1]
[poisson_max_delta_step: 0.7]
[tweedie_variance_power: 1.5]
[lambdarank_truncation_level: 30]
[lambdarank_norm: 1]
[label_gain: ]
[lambdarank_position_bias_regularization: 0]
[eval_at: ]
[multi_error_top_k: 1]
[auc_mu_weights: ]
[num_machines: 1]
[local_listen_port: 12400]
[time_out: 120]
[machine_list_filename: ]
[machines: ]
[gpu_platform_id: -1]
[gpu_device_id: -1]
[gpu_use_dp: 0]
[num_gpu: 1]

end of parameters

pandas_categorical:null
