tree
version=v4
num_class=1
num_tree_per_iteration=1
label_index=0
max_feature_idx=47
objective=regression
feature_names=Column_0 Column_1 Column_2 Column_3 Column_4 Column_5 Column_6 Column_7 Column_8 Column_9 Column_10 Column_11 Column_12 Column_13 Column_14 Column_15 Column_16 Column_17 Column_18 Column_19 Column_20 Column_21 Column_22 Column_23 Column_24 Column_25 Column_26 Column_27 Column_28 Column_29 Column_30 Column_31 Column_32 Column_33 Column_34 Column_35 Column_36 Column_37 Column_38 Column_39 Column_40 Column_41 Column_42 Column_43 Column_44 Column_45 Column_46 Column_47
feature_infos=[0.22412499999999999:0.87145833333333333] [4.1651666666666669:9.0553333333333317] [0.71083333333333332:0.97224999999999995] [0.68679166666666669:0.81541666666666668] [586.11250000000007:726.67916666666667] [2.9161666666666668:4.3062916666666666] [0.15195833333333331:0.40699999999999997] [0.093458333333333296:0.26729166666666659] [0.11175:0.33620833333333339] [0.25587500000000002:0.47899999999999998] [6.1583333333333341:10.262499999999999] [2014:2022] [1:12] [1:31] [0:6] [1:366] [78:247] [68:247] [67:247] [55:247] [87:207.85714285714286] [3.2513733362133173:26.409774525281236] [68:197] [111:247] [84.571428571428569:202.21428571428572] [5.8201053576059394:22.412834823715951] [67:188] [112:247] [76.5:199.10714285714286] [7.9834484864285979:19.336069866537002] [55:179] [112:247] [11670.5:42673.300000000003] [10768:42673.300000000003] [10768:42673.300000000003] [8408.2999999999993:42673.300000000003] [14194.571428571429:33985.099999999999] [457.93443853946388:4902.1459225236003] [10768:32707.900000000001] [17961.900000000001:42673.300000000003] [13711.678571428571:33478.750000000007] [695.898598500866:3689.6466656900134] [10768:30752.200000000001] [17961.900000000001:42673.300000000003] [12254.514285714287:32898.932142857142] [1013.3944368794588:3363.4574495874308] [8408.2999999999993:29197.5] [17961.900000000001:42673.300000000003]
tree_sizes=2604 2718 2710 2697 2719 2718 2706 2718 2712 2713

Tree=0
num_leaves=31
num_cat=0
split_feature=20 17 20 19 7 17 31 17 46 8 1 10 10 35 4 34 35 39 35 27 21 21 17 1 29 39 8 3 42 24
split_gain=279668 13893.9 13211.9 2375.13 1712.24 3283.25 2357.77 2452.1 1991.69 2054.45 2046.78 1913.64 2209.4 1771.91 1881.1 1745.05 1537.79 1980.96 1638.65 1492.19 1485.36 1407.19 1410.9 1341.32 1231.87 1230.72 1206.32 2832.23 1476.45 1230.88
threshold=150.50000000000003 120.00000000000001 173.14285714285717 123.50000000000001 0.19535416666666669 199.50000000000003 221.50000000000003 184.50000000000003 27110.250000000004 0.22314583333333332 8.2649791666666683 8.4145833333333346 8.1312500000000032 28763.950000000004 664.30000000000007 20907.350000000002 29342.900000000005 34626.950000000004 33697.700000000004 214.50000000000003 13.655628527321412 9.4679911048695562 190.50000000000003 7.9047916666666671 11.975918287433077 31454.600000000002 0.27216666666666672 0.71910416666666677 18625.650000000005 196.89285714285717
decision_type=2 2 2 2 2 2 2 2 2 2 2 2 2 2 2 2 2 2 2 2 2 2 2 2 2 2 2 2 2 2
left_child=1 -1 -2 -3 8 6 11 -8 10 16 26 12 20 14 24 -7 -10 18 -18 -11 21 -6 -23 -9 -12 -15 28 -28 -4 -30
right_child=2 3 4 -5 5 15 7 23 9 19 13 -13 -14 25 -16 -17 17 -19 -20 -21 -22 22 -24 -25 -26 -27 27 -29 29 -31
leaf_value=185.93039995172973 188.719659144872 186.90325709458688 189.64185525810973 187.61225177885669 190.12271869836732 190.1595665349499 189.9142093835778 190.75206653603362 189.30679625356416 190.25315348551118 189.94906652469788 189.65665836231815 190.40810101020654 189.14611414420531 189.96558004173775 189.65479761859643 189.33956652509221 189.87091268168933 189.85433925274006 189.68956652501578 190.21844584118406 189.86738910588525 189.33659033354618 190.24158265706032 189.55032234013595 189.63294888263184 190.05433925842959 189.31255040236059 189.89138944390729 189.7155986362103
leaf_weight=30 27 21 71 27 23 20 35 22 37 23 25 49 29 21 74 119 52 65 22 24 29 31 21 31 86 34 22 31 1152 109
leaf_count=30 27 21 71 27 23 20 35 22 37 23 25 49 29 21 74 119 52 65 22 24 29 31 21 31 86 34 22 31 1152 109
internal_value=189.719 186.775 189.819 187.302 189.832 189.925 190.027 190.239 189.812 189.672 189.831 189.924 190.022 189.696 189.77 189.727 189.593 189.67 189.493 189.965 189.915 189.797 189.653 190.453 189.64 189.447 189.854 189.62 189.864 189.876
internal_weight=2362 78 2284 48 2257 409 270 88 1848 223 1625 182 133 240 185 139 176 139 74 47 104 75 52 53 111 55 1385 53 1332 1261
internal_count=2362 78 2284 48 2257 409 270 88 1848 223 1625 182 133 240 185 139 176 139 74 47 104 75 52 53 111 55 1385 53 1332 1261
is_linear=0
shrinkage=1


Tree=1
num_leaves=31
num_cat=0
split_feature=20 32 20 19 44 32 37 37 21 7 17 4 44 8 29 46 7 22 5 13 13 36 15 36 7 15 25 10 15 30
split_gain=252400 14711.6 11923.7 3467.73 2231.77 2370.73 1587.65 2384.96 1858.03 1482.36 2204.16 2333.14 1666.03 1471.42 2973.45 2212.89 2322.53 2053.61 1794.79 1772.52 1729.42 2186.58 1612.12 1551.21 1642.34 1496.62 1965.95 1399.79 2526.11 1380.77
threshold=150.50000000000003 18923.700000000001 173.14285714285717 123.50000000000001 32250.146428571428 31928.200000000001 2708.2561465667054 2859.2667602652095 15.956037854662414 0.19535416666666669 199.50000000000003 692.43541666666681 21967.814285714288 0.21564583333333329 12.124082901225123 26816.150000000005 0.17731249999999996 185.50000000000003 3.5803541666666665 16.500000000000004 20.500000000000004 22287.207142857147 356.50000000000006 31663.064285714292 0.17464583333333333 261.50000000000006 11.324023848247274 8.4145833333333346 262.50000000000006 160.50000000000003
decision_type=2 2 2 2 2 2 2 2 2 2 2 2 2 2 2 2 2 2 2 2 2 2 2 2 2 2 2 2 2 2
left_child=1 -1 -2 -3 6 -6 9 -8 -9 13 11 27 -12 15 -15 16 18 25 19 -4 -16 -22 -20 -17 -25 26 -18 -11 -29 -23
right_child=2 3 4 -5 5 -7 7 8 -10 10 12 -13 -14 14 20 23 17 -19 22 -21 21 29 -24 24 -26 -27 -28 28 -30 -31
leaf_value=-3.9606566619873051 -0.94339035848776498 -2.74887016665551 0.63535931574947702 -1.9737943225436743 0.19768027563889823 -0.44386869644125304 0.46765513612499721 0.58834710985422134 0.075496312438060126 0.30512823163501679 0.44214089736342432 0.69706614494323738 -0.056549447485544149 0.30751191226784919 0.0063470961089478811 -0.23656039531079107 0.12329209819436074 0.43372720092535016 0.12504588941510317 0.12480668149450247 -0.13067699158803012 0.5409339964389801 -0.33475495878607037 -0.15033349357545378 0.39053842616081241 0.077486720834022915 -0.31325863437080875 -0.26158054961877714 0.40050340378284455 0.19334595382399858
leaf_weight=20 27 31 34 27 24 36 79 20 151 155 20 30 103 192 320 106 35 20 407 34 39 40 20 32 25 78 98 34 25 100
leaf_count=20 27 31 34 27 24 36 79 20 151 155 20 30 103 192 320 106 35 20 407 34 39 40 20 32 25 78 98 34 25 100
internal_value=0.00560264 -2.79129 0.101118 -2.38806 0.113613 -0.187249 0.12183 0.240447 0.135479 0.106599 0.197122 0.284122 0.0245384 0.0855727 0.140302 0.0430326 0.0804113 -0.0505005 0.141503 0.380083 0.0759652 0.200422 0.10351 -0.123452 0.086891 -0.0963989 -0.198377 0.226232 0.0189635 0.292657
internal_weight=2362 78 2284 58 2257 60 2197 250 171 1947 367 244 123 1580 691 889 726 231 495 68 499 179 427 163 57 211 133 214 59 140
internal_count=2362 78 2284 58 2257 60 2197 250 171 1947 367 244 123 1580 691 889 726 231 495 68 499 179 427 163 57 211 133 214 59 140
is_linear=0
shrinkage=0.05


Tree=2
num_leaves=31
num_cat=0
split_feature=20 16 20 19 44 35 37 37 1 34 8 3 6 16 16 29 46 36 4 38 36 4 44 17 1 38 44 24 16 6
split_gain=227791 14262 10761.2 2911.66 2014.17 1457.33 1432.85 2152.42 1719.5 2049.75 1384.56 2113.04 1708.93 1938.66 2401.11 1913.18 1866.85 2006.9 1540.99 1528.98 1459.46 1376.85 1365.76 1270.02 1241.92 1459.8 1288.1 1528.68 1627.34 1405.52
threshold=150.50000000000003 112.50000000000001 173.14285714285717 123.50000000000001 32250.146428571428 32916.500000000007 2708.2561465667054 2859.2667602652095 7.5683541666666674 28071.500000000004 0.27216666666666672 0.71910416666666677 0.26947916666666671 207.50000000000003 200.50000000000003 15.839284580853674 27496.900000000005 31795.221428571433 669.25625000000014 26156.000000000004 31749.521428571432 633.93541666666681 31402.942857142862 190.50000000000003 8.2649791666666683 25603.100000000002 21947.412500000002 193.25000000000003 194.50000000000003 0.27597916666666666
decision_type=2 2 2 2 2 2 2 2 2 2 2 2 2 2 2 2 2 2 2 2 2 2 2 2 2 2 2 2 2 2
left_child=1 -1 -2 -3 6 -6 10 -8 -9 -10 12 -12 15 14 16 21 17 19 -16 24 -20 -4 -21 -18 25 26 -14 28 29 -28
right_child=2 3 4 -5 5 -7 7 8 9 -11 11 -13 13 -15 18 -17 23 -19 20 22 -22 -23 -24 -25 -26 -27 27 -29 -30 -31
leaf_value=-3.8030854988098142 -0.89622082599887143 -2.5853224815860876 -0.13334422243965999 -1.8751046639901621 -0.35213090740144254 0.17060186937451363 0.44427237997326668 -0.20174477137625219 -0.15360040561326091 0.30764802807631592 0.1471314670578126 -0.45209387583392008 0.49153307567943227 0.27194176665196818 -0.58317228486761452 -0.063567053736187526 0.0050969707804757198 0.43275678034235798 0.0058275814984657184 -0.11414506713650666 -0.46717039765346624 0.18164642822046165 0.21868476276166546 -0.44122908573065489 -0.1798113527973848 0.47646811211974749 -0.24845832735300066 -0.11117190705104307 0.50018295251554068 0.17762463364005088
leaf_weight=20 27 31 36 27 40 20 79 32 31 108 31 28 22 90 20 96 37 41 73 147 21 955 39 28 28 34 24 66 31 100
leaf_count=20 27 31 36 27 40 20 79 32 31 108 31 28 22 90 20 96 37 41 73 147 21 955 39 28 28 34 24 66 31 100
internal_value=0.00532251 -2.65172 0.0960623 -2.2547 0.107933 -0.177887 0.115738 0.228424 0.128705 0.20478 0.101269 -0.137247 0.108723 0.0533077 0.0256325 0.149558 0.0657844 0.0966901 -0.184637 0.0686275 -0.0998422 0.170204 -0.0443582 -0.187167 0.13753 0.169608 0.126673 0.090352 0.176162 0.095157
internal_weight=2362 78 2284 58 2257 60 2197 250 171 139 1947 59 1888 801 711 1087 597 532 114 491 94 991 186 65 305 277 243 221 155 124
internal_count=2362 78 2284 58 2257 60 2197 250 171 139 1947 59 1888 801 711 1087 597 532 114 491 94 991 186 65 305 277 243 221 155 124
is_linear=0
shrinkage=0.05


Tree=3
num_leaves=31
num_cat=0
split_feature=23 16 24 35 44 32 7 17 31 4 17 10 10 44 1 37 37 1 34 8 29 5 44 10 13 40 5 5 17 24
split_gain=205582 12871.4 9711.96 2142.3 1817.79 2114.17 1351.61 2299.56 2165.98 1958.89 1734.06 1721.91 1656.34 1420.31 1336.37 1150.51 1839.13 1351.35 1910.77 1345.79 2649.16 1722.54 2175.57 1804.89 1538.82 1893.6 1909.8 1946.19 1296.7 1283.21
threshold=166.50000000000003 112.50000000000001 171.89285714285717 20623.600000000002 32250.146428571428 31928.200000000001 0.19535416666666669 199.50000000000003 221.50000000000003 692.98541666666677 184.50000000000003 8.4145833333333346 8.1687500000000011 21967.814285714288 7.9047916666666671 2708.2561465667054 2859.2667602652095 7.5683541666666674 28071.500000000004 0.21564583333333329 12.124082901225123 3.5060625000000001 31719.680357142857 8.1229166666666686 20.500000000000004 22911.139285714289 3.8879791666666672 3.7702916666666657 205.50000000000003 193.60714285714289
decision_type=2 2 2 2 2 2 2 2 2 2 2 2 2 2 2 2 2 2 2 2 2 2 2 2 2 2 2 2 2 2
left_child=1 -1 -2 -3 6 -6 15 8 9 11 -10 12 -8 -9 -12 19 29 -18 -19 21 28 23 -23 -4 -22 -26 27 -27 -21 -17
right_child=2 3 4 -5 5 -7 7 13 10 -11 14 -13 -14 -15 -16 16 17 18 -20 20 24 22 -24 -25 25 26 -28 -29 -30 -31
leaf_value=-3.6129312324523926 -0.85140980570404623 -2.4458442424905713 -0.32586366351573703 -1.8380929815358131 0.19451253811518354 -0.41132889075411694 0.12640039298845374 0.41230073481798168 0.20610244671503702 0.61198211655668588 0.96511632529172031 -0.15171249938565634 0.60933953139253649 -0.044822479289981121 0.44833383601287324 0.24723272968245591 -0.20181501587231954 -0.19537144584788219 0.2836036593131312 0.23422389353315035 0.0025612915284000341 0.040534321031964471 0.40235242990946229 0.11176728363099851 -0.046298312711513655 0.33501491517412901 0.57148912634168358 -0.18996524788715222 0.60800366093990987 0.68669211509136063
leaf_weight=20 27 29 62 29 24 36 92 20 33 23 22 43 22 113 29 46 30 27 91 165 320 745 44 38 59 51 42 27 27 26
leaf_count=20 27 29 62 29 24 36 92 20 33 23 22 43 22 113 29 46 30 27 91 165 320 745 44 38 59 51 42 27 27 26
internal_value=0.00505638 -2.51914 0.0912592 -2.14197 0.102536 -0.168992 0.109952 0.193458 0.278871 0.181035 0.488519 0.117902 0.219599 0.0239179 0.67126 0.0915337 0.19866 0.0978274 0.174008 0.0766174 0.128958 0.0359338 0.0607118 -0.159564 0.068231 0.185629 0.29966 0.153291 0.286787 0.405926
internal_weight=2362 78 2284 58 2257 60 2197 397 264 180 84 157 114 133 51 1800 220 148 118 1580 691 889 789 100 499 179 120 78 192 72
internal_count=2362 78 2284 58 2257 60 2197 397 264 180 84 157 114 133 51 1800 220 148 118 1580 691 889 789 100 499 179 120 78 192 72
is_linear=0
shrinkage=0.05


Tree=4
num_leaves=31
num_cat=0
split_feature=20 16 20 44 32 19 7 25 33 4 34 29 37 37 19 40 32 29 31 35 34 37 20 46 8 41 4 34 42 14
split_gain=185537 11693.7 8765.04 1640.55 1908.04 1531.09 1219.83 1403.35 1286.7 1872.41 1352.39 1237.42 1038.33 1659.81 1323.75 1274.87 1551.62 1363.43 2144.69 1439.08 1553.73 1639.15 1769.32 1200.59 1188.73 1643.46 1178.79 1114.49 1078.72 1048.08
threshold=150.50000000000003 120.00000000000001 173.14285714285717 32250.146428571428 31928.200000000001 123.50000000000001 0.19535416666666669 16.376074405010673 33422.05000000001 692.98541666666677 20632.750000000004 16.341328597601024 2708.2561465667054 2859.2667602652095 166.50000000000003 32346.896428571436 32005.650000000005 12.112539832317767 222.50000000000003 31265.950000000004 29287.800000000003 1434.0390577644246 190.50000000000003 26755.350000000002 0.26789583333333339 2045.4754599690152 634.94791666666686 28071.500000000004 27318.050000000007 5.5000000000000009
decision_type=2 2 2 2 2 2 2 2 2 2 2 2 2 2 2 2 2 2 2 2 2 2 2 2 2 2 2 2 2 2
left_child=1 -1 -2 6 -5 -3 12 8 9 10 -8 -9 14 -14 -4 16 17 18 19 20 21 -16 -23 -18 26 -26 -19 -15 -22 -28
right_child=2 5 3 4 -6 -7 7 11 -10 -11 -12 -13 13 27 15 -17 23 24 -20 -21 28 22 -24 -25 25 -27 29 -29 -30 -31
leaf_value=-3.2345799834639943 -0.80883931274767285 -2.2383123278617858 -0.17530058536391993 0.18478691875934602 -0.39076244251595604 -1.689444727367825 0.41539565224099806 0.70363099108571592 -0.23852964073419569 0.50975751099554267 0.092314165939505297 0.16587680103257299 0.38563006838473179 -0.16319870732047342 0.10221587499882293 0.44277181653305892 0.099468750287504765 -0.20805675644013616 -0.14547853407760461 0.54812828055743512 0.13610358584453078 0.61725190867518276 0.23193635231978502 -0.21173144303545169 -0.38058924105237513 0.19061632245779037 0.10468683270119072 0.16643554664662352 -0.29172940116662244 -0.059039511558200634
leaf_weight=27 27 24 52 24 36 27 37 23 20 37 260 20 72 33 127 24 51 36 48 29 34 43 97 79 34 20 768 115 26 112
leaf_count=27 27 24 52 24 36 27 37 23 20 37 260 20 72 33 127 24 51 36 48 29 34 43 97 79 34 20 768 115 26 112
internal_value=0.00480357 -2.39318 0.0866962 0.0974093 -0.160543 -1.94774 0.104454 0.183785 0.151022 0.174348 0.132563 0.453513 0.086957 0.188727 0.0727865 0.0812293 0.07546 0.0910813 0.168258 0.21056 0.180623 0.232289 0.350283 -0.0896452 0.0589374 -0.169032 0.0723767 0.092936 -0.0492907 0.0838489
internal_weight=2362 78 2284 2257 60 51 2197 397 354 334 297 43 1800 220 1580 1528 1504 1374 404 356 327 267 140 130 970 54 916 148 60 880
internal_count=2362 78 2284 2257 60 51 2197 397 354 334 297 43 1800 220 1580 1528 1504 1374 404 356 327 267 140 130 970 54 916 148 60 880
is_linear=0
shrinkage=0.05


Tree=5
num_leaves=31
num_cat=0
split_feature=28 16 28 12 33 5 46 7 35 32 1 18 41 47 39 0 44 20 8 26 13 4 9 45 10 20 5 10 22 2
split_gain=165366 13175.8 4422.42 3091.76 2294.26 1506.25 1450.01 1366.39 1432.9 1139.24 2161.21 1566.19 1442.04 1863.02 2025 1351.09 2299.92 1591.13 1555.82 1502.57 1551.73 1166.05 1310.65 1369.16 1709.49 1250.17 1120.73 1601.89 1431.96 1176.33
threshold=158.76785714285717 112.50000000000001 176.32142857142858 4.5000000000000009 24090.050000000003 3.3807500000000004 18482.350000000002 0.13727083333333331 27606.400000000005 35029.200000000004 8.1187500000000021 162.50000000000003 1584.6194348019255 28514.500000000004 25482.700000000001 0.56108333333333349 27525.410714285717 183.07142857142858 0.22777083333333339 169.50000000000003 27.500000000000004 703.34583333333342 0.36897916666666669 2341.2823847823261 8.0270833333333353 193.6428571428572 3.5564791666666671 7.9479166666666679 176.50000000000003 0.91464583333333349
decision_type=2 2 2 2 2 2 2 2 2 2 2 2 2 2 2 2 2 2 2 2 2 2 2 2 2 2 2 2 2 2
left_child=1 -1 -2 -3 7 -6 -7 -4 -9 11 -11 -8 13 14 -13 17 -17 -14 19 20 21 22 23 24 -19 -24 27 -20 29 -28
right_child=2 3 4 -5 5 6 9 8 -10 10 -12 12 15 -15 -16 16 -18 18 26 -21 -22 -23 25 -25 -26 -27 28 -29 -30 -31
leaf_value=-3.2380556583404543 -0.52474836439921935 -2.032825116677718 -0.15084462638478727 -1.336517767906189 -0.33157949956754845 -0.32621946781873706 0.4744098290153172 0.16721940371076818 0.49988611726199883 -0.033882046318971196 0.59390731790456275 0.075255287051200881 0.38475826602233087 0.072585282915017826 0.66444300259862632 -0.013432338563688249 -0.52576339492031066 -0.43074038105133261 0.10106437658270201 -0.045011215604992993 0.42037707549684189 0.36324566332944513 0.051699056724707287 0.085441791528079777 0.017045778543391128 0.49827736639976505 -0.19398503456588673 0.61776627659797667 0.32252541983381233 0.17200801713126046
leaf_weight=20 29 44 32 25 24 23 23 675 34 26 29 25 38 110 35 251 24 39 30 394 34 29 42 101 47 25 46 30 47 42
leaf_count=20 29 44 32 25 24 23 23 675 34 26 29 25 38 110 35 251 24 39 30 394 34 29 42 101 47 25 46 30 47 42
internal_value=0.0063753 -2.10807 0.0887684 -1.78054 0.0966584 0.0613755 0.0677049 0.168748 0.183172 0.073881 0.297134 0.0651849 0.0584086 0.194831 0.418948 0.0393834 -0.0581449 0.0677947 0.0545004 0.0201867 0.101221 0.0628774 0.0285834 -0.0394016 -0.18602 0.218333 0.179614 0.359415 0.0997016 -0.0193065
internal_weight=2373 89 2284 69 2255 1514 1490 741 709 1467 55 1412 1389 170 60 1219 275 944 906 711 317 283 254 187 86 67 195 60 135 88
internal_count=2373 89 2284 69 2255 1514 1490 741 709 1467 55 1412 1389 170 60 1219 275 944 906 711 317 283 254 187 86 67 195 60 135 88
is_linear=0
shrinkage=0.05


Tree=6
num_leaves=31
num_cat=0
split_feature=28 16 28 16 2 8 44 45 32 39 2 46 38 6 28 36 38 34 8 39 24 7 1 46 6 24 24 37 15 47
split_gain=149242 11891.1 3991.24 2901.89 2203.38 1753.78 1945.32 1981.42 1549.91 1512.37 1599.33 1511.95 2011.77 1508.08 1461.85 1431.33 1371.79 2970.78 1289.55 1284.11 1269.01 1187.83 1844.88 1512.57 1092.72 1089.02 1796.02 1207.72 1564.64 1517.1
threshold=158.76785714285717 112.50000000000001 176.32142857142858 143.50000000000003 0.87852083333333342 0.21735416666666663 31766.960714285717 2370.7063386708273 35029.200000000004 25899.700000000001 0.89466666666666683 27496.900000000005 29196.250000000004 0.29000000000000009 192.51785714285717 31903.035714285714 22026.400000000005 23803.500000000004 0.16687499999999997 34875.000000000007 196.39285714285717 0.18306249999999999 7.9083125000000001 27081.650000000005 0.28802083333333339 197.32142857142858 198.32142857142858 1408.0218840826603 329.50000000000006 29332.150000000005
decision_type=2 2 2 2 2 2 2 2 2 2 2 2 2 2 2 2 2 2 2 2 2 2 2 2 2 2 2 2 2 2
left_child=1 -1 -2 13 5 6 7 -4 9 16 20 12 25 -3 -10 -14 18 -18 -6 -8 21 23 -23 -11 -7 27 -27 29 -29 -12
right_child=2 3 4 -5 8 24 19 -9 14 10 11 -13 15 -15 -16 -17 17 -19 -20 -21 -22 22 -24 -25 -26 26 -28 28 -30 -31
leaf_value=-3.07615291595459 -0.49851094607649182 -2.2031466960906982 -0.20812729915567474 -1.261340762615204 0.42933879646195755 0.32614739386213798 -0.71490703165531166 0.28910084066517427 0.71590678095817573 0.26985287378386907 0.22157243926610268 -0.26541563821466346 0.65682237663052301 -1.6152672958374024 0.14239483499526978 0.15243836465554361 0.056821392352382344 0.88192925930023203 0.12501195279778804 -0.21267570646745818 -0.17563813653859228 0.21151515640491667 0.77445914596319199 -0.051833339161792051 -0.13256988093256949 -0.33346185808380446 0.13752672255039217 0.038728945220662177 0.20663993837981579 -0.20216954080171365
leaf_weight=20 29 24 51 25 37 37 20 33 20 96 28 38 22 20 25 39 24 20 588 35 22 43 22 59 20 48 35 629 178 86
leaf_count=20 29 24 51 25 37 37 20 33 20 96 28 38 22 20 25 39 24 20 588 35 22 43 22 59 20 48 35 629 178 86
internal_value=0.00605653 -2.00267 0.0843299 -1.69151 0.0918255 -0.0683668 -0.164144 -0.0127877 0.107074 0.10059 0.0700323 0.0444937 0.0555515 -1.93593 0.397289 0.334347 0.162025 0.43187 0.143028 -0.395305 0.186434 0.222641 0.40205 0.147405 0.165194 0.0386127 -0.134852 0.0542452 0.0757651 -0.0980926
internal_weight=2373 89 2284 69 2255 196 139 84 2059 2014 1345 1103 1065 44 45 61 669 44 625 55 242 220 65 155 57 1004 83 921 807 114
internal_count=2373 89 2284 69 2255 196 139 84 2059 2014 1345 1103 1065 44 45 61 669 44 625 55 242 220 65 155 57 1004 83 921 807 114
is_linear=0
shrinkage=0.05


Tree=7
num_leaves=31
num_cat=0
split_feature=28 16 28 12 2 8 29 43 5 7 3 16 8 21 29 42 8 42 16 3 33 38 22 15 8 43 8 14 25 47
split_gain=134691 10731.7 3602.09 2669.16 1988.55 1582.79 1445.9 1779.79 1985.95 1749.72 1696.25 1953.45 1553.63 1438.18 1946.25 1347.1 1262.07 1404.19 1960.73 1221.13 1219.25 1182.99 1440.88 1383.19 1623.25 1575.89 1549.59 1359.08 1341.69 1336.72
threshold=158.76785714285717 112.50000000000001 176.32142857142858 4.5000000000000009 0.87852083333333342 0.21735416666666663 11.349369987015885 24152.500000000004 3.5503125 0.14945833333333333 0.72535416666666686 188.50000000000003 0.27216666666666672 9.7772816576340258 14.414636291974501 27808.500000000004 0.24060416666666667 27340.450000000004 194.50000000000003 0.71972916666666675 32808.850000000013 29003.900000000005 165.50000000000003 220.50000000000003 0.20181249999999998 25032.550000000003 0.16562500000000005 4.5000000000000009 9.7171537459837918 26087.550000000007
decision_type=2 2 2 2 2 2 2 2 2 2 2 2 2 2 2 2 2 2 2 2 2 2 2 2 2 2 2 2 2 2
left_child=1 -1 -2 -3 5 13 9 -8 16 -6 -11 -12 21 -4 -15 -16 17 18 -9 -14 -7 22 -10 28 26 -26 27 -25 -24 -27
right_child=2 3 4 -5 6 20 7 8 12 10 11 -13 19 14 15 -17 -18 -19 -20 -21 -22 -23 23 24 25 29 -28 -29 -30 -31
leaf_value=-2.9223452091217044 -0.47358539186674975 -1.8413473302667793 0.17935446351766587 -1.1943753621578217 -0.034240845631469383 -0.013083275306869197 0.28109427920796654 0.56222710671812992 0.16629298081637447 0.19225897132620057 0.23815105310801804 0.83500363047306347 0.016876018285751342 -0.41465067896060648 0.24071414078999728 -0.28636416521939367 0.60472593814134601 0.047405172584728261 0.040576797146951005 -0.48794571640698808 0.47146672070026396 0.24859057810248397 0.28680808335775509 -0.03033359008175986 -0.085446620390551994 0.34536065304490304 -0.081190539849922069 0.53851734513771676 -0.046838856729599393 0.12239004959717881
leaf_weight=20 29 44 26 25 55 37 110 43 234 139 29 26 25 64 27 22 20 87 31 23 20 82 32 21 61 98 192 21 516 214
leaf_count=20 29 44 26 25 55 37 110 43 234 139 29 26 25 64 27 22 20 87 31 23 20 82 32 21 61 98 192 21 516 214
internal_value=0.00575371 -1.90253 0.0801134 -1.60694 0.0872342 -0.0649485 0.101721 0.08618 0.0735679 0.214688 0.28526 0.5203 0.0549131 -0.155936 -0.233083 0.00406674 0.230124 0.183589 0.343698 -0.225018 0.156934 0.0640475 0.0531529 0.030231 0.0822205 0.146983 -0.0210116 0.254092 -0.0273558 0.192426
internal_weight=2373 89 2284 69 2255 196 2059 1810 1700 249 194 55 1519 139 113 49 181 161 74 48 57 1471 1389 1155 607 373 234 42 548 312
internal_count=2373 89 2284 69 2255 196 2059 1810 1700 249 194 55 1519 139 113 49 181 161 74 48 57 1471 1389 1155 607 373 234 42 548 312
is_linear=0
shrinkage=0.05


Tree=8
num_leaves=31
num_cat=0
split_feature=17 2 24 18 33 16 2 46 0 24 11 8 1 16 34 2 47 21 0 46 3 10 37 13 21 3 41 19 19 10
split_gain=121793 8123.04 5357.09 1837.13 1769.68 1311.18 2008.41 1604.74 1431.83 1306.34 1277.17 1587.76 1492.14 1251.26 1495.52 1662.26 1416.68 2063.3 1921.17 1633.83 1485.38 1431.75 1379.77 1505.98 1336.19 1352.62 1290.79 1240.84 1213.97 1198.43
threshold=152.50000000000003 0.7556250000000001 174.78571428571431 137.50000000000003 24090.050000000003 206.50000000000003 0.88629166666666681 18482.350000000002 0.33860416666666671 197.75000000000003 2014.5000000000002 0.1945625 7.798750000000001 200.50000000000003 33202.350000000006 0.94472916666666673 28331.500000000004 11.364103886486818 0.56108333333333349 27275.000000000004 0.72214583333333349 8.2104166666666689 1375.0599988922709 19.500000000000004 9.9006956007477047 0.72143750000000018 2376.3466395152368 215.50000000000003 176.50000000000003 8.7312500000000011
decision_type=2 2 2 2 2 2 2 2 2 2 2 2 2 2 2 2 2 2 2 2 2 2 2 2 2 2 2 2 2 2
left_child=1 -1 -2 -3 9 7 -7 -6 -8 10 11 -4 -13 16 15 28 17 20 19 22 -9 24 23 -18 -21 -26 29 -24 -15 -20
right_child=2 3 4 -5 5 6 8 13 -10 -11 -12 12 -14 14 -16 -17 18 -19 26 21 -22 -23 27 -25 25 -27 -28 -29 -30 -31
leaf_value=-2.7849293041229251 -0.57002967037260532 -1.8170192337036135 0.30701144760654819 -1.2301101028919221 -0.41306049793958666 -0.31400585070252424 0.4400932125308934 0.18753478120673786 0.13288950705145661 -0.11352814297475244 0.19060135365858422 0.22218312679425531 -0.25741500003094026 -0.3151303541092646 -0.43282334208488465 -0.45108209773898128 0.048896329169688023 0.028598019301339435 -0.22153177463091339 0.15122941790715508 0.75632323908309151 0.13336848410693083 0.11627046949379811 -0.47080960124731064 0.072142731174826627 -0.40470196080618898 0.22573987483978272 0.45734111666679383 0.09669698417063588 0.1630244774123033
leaf_weight=20 32 40 31 20 20 20 51 22 148 46 590 23 55 21 26 20 46 54 130 23 24 55 560 20 20 58 25 28 121 24
leaf_count=20 32 40 31 20 20 20 51 22 148 46 590 23 55 21 26 20 46 54 130 23 24 55 560 20 20 58 25 28 121 24
internal_value=0.00546602 -1.91227 0.0723735 -1.62138 0.0814654 0.0504559 0.163618 0.0313484 0.21162 0.144567 0.161552 0.00430956 -0.115995 0.0383086 -0.0808109 -0.0243151 0.0588728 0.238218 0.0407388 0.0734984 0.484294 -0.0718995 0.108181 -0.10859 -0.183679 -0.282434 -0.107503 0.132512 0.0357929 -0.161601
internal_weight=2373 80 2293 60 2261 1516 219 1297 199 745 699 109 78 1277 188 162 1089 100 989 810 46 156 654 66 101 78 179 588 142 154
internal_count=2373 80 2293 60 2261 1516 219 1297 199 745 699 109 78 1277 188 162 1089 100 989 810 46 156 654 66 101 78 179 588 142 154
is_linear=0
shrinkage=0.05


Tree=9
num_leaves=31
num_cat=0
split_feature=28 36 28 33 33 24 18 29 28 5 46 6 33 41 18 10 17 7 9 19 3 34 7 40 16 2 36 9 7 13
split_gain=110135 8887.82 2891.85 2285.52 1692.51 1212.26 1282.87 1329.14 1305.31 1199.83 1199.07 1199.36 1776.45 1864.14 1962.85 1556.85 1422.8 1201.98 1483.64 1194.43 1101.81 1064.77 1507.56 1062.83 1303.4 1060.08 3033.37 1329.99 1168.78 1059.52
threshold=158.76785714285717 21157.578571428578 176.32142857142858 22511.350000000002 24090.050000000003 197.75000000000003 203.50000000000003 11.30669090013672 191.30357142857147 3.3807500000000004 18482.350000000002 0.28047916666666667 34602.30000000001 1584.6194348019255 165.50000000000003 8.3270833333333361 214.50000000000003 0.14795833333333333 0.35535416666666669 206.50000000000003 0.72297916666666673 25341.800000000007 0.15185416666666668 22700.182142857146 186.50000000000003 0.88222916666666673 31435.807142857146 0.36441666666666667 0.16722916666666668 12.500000000000002
decision_type=2 2 2 2 2 2 2 2 2 2 2 2 2 2 2 2 2 2 2 2 2 2 2 2 2 2 2 2 2 2
left_child=1 -1 -2 -3 5 6 7 23 -8 -6 -11 12 13 15 -15 20 17 18 -16 25 -12 22 -13 24 -4 -19 28 -28 -27 -30
right_child=2 3 4 -5 9 -7 8 -9 -10 10 11 21 -14 14 16 -17 -18 19 -20 -21 -22 -23 -24 -25 -26 26 27 -29 29 -31
leaf_value=-2.4211035728454591 -0.42368371897730334 -1.6403282794085419 0.52445580482482912 -1.0135047330306126 -0.30220677672574919 -0.1078517354376938 0.55394439457191369 0.094428329166893407 0.20139878273307896 -0.30406300192293911 -0.021661588540744216 0.070668458717840693 0.43958892874621064 0.53998935520648961 -0.11669658216146322 0.56200498505072161 -0.28273813950292992 -0.20249731535712878 0.32014223342495307 0.22720434555122929 0.35529875548349488 0.029539506410559021 -0.44851407341915989 0.63372347474098212 0.012920600754406417 -0.17755339418848357 0.16388259183716131 0.6480613220645034 -0.10401099684765969 0.12476104217127336
leaf_weight=30 29 33 20 26 24 46 36 489 97 23 42 27 37 20 26 33 33 60 77 62 36 615 29 20 33 102 37 23 87 121
leaf_count=30 29 33 20 26 24 46 36 489 97 23 42 27 37 20 26 33 33 60 77 62 36 615 29 20 33 102 37 23 87 121
internal_value=0.00519272 -1.72039 0.0724332 -1.3641 0.0788134 0.140731 0.157184 0.124138 0.296825 0.0485088 0.0541579 0.0597742 0.101282 0.0847905 0.0523593 0.274118 0.0368297 0.0545536 0.209872 0.0220378 0.15232 0.0105334 -0.198194 0.32315 0.205953 -0.00754439 0.0240696 0.349484 -0.0389139 0.0290727
internal_weight=2373 89 2284 59 2255 741 695 562 133 1514 1490 1467 796 759 648 111 628 595 103 492 78 671 56 73 53 430 370 60 310 208
internal_count=2373 89 2284 59 2255 741 695 562 133 1514 1490 1467 796 759 648 111 628 595 103 492 78 671 56 73 53 430 370 60 310 208
is_linear=0
shrinkage=0.05


end of trees

feature_importances:
Column_8=15
Column_16=15
Column_7=12
Column_10=11
Column_17=11
Column_20=11
Column_37=11
Column_44=11
Column_24=10
Column_28=10
Column_46=10
Column_1=9
Column_29=9
Column_34=9
Column_2=8
Column_4=8
Column_5=8
Column_19=8
Column_3=7
Column_32=7
Column_33=7
Column_35=7
Column_36=7
Column_13=6
Column_21=6
Column_6=5
Column_15=5
Column_38=5
Column_39=5
Column_18=4
Column_41=4
Column_42=4
Column_47=4
Column_0=3
Column_9=3
Column_22=3
Column_25=3
Column_31=3
Column_40=3
Column_12=2
Column_14=2
Column_43=2
Column_45=2
Column_11=1
Column_23=1
Column_26=1
Column_27=1
Column_30=1

parameters:
[boosting: gbdt]
[objective: regression]
[metric: l1]
[tree_learner: serial]
[device_type: cpu]
[data_sample_strategy: bagging]
[data: ]
[valid: ]
[num_iterations: 500]
[learning_rate: 0.05]
[num_leaves: 31]
[num_threads: 0]
[seed: 42]
[deterministic: 0]
[force_col_wise: 0]
[force_row_wise: 0]
[histogram_pool_size: -1]
[max_depth: -1]
[min_data_in_leaf: 20]
[min_sum_hessian_in_leaf: 0.001]
[bagging_fraction: 0.8]
[pos_bagging_fraction: 1]
[neg_bagging_fraction: 1]
[bagging_freq: 5]
[bagging_seed: 400]
[bagging_by_query: 0]
[feature_fraction: 0.8]
[feature_fraction_bynode: 1]
[feature_fraction_seed: 30056]
[extra_trees: 0]
[extra_seed: 12879]
[early_stopping_round: 0]
[early_stopping_min_delta: 0]
[first_metric_only: 0]
[max_delta_step: 0]
[lambda_l1: 0]
[lambda_l2: 0]
[linear_lambda: 0]
[min_gain_to_split: 0]
[drop_rate: 0.1]
[max_drop: 50]
[skip_drop: 0.5]
[xgboost_dart_mode: 0]
[uniform_drop: 0]
[drop_seed: 17869]
[top_rate: 0.2]
[other_rate: 0.1]
[min_data_per_group: 100]
[max_cat_threshold: 32]
[cat_l2: 10]
[cat_smooth: 10]
[max_cat_to_onehot: 4]
[top_k: 20]
[monotone_constraints: ]
[monotone_constraints_method: basic]
[monotone_penalty: 0]
[feature_contri: ]
[forcedsplits_filename: ]
[refit_decay_rate: 0.9]
[cegb_tradeoff: 1]
[cegb_penalty_split: 0]
[cegb_penalty_feature_lazy: ]
[cegb_penalty_feature_coupled: ]
[path_smooth: 0]
[interaction_constraints: ]
[verbosity: -1]
[saved_feature_importance_type: 0]
[use_quantized_grad: 0]
[num_grad_quant_bins: 4]
[quant_train_renew_leaf: 0]
[stochastic_rounding: 1]
[linear_tree: 0]
[max_bin: 255]
[max_bin_by_feature: ]
[min_data_in_bin: 3]
[bin_construct_sample_cnt: 200000]
[data_random_seed: 175]
[is_enable_sparse: 1]
[enable_bundle: 1]
[use_missing: 1]
[zero_as_missing: 0]
[feature_pre_filter: 1]
[pre_partition: 0]
[two_round: 0]
[header: 0]
[label_column: ]
[weight_column: ]
[group_column: ]
[ignore_column: ]
[categorical_feature: ]
[forcedbins_filename: ]
[precise_float_parser: 0]
[parser_config_file: ]
[objective_seed: 16083]
[num_class: 1]
[is_unbalance: 0]
[scale_pos_weight: 1]
[sigmoid: 1]
[boost_from_average: 1]
[reg_sqrt: 0]
[alpha: 0.9]
[fair_c: 1]
[poisson_max_delta_step: 0.7]
[tweedie_variance_power: 1.5]
[lambdarank_truncation_level: 30]
[lambdarank_norm: 1]
[label_gain: ]
[lambdarank_position_bias_regularization: 0]
[eval_at: ]
[multi_error_top_k: 1]
[auc_mu_weights: ]
[num_machines: 1]
[local_listen_port: 12400]
[time_out: 120]
[machine_list_filename: ]
[machines: ]
[gpu_platform_id: -1]
[gpu_device_id: -1]
[gpu_use_dp: 0]
[num_gpu: 1]

end of parameters

pandas_categorical:null
