tree
version=v4
num_class=1
num_tree_per_iteration=1
label_index=0
max_feature_idx=35
objective=regression
feature_names=Column_0 Column_1 Column_2 Column_3 Column_4 Column_5 Column_6 Column_7 Column_8 Column_9 Column_10 Column_11 Column_12 Column_13 Column_14 Column_15 Column_16 Column_17 Column_18 Column_19 Column_20 Column_21 Column_22 Column_23 Column_24 Column_25 Column_26 Column_27 Column_28 Column_29 Column_30 Column_31 Column_32 Column_33 Column_34 Column_35
feature_infos=[0.22412499999999999:0.87145833333333333] [4.1651666666666669:9.0553333333333317] [0.71083333333333332:0.97224999999999995] [0.68679166666666669:0.81541666666666668] [586.11250000000007:726.67916666666667] [2.9161666666666668:4.3062916666666666] [0.15195833333333331:0.40699999999999997] [0.093458333333333296:0.26729166666666659] [0.11175:0.33620833333333339] [0.25587500000000002:0.47899999999999998] [6.1583333333333341:10.262499999999999] [2014:2022] [1:12] [1:31] [0:6] [1:366] [78:247] [68:247] [67:247] [55:247] [87:207.85714285714286] [3.2513733362133173:26.409774525281236] [84.571428571428569:202.21428571428572] [5.8201053576059394:22.412834823715951] [76.5:199.10714285714286] [7.9834484864285979:19.336069866537002] [11670.5:42673.300000000003] [10768:42673.300000000003] [10768:42673.300000000003] [8408.2999999999993:42673.300000000003] [14194.571428571429:33985.099999999999] [457.93443853946388:4902.1459225236003] [13711.678571428571:33478.750000000007] [695.898598500866:3689.6466656900134] [12254.514285714287:32898.932142857142] [1013.3944368794588:3363.4574495874308]
tree_sizes=2593 2706 2700 2704 2690 2705 2714 2699 2733 2705 2718 2711 2722 2723 2714 2726 2711 2717 2710 2750 2721 2725 2698 2737 2713 2734 2719 2735 2733 2732 2758 2724 2744 2736 2749 2742 2742 2740 2723 2722 2744 2737 2750

Tree=0
num_leaves=31
num_cat=0
split_feature=22 1 19 1 1 16 4 4 1 20 4 7 2 20 19 27 9 34 4 6 4 5 10 33 19 16 10 16 1 22
split_gain=323430 40806.9 16414.4 13347.3 8003.2 3936.08 3878.37 3850.75 4183.62 3217.58 3091.57 2733.52 2406.91 2383.63 2236.17 2107.97 1909.04 1851.17 1841.07 1807.01 1714.04 2074.47 1560.49 1547.84 1546.96 1544.2 1491.7 1469.89 1429.22 1410.03
threshold=142.67857142857147 7.6157916666666674 93.000000000000014 8.0822708333333342 7.1419791666666672 200.50000000000003 656.20625000000007 642.43958333333342 7.8641250000000005 199.35714285714286 663.60208333333344 0.19143749999999998 0.96083333333333354 194.50000000000003 125.50000000000001 33728.950000000004 0.37420833333333337 21869.523214285717 699.1791666666669 0.27960416666666671 682.47708333333344 3.858625 7.6729166666666675 2241.1685418109532 200.50000000000003 177.50000000000003 7.9854166666666675 189.50000000000003 7.3130416666666678 190.32142857142858
decision_type=2 2 2 2 2 2 2 2 2 2 2 2 2 2 2 2 2 2 2 2 2 2 2 2 2 2 2 2 2 2
left_child=2 4 -1 5 10 7 17 -3 18 11 -2 12 20 22 -4 16 19 -5 25 29 21 27 -7 -22 -18 -9 -11 -8 -6 -10
right_child=1 3 14 6 28 13 9 8 15 26 -12 -13 -14 -15 -16 -17 24 -19 -20 -21 23 -23 -24 -25 -26 -27 -28 -29 -30 -31
leaf_value=185.26069487096322 188.0906948709632 189.36079387887247 186.49184871711705 189.95736153611492 189.02725224596043 189.30915640782001 189.98819486798297 189.75381175206746 189.83433123161933 189.88780013247413 188.90462344106132 190.31454102453426 190.38037228974122 189.253127301288 187.14761794788629 190.31069487029265 189.86334192798984 189.63754269504176 189.9799541284564 189.86405770077766 190.23359809576024 189.97291709194366 189.69046231074444 189.89889999739165 190.34569486933762 189.50402820136361 189.44761794532636 189.48999311391071 189.29069486897188 189.49569486877186
leaf_weight=25 20 101 26 60 61 39 20 77 44 38 28 65 31 111 26 20 68 184 27 113 62 90 86 78 22 315 39 57 330 102
leaf_count=25 20 101 26 60 61 39 20 77 44 38 28 65 31 111 26 20 68 184 27 113 62 90 86 78 22 315 39 57 330 102
internal_value=189.501 189.608 186.314 189.711 189.175 189.603 189.878 189.651 189.689 189.961 188.565 190.018 189.96 189.422 186.82 189.811 189.783 189.716 189.581 189.714 189.918 189.81 189.571 190.047 189.981 189.553 189.665 189.619 189.25 189.598
internal_weight=2365 2288 77 1849 439 1125 724 889 788 480 48 403 338 236 52 369 349 244 419 259 307 167 125 140 90 392 77 77 391 146
internal_count=2365 2288 77 1849 439 1125 724 889 788 480 48 403 338 236 52 369 349 244 419 259 307 167 125 140 90 392 77 77 391 146
is_linear=0
shrinkage=1


Tree=1
num_leaves=31
num_cat=0
split_feature=22 1 19 1 1 4 20 20 4 4 1 4 26 27 26 27 18 4 4 26 26 6 31 4 32 1 9 35 26 4
split_gain=291896 36828.2 14848 12045.9 7222.89 3500.22 2903.87 2792.96 2810.96 2790.14 2490.49 2407.82 2388.69 2261.73 2212.1 1847.46 1694.61 1648.31 1631.28 3052.35 2354.08 1624.44 1550.08 1534.17 2304.1 1464.67 1443.41 1413.06 1396.84 1415.75
threshold=142.67857142857147 7.6157916666666674 111.50000000000001 8.0822708333333342 7.1419791666666672 656.20625000000007 199.35714285714286 194.50000000000003 670.20208333333346 663.60208333333344 8.3346041666666668 700.07083333333355 29524.300000000003 30994.900000000005 31326.100000000002 28101.100000000002 166.50000000000003 699.1791666666669 682.47708333333344 25021.850000000002 31501.650000000005 0.22985416666666666 1851.9549294908995 684.98750000000007 31674.110714285718 8.0230000000000015 0.33518750000000003 1638.7404948031697 26271.200000000004 646.25000000000011
decision_type=2 2 2 2 2 2 2 2 2 2 2 2 2 2 2 2 2 2 2 2 2 2 2 2 2 2 2 2 2 2
left_child=2 4 -1 7 9 27 10 8 28 -2 18 12 15 -14 -10 25 -6 26 19 -7 -20 -18 -21 -23 -25 -9 -16 -5 29 -3
right_child=1 3 -4 5 16 6 -8 11 14 -11 -12 -13 13 -15 17 -17 21 -19 20 22 -22 23 -24 24 -26 -27 -28 -29 -30 -31
leaf_value=-3.7637885517544221 -1.3345347225666047 -0.031973650961890254 -2.3722143638424757 0.36168001029997116 -0.68190032593905936 0.65036000595527133 0.16091330895176181 -0.11888106402037735 0.34880053946516543 -0.56130259174055286 0.69035301307996377 0.45440047740936279 -0.51098566106025212 -0.025497604267937797 -0.30024128127843142 0.2837260067995106 0.072191664013597709 0.40022420657092134 0.77788320049022641 0.40842432445564936 0.34356937481233707 -0.32998009125988648 0.028028556854057481 0.08849045122737316 -0.35751385490099591 0.27899556617651666 0.13151013534896228 0.11443067918593686 -0.18987548876067867 0.16794611842564819
leaf_weight=36 20 133 41 94 20 47 77 133 233 28 117 25 47 49 32 56 45 29 60 43 65 208 71 67 51 28 49 150 46 265
leaf_count=36 20 133 41 94 20 47 77 133 233 28 117 25 47 49 32 56 45 29 60 43 65 208 71 67 51 28 49 150 46 265
internal_value=0.00514601 0.107049 -3.02282 0.204794 -0.30464 0.363879 0.442262 0.102414 0.154044 -0.883483 0.496019 -0.0177998 -0.0555155 -0.263184 0.261555 0.0363565 -0.23358 0.0767525 0.416518 0.311299 0.55204 -0.209411 0.171511 -0.248283 -0.104274 -0.0496851 -0.0390583 0.209682 0.0709886 0.101139
internal_weight=2365 2288 77 1849 439 724 480 1125 787 48 403 338 313 96 343 217 391 110 286 161 125 371 114 326 118 161 81 244 444 398
internal_count=2365 2288 77 1849 439 724 480 1125 787 48 403 338 313 96 343 217 391 110 286 161 125 371 114 326 118 161 81 244 444 398
is_linear=0
shrinkage=0.05


Tree=2
num_leaves=31
num_cat=0
split_feature=22 1 17 1 1 18 4 1 20 4 26 2 26 4 25 9 0 28 10 4 25 4 34 7 17 32 3 4 26 26
split_gain=263436 33771.9 13815.2 11199.3 6169.48 4011.65 3810.68 2951.91 2521.43 2228.67 2894.1 2555.87 2809.9 2680.06 2535.31 2339.36 1988.07 1895.84 1887.69 1860.44 1873.67 1834.14 1772.99 1700.97 2057.18 1505.73 1429.59 1401.84 1720.32 1339.18
threshold=142.67857142857147 7.8332500000000014 120.00000000000001 7.3130416666666678 8.2313125000000031 167.50000000000003 699.1791666666669 7.6049791666666673 199.35714285714286 649.79166666666686 30625.950000000001 0.91987500000000011 24748.050000000007 665.13333333333344 15.693282004552875 0.3961041666666667 0.42479166666666673 22316.100000000002 7.885416666666667 656.4312500000002 12.396209304900182 673.55000000000007 25498.064285714288 0.15502083333333333 182.50000000000003 27080.210714285717 0.71881250000000019 682.10208333333344 33243.700000000004 20261.500000000004
decision_type=2 2 2 2 2 2 2 2 2 2 2 2 2 2 2 2 2 2 2 2 2 2 2 2 2 2 2 2 2 2
left_child=2 3 -1 5 6 -2 9 -5 19 14 11 -11 13 15 29 -13 -12 -4 -10 20 -6 25 -21 24 -9 -14 -8 -24 -29 -3
right_child=1 4 17 7 8 -7 26 23 18 10 16 12 21 -15 -16 -17 -18 -19 -20 22 -22 -23 27 -25 -26 -27 -28 28 -30 -31
leaf_value=-3.7099642562866211 -1.2309467122668314 0.40960719590740546 -2.6099135540149834 -0.19069261640250201 0.56951936098133649 -0.46182764748280702 0.74548448222248176 0.45978582620620734 0.44707367266378095 0.48642542456972948 0.10138613347773967 0.17858710712618264 0.049877532655778142 0.82748362994194036 -0.43567924545361447 0.62162758190380907 -0.36842830202409199 -1.9676362276077271 -0.072747463993728154 0.77933553501741215 0.13386006677342999 0.27764261464595064 0.27152203984525325 -0.049414520097371628 0.028835891485214232 -0.38552984309693183 0.31723070608451964 0.72624091006377167 0.28166577592492104 0.038440486034485966
leaf_weight=30 21 28 27 310 41 88 38 40 31 103 115 138 115 25 26 38 28 20 40 67 62 78 56 362 90 24 40 68 32 184
leaf_count=30 21 28 27 310 41 88 38 40 31 103 115 138 115 25 26 38 28 20 40 67 62 78 56 362 90 24 40 68 32 184
internal_value=0.00488872 0.101696 -2.87168 -0.134475 0.257943 -0.610007 0.190582 -0.0698455 0.424225 0.161589 0.208642 0.26333 0.208357 0.343055 0.0303126 0.274244 0.0093945 -2.3366 0.154217 0.483031 0.307278 0.0835914 0.564208 0.00629798 0.161436 -0.0253007 0.525867 0.471814 0.583977 0.0874625
internal_weight=2365 2288 77 911 1377 109 980 802 397 902 664 521 418 201 238 176 143 47 71 326 103 217 223 492 130 139 78 156 100 212
internal_count=2365 2288 77 911 1377 109 980 802 397 902 664 521 418 201 238 176 143 47 71 326 103 217 223 492 130 139 78 156 100 212
is_linear=0
shrinkage=0.05


Tree=3
num_leaves=31
num_cat=0
split_feature=1 1 19 1 1 19 4 16 4 20 3 33 10 4 25 29 4 30 17 34 16 4 20 32 22 22 25 20 29 19
split_gain=237852 28030.5 18110.2 7549.12 5567.95 3772.32 3439.14 2373.03 4464.64 2275.59 2160.47 1773.85 1703.64 1679.04 1690.98 1654.58 1693.2 1949.65 1627.17 1600.13 1481.86 2044.29 1748.58 1395.77 1704.98 1639.15 1553.57 1401.44 1381.38 1374.75
threshold=6.8901875000000006 7.8332500000000014 111.50000000000001 7.5030625000000013 8.2313125000000031 163.50000000000003 699.1791666666669 188.50000000000003 650.48958333333337 199.35714285714286 0.76002083333333348 2241.1685418109532 7.885416666666667 656.4312500000002 12.396209304900182 24828.300000000007 671.77291666666679 31631.478571428572 189.50000000000003 25498.064285714288 201.50000000000003 692.98541666666677 196.21428571428575 22584.175000000007 194.39285714285717 196.46428571428575 14.653493361389247 195.35714285714286 22088.750000000004 188.50000000000003
decision_type=2 2 2 2 2 2 2 2 2 2 2 2 2 2 2 2 2 2 2 2 2 2 2 2 2 2 2 2 2 2
left_child=2 3 -1 5 6 -2 7 8 18 13 -4 -8 -11 14 -6 28 -17 -18 -3 -15 21 22 -5 -9 27 -26 -27 -25 -7 -19
right_child=1 4 10 20 9 15 11 23 -10 12 -12 -13 -14 19 -16 16 17 29 -20 -21 -22 -23 -24 24 25 26 -28 -29 -30 -31
leaf_value=-3.4080554723739627 -0.99574154496192946 -0.24636592680499669 -1.5415083914995193 0.012090297234087175 0.54104338486383596 -0.33561192885041241 0.80951570190232369 0.22994493687565024 0.39186219965463964 0.42471999968251872 -2.2039618104696275 0.31613880852047282 -0.069110088460147379 0.74036875852008377 0.12716706193262531 -0.57855601546221547 -0.13515946224477945 -0.22719787687063217 0.15541243375766844 0.44822292061618124 -0.21314977907082616 0.2677851938259076 -0.2706592023136124 0.17823544143311745 -0.24204352329485121 0.230839956465822 -0.28770356073975567 -0.091836421692469083 0.20845571657908812 -0.78848881671826054
leaf_weight=36 20 42 20 414 41 20 29 141 217 31 32 49 40 67 62 56 102 20 63 156 85 68 63 226 80 52 20 61 28 24
leaf_count=36 20 42 20 414 41 20 29 141 217 31 32 49 40 67 62 56 102 20 63 156 85 68 63 226 80 52 20 61 28 24
internal_value=0.00464428 0.103219 -2.54599 -0.113775 0.245046 -0.334976 0.181053 0.153509 0.262353 0.403014 -1.94917 0.499574 0.146506 0.458879 0.291914 -0.282114 -0.344817 -0.255164 -0.00529891 0.535998 -0.0189754 0.0113087 -0.025254 0.093082 0.0491237 -0.0862755 0.0868001 0.120833 -0.0182391 -0.533357
internal_weight=2365 2277 88 900 1377 270 980 902 322 397 52 78 71 326 103 250 202 146 105 223 630 545 477 580 439 152 72 287 48 44
internal_count=2365 2277 88 900 1377 270 980 902 322 397 52 78 71 326 103 250 202 146 105 223 630 545 477 580 439 152 72 287 48 44
is_linear=0
shrinkage=0.05


Tree=4
num_leaves=31
num_cat=0
split_feature=22 1 19 1 1 4 4 1 16 28 20 22 25 4 29 7 17 25 3 21 26 4 0 25 10 23 7 30 26 23
split_gain=214890 27489.8 11779.9 9200.65 5109.57 3354.7 3059.93 2414.99 2262.06 2130.74 1908.5 1876.68 2027.54 1823.99 1567.73 1554.13 2040.06 1520.19 1480.12 1401.64 1400 3269.62 1721.14 1386.48 1357.64 1330.37 1307.39 1243.25 1224.42 1209.84
threshold=142.67857142857147 7.8299583333333347 93.000000000000014 7.3130416666666678 8.2427291666666687 661.88750000000016 695.93124999999998 7.6102500000000015 206.50000000000003 22316.100000000002 199.35714285714286 194.32142857142858 14.653493361389247 656.4312500000002 29085.150000000005 0.15502083333333333 182.50000000000003 12.396209304900182 0.72347916666666678 15.262777629002906 30625.950000000001 672.50416666666672 0.42479166666666673 14.113274736312061 7.885416666666667 16.021105552279213 0.14360416666666667 23702.228571428575 30114.700000000001 12.49934046754818
decision_type=2 2 2 2 2 2 2 2 2 2 2 2 2 2 2 2 2 2 2 2 2 2 2 2 2 2 2 2 2 2
left_child=2 3 -1 5 6 -2 11 -5 18 -4 13 20 23 17 -7 16 -9 -6 29 -19 21 -3 -22 28 -12 -14 -15 -28 -13 -8
right_child=1 4 9 7 10 14 8 15 -10 -11 24 12 25 26 -16 -17 -18 19 -20 -21 22 -23 -24 -25 -26 -27 27 -29 -30 -31
leaf_value=-3.4855445480346683 -0.96552877075531907 0.15166361169219367 -2.4178427487611773 -0.16951012315367844 0.51736125238239772 -0.052962733002809383 0.96230731366032907 0.45935236001626045 0.013169391729213574 -1.7599624395370483 0.40348398621764875 0.12584206133499637 -0.40744899769087095 0.260363530057172 -0.53330509911994539 -0.046142004787836269 0.023374254914910297 -0.057691928967833518 0.20802690267562865 0.4549558770656586 0.13077748110800078 0.44055933623802002 -0.37988820482384078 0.50716220498085018 -0.039816660988025179 0.032806142419576648 0.92560672710339231 0.53611185111105442 -0.24169200758139292 0.50643316410308659
leaf_weight=25 34 428 32 321 38 26 22 39 27 20 31 141 37 36 49 348 86 40 25 20 66 127 22 20 39 32 24 140 27 43
leaf_count=25 34 428 32 321 38 26 22 39 27 20 31 141 37 36 49 348 86 40 25 20 66 127 22 20 39 32 24 140 27 43
internal_value=0.00441207 0.0918459 -2.59362 -0.122793 0.231787 -0.55355 0.174018 -0.063659 0.414561 -2.16481 0.391439 0.142747 0.0285427 0.446626 -0.366786 0.00817655 0.159399 0.26991 0.534978 0.113191 0.188393 0.217771 0.00311106 0.113624 0.156502 -0.203273 0.533217 0.593111 0.0667741 0.660729
internal_weight=2365 2288 77 903 1385 109 1017 794 117 52 368 900 257 298 75 473 125 98 90 60 643 555 88 188 70 69 200 164 168 65
internal_count=2365 2288 77 903 1385 109 1017 794 117 52 368 900 257 298 75 473 125 98 90 60 643 555 88 188 70 69 200 164 168 65
is_linear=0
shrinkage=0.05


Tree=5
num_leaves=31
num_cat=0
split_feature=1 1 17 24 1 1 29 22 24 5 16 10 5 33 16 7 27 24 18 1 20 18 29 27 2 31 23 1 26 23
split_gain=193397 25104.1 15317.1 8153.09 6903.58 4026.83 2820.43 2335.54 2295.1 1839.35 1722.03 2981.84 2059.13 2026.08 1688.86 1655.07 1620.73 1581.23 1543.91 1514.84 1238.5 1680.71 1958.4 1420.9 1952.07 1208.51 1801.72 1205.46 1120.83 1515.49
threshold=6.8901875000000006 7.8641250000000005 120.00000000000001 176.32142857142858 8.2427291666666687 7.5030625000000013 33724.250000000007 194.39285714285717 190.83928571428575 3.3665833333333337 201.50000000000003 8.1604166666666682 4.1370625000000008 1796.4877161754007 201.50000000000003 0.20543749999999997 32898.150000000001 194.23214285714289 205.50000000000003 8.5615625000000026 197.92857142857147 185.50000000000003 22892.100000000002 28476.900000000005 0.96450000000000014 1829.1971563832296 12.226569870044058 8.0822708333333342 30276.200000000001 12.520532517849444
decision_type=2 2 2 2 2 2 2 2 2 2 2 2 2 2 2 2 2 2 2 2 2 2 2 2 2 2 2 2 2 2
left_child=2 3 -1 -2 6 15 7 10 -6 -4 12 -12 16 -13 -7 28 18 25 -3 20 21 -10 -23 24 -22 26 -9 -19 29 -5
right_child=1 4 9 5 8 14 -8 17 19 -11 11 13 -14 -15 -16 -17 -18 27 -20 -21 23 22 -24 -25 -26 -27 -28 -29 -30 -31
leaf_value=-3.3005793642114711 -0.87566567230969672 0.29102479391639763 -2.0939536176409042 -0.32870916004403167 0.6918449613181028 0.029617609873482682 0.5570195332169533 -0.060321992400445439 0.10860385505052715 -1.5256393199165663 -0.091259843152430326 0.7567120033502579 -0.20618050603762916 0.14977098188617013 -0.20386090996057804 -0.66874626189470288 0.66204626239263098 0.0077977522631131474 -0.0083296171560579418 0.68780350224538289 -0.1495627271987143 0.72542954663244585 0.34712546308338643 0.48656959333098854 0.44084715204579494 0.058859453694719191 -0.62889454744078899 0.29457386452418105 -0.36038153062626305 -0.014107123149319665
leaf_weight=27 32 356 35 59 66 597 45 38 39 24 108 20 23 44 89 20 26 84 49 33 42 52 100 26 21 53 22 65 72 109
leaf_count=27 32 356 35 59 66 597 45 38 39 24 108 20 23 44 89 20 26 84 49 33 42 52 100 26 21 53 22 65 72 109
internal_value=0.0135925 0.101011 -2.31418 -0.0907333 0.243942 -0.0641816 0.170842 0.151272 0.423896 -1.86277 0.203731 0.0690006 0.254775 0.33944 -0.000673335 -0.231746 0.279373 0.0259311 0.254807 0.367396 0.329634 0.401416 0.476545 0.175584 0.0472406 -0.115118 -0.268799 0.132901 -0.195329 -0.124592
internal_weight=2376 2290 86 978 1312 946 933 888 379 59 626 172 454 64 686 260 431 262 405 313 280 191 152 89 63 113 60 149 240 168
internal_count=2376 2290 86 978 1312 946 933 888 379 59 626 172 454 64 686 260 431 262 405 313 280 191 152 89 63 113 60 149 240 168
is_linear=0
shrinkage=0.05


Tree=6
num_leaves=31
num_cat=0
split_feature=20 18 22 4 2 2 4 26 30 9 2 26 17 8 24 4 26 2 30 21 4 26 8 4 22 9 4 34 32 4
split_gain=172240 13051.6 12438.5 6915.01 6953.85 5394.98 3425.32 3238.68 2827.63 2499.18 2331.48 2298.96 2216.4 1841.44 1817.33 1746.71 3913.59 3242.35 1744.7 1737.98 1709.29 1667.01 1666.54 1609.3 1846.83 1875.66 1563.46 1857.29 1552.68 1403.2
threshold=158.35714285714286 101.50000000000001 174.78571428571431 696.86458333333337 0.96481250000000018 0.8821041666666668 649.79166666666686 33008.30000000001 24254.271428571428 0.30631250000000004 0.88097916666666676 20822.350000000002 137.50000000000003 0.18435416666666662 187.94642857142858 678.96458333333339 30625.950000000001 0.94079166666666669 30917.221428571433 13.373748154037514 644.36875000000009 24748.050000000007 0.21514583333333334 658.86666666666679 193.67857142857147 0.39677083333333335 691.0562500000002 32013.955357142859 29363.117857142857 637.50833333333344
decision_type=2 2 2 2 2 2 2 2 2 2 2 2 2 2 2 2 2 2 2 2 2 2 2 2 2 2 2 2 2 2
left_child=1 -1 -2 4 5 26 8 10 9 -7 -5 -8 -3 -12 -11 17 18 19 -17 21 -6 -13 -18 24 25 -19 -4 -28 -21 -16
right_child=2 12 3 7 20 6 11 -9 -10 14 13 15 -14 -15 29 16 22 23 -20 28 -22 -23 -24 -25 -26 -27 27 -29 -30 -31
leaf_value=-3.3493991851806642 -0.95399068040507184 -2.1430477019718714 -0.27611186898036583 0.056535380768279235 0.15971280641853811 0.53290249258279798 0.53940491368994115 0.13543796489129262 -0.54070931761353103 -0.3949174188303225 0.8958835802972317 0.19963054384570569 -1.5401081781696391 0.46996327479651506 -0.20128346857890278 0.39818501149314228 0.12632868206917733 0.1021457810565585 0.075348694912261441 0.12685873716540591 0.55321599919809383 -0.19218283273987266 -0.1955549795852333 0.27031411865255656 -0.09930696286585021 0.5626971582571666 0.2419202658310029 -0.35612204954028132 -0.31969472314654429 0.050702538381678514
leaf_weight=20 28 35 148 24 40 20 32 98 27 33 36 32 27 86 71 186 118 122 54 169 89 179 61 194 92 27 37 20 22 249
leaf_count=20 28 35 148 24 40 20 32 98 27 33 36 32 27 86 71 186 118 122 54 169 89 179 61 194 92 27 37 20 22 249
internal_value=0.0129129 -2.23875 0.0933996 0.106342 0.076 0.0517946 0.0812104 0.35778 -0.0465989 -0.0108322 0.507024 0.120903 -1.88048 0.595645 -0.0416387 0.11024 0.193578 0.0685216 0.325547 -0.0338475 0.4312 -0.132761 0.0166365 0.163125 0.0768397 0.185601 -0.190419 0.0320809 0.0754233 -0.00520686
internal_weight=2376 82 2294 2266 2022 1893 1688 244 400 373 146 1288 62 122 353 1256 419 837 240 402 129 211 179 435 241 149 205 57 191 320
internal_count=2376 82 2294 2266 2022 1893 1688 244 400 373 146 1288 62 122 353 1256 419 837 240 402 129 211 179 435 241 149 205 57 191 320
is_linear=0
shrinkage=0.05


Tree=7
num_leaves=31
num_cat=0
split_feature=1 1 19 22 1 4 1 26 5 4 26 22 26 20 0 1 7 35 15 26 4 5 4 16 10 9 4 8 26 29
split_gain=157896 21262.3 12572.6 6527.32 5884.06 3520.09 3380.19 2376.85 2258.03 2133.5 2320.99 2093.17 1981.6 1840.19 1631.37 1594.44 1497.5 1323.49 1198.69 1480.48 1692.15 1665.37 1476.65 1176.46 1872.45 2243.43 1695.93 1290.93 1158.01 1152.5
threshold=6.8901875000000006 7.8641250000000005 88.500000000000014 180.07142857142858 8.2427291666666687 696.29791666666677 7.5030625000000013 32903.100000000006 3.3665833333333337 691.64791666666667 31785.600000000002 193.82142857142858 20822.350000000002 201.92857142857147 0.29181250000000009 8.5615625000000026 0.20543749999999997 2554.1083650503292 231.50000000000003 28396.350000000002 657.46041666666667 3.9939791666666671 670.20208333333346 200.50000000000003 8.1604166666666682 0.35743750000000002 650.48958333333337 0.19572916666666668 29817.500000000004 32878.600000000006
decision_type=2 2 2 2 2 2 2 2 2 2 2 2 2 2 2 2 2 2 2 2 2 2 2 2 2 2 2 2 2 2
left_child=2 3 -1 -2 5 11 16 14 -4 12 17 23 -8 15 -7 -6 -5 -11 22 20 21 -20 -13 26 -25 -26 27 -3 -24 -14
right_child=1 4 8 6 13 7 9 -9 -10 10 -12 18 29 -15 -16 -17 -18 -19 19 -21 -22 -23 28 24 25 -27 -28 -29 -30 -31
leaf_value=-3.1892564868927007 -0.76584322347360501 -0.19544432005461526 -1.979315235501244 -0.1797825867177677 0.38370204183852441 0.98573166366134368 0.22114134816423295 0.16634872365815967 -1.3713536868492762 0.50605938937149797 -0.080359416392942279 -0.27627821625961413 -0.054673214774209493 0.026128102093935013 0.4415151422098279 0.71931602355092772 -0.63017303824424742 0.034428951853797553 -0.26391450869185584 -0.26975128245116636 0.45404457685194521 0.20067745966296041 0.30103173754338564 -0.069882559284721465 0.0039248913526535034 0.68411588208241902 0.29228196821804414 0.17165951515421457 -0.099144201372594887 -0.34108578670573864
leaf_weight=20 34 34 42 239 307 21 63 51 24 51 48 62 464 32 40 40 20 21 28 22 38 62 29 97 27 22 271 81 48 38
leaf_count=20 34 34 42 239 307 21 63 51 24 51 48 62 464 32 40 40 20 21 28 22 38 62 29 97 27 22 271 81 48 38
internal_value=0.0122673 0.0912558 -2.09103 -0.0852077 0.222796 0.155309 -0.0606933 0.418257 -1.75824 -0.00251524 0.188957 0.119438 -0.0431818 0.388932 0.628868 0.42239 -0.214562 0.368501 0.0111187 0.109144 0.174266 0.0561377 -0.0946637 0.178281 0.057383 0.309317 0.22401 0.0631245 0.0515714 -0.0763538
internal_weight=2376 2290 86 978 1312 933 944 112 66 685 120 821 565 379 61 347 259 72 289 150 128 90 139 532 146 49 386 115 77 502
internal_count=2376 2290 86 978 1312 933 944 112 66 685 120 821 565 379 61 347 259 72 289 150 128 90 139 532 146 49 386 115 77 502
is_linear=0
shrinkage=0.05


Tree=8
num_leaves=31
num_cat=0
split_feature=18 3 18 3 19 4 24 32 24 2 4 30 22 4 2 13 18 35 6 30 22 27 17 4 30 30 20 10 10 4
split_gain=140960 14618.7 9767.56 8207.54 4943.83 3999.38 2461.48 1871.38 1855.6 1752.4 1658.68 1639.66 1723.92 1645.76 1795.97 1531.4 1317.25 1245.95 1221.74 1199.79 1548.61 1148.39 1330.98 1328.01 2408.2 1938.13 1393.05 1301.86 1381.47 1776.23
threshold=147.50000000000003 0.73927083333333343 101.50000000000001 0.71402083333333344 164.50000000000003 700.07083333333355 180.41071428571431 32390.63571428572 192.66071428571431 0.96481250000000018 675.27083333333337 21361.807142857146 189.75000000000003 644.90208333333351 0.8821041666666668 12.500000000000002 132.50000000000003 2040.4172658653749 0.30456250000000001 22490.357142857149 194.39285714285717 22023.550000000003 208.50000000000003 672.50416666666672 28098.578571428578 25982.285714285721 192.21428571428575 7.5770833333333343 7.8020833333333348 664.67083333333346
decision_type=2 2 2 2 2 2 2 2 2 2 2 2 2 2 2 2 2 2 2 2 2 2 2 2 2 2 2 2 2 2
left_child=2 3 -1 8 -3 6 -5 -7 15 10 -10 12 -8 17 -15 -2 -4 -13 19 -17 -21 -16 23 25 -25 27 -26 -23 -29 -30
right_child=1 4 16 5 -6 7 11 -9 9 -11 -12 13 -14 14 21 18 -18 -19 -20 20 -22 22 -24 24 26 -27 -28 28 29 -31
leaf_value=-3.0315409135818481 0.52046844464567332 -1.1212334293127062 -1.9884323876479577 -0.47414153347844662 -0.27849145979662215 0.46132879795397036 -0.08335715107442368 -0.065760721479143414 -0.003507517795779009 0.45068634032056887 0.27914295821683482 -0.052297414160099157 0.46527975724803083 -0.099365997063800893 0.233050052835307 0.52110762830291479 -1.5118698514741045 -0.42778729747694277 0.64525262434035546 0.24082360709125694 -0.24369904756546024 -0.14178945836813556 0.21704306539902385 0.35042078046128156 0.1565078055731168 -0.17929397311110273 -0.048804519173190085 0.43487378241760394 -5.6331020525910642e-05 0.4161761823296547
leaf_weight=20 111 20 29 23 134 85 21 21 113 52 96 147 45 162 109 28 29 26 20 94 20 69 121 80 152 134 181 28 176 30
leaf_count=20 111 20 29 23 134 85 21 21 113 52 96 147 45 162 109 28 29 26 20 94 20 69 121 80 152 134 181 28 176 30
internal_value=0.0116539 0.0826063 -2.07871 0.116405 -0.387938 0.0600641 0.0391431 0.356905 0.286271 0.190947 0.126322 0.0471144 0.290713 0.0357522 0.0558773 0.377405 -1.75015 -0.108729 0.27938 0.227848 0.15582 0.0791638 0.0618892 0.0398026 0.10409 -0.0209543 0.0449116 0.0490705 0.10535 0.0605601
internal_weight=2376 2298 78 2144 154 1610 1504 106 534 261 209 1481 66 1415 1242 273 58 173 162 142 114 1080 971 850 413 437 333 303 234 206
internal_count=2376 2298 78 2144 154 1610 1504 106 534 261 209 1481 66 1415 1242 273 58 173 162 142 114 1080 971 850 413 437 333 303 234 206
is_linear=0
shrinkage=0.05


Tree=9
num_leaves=31
num_cat=0
split_feature=1 1 17 24 1 4 1 26 24 22 4 26 26 0 7 1 26 4 30 26 6 20 33 15 26 4 23 31 1 16
split_gain=128878 17842.1 10643.7 5383.23 4987.82 2984.1 2870.75 2116.49 1940.27 1825.78 1812.74 1949.34 1576.93 1475.92 1326 1273.72 1241.5 1799.34 1430.19 1219.97 1994.78 1190.55 1190.45 1128.44 1543.02 1332.28 1223.88 1741.58 1100.61 1086.29
threshold=6.8901875000000006 7.8641250000000005 120.00000000000001 180.41071428571431 8.2427291666666687 696.29791666666677 7.5030625000000013 32903.100000000006 190.83928571428575 194.39285714285717 694.91041666666672 31785.600000000002 20822.350000000002 0.29181250000000009 0.20543749999999997 5.9808750000000019 33008.30000000001 679.64375000000007 29887.228571428572 26816.150000000005 0.26785416666666667 201.92857142857147 2094.478803053194 258.50000000000006 24990.950000000001 651.02083333333337 12.189889523429414 1825.1038099998291 8.5615625000000026 200.50000000000003
decision_type=2 2 2 2 2 2 2 2 2 2 2 2 2 2 2 2 2 2 2 2 2 2 2 2 2 2 2 2 2 2
left_child=2 3 -1 -2 5 9 14 13 -6 29 12 -12 -8 -7 -5 -4 17 19 -19 22 -21 28 -14 26 25 -25 -11 -28 -10 -3
right_child=1 4 15 6 8 7 10 -9 21 23 11 -13 16 -15 -16 -17 -18 18 -20 20 -22 -23 -24 24 -26 -27 27 -29 -30 -31
leaf_value=-2.7114142029373736 -0.67079906238091969 0.19688636080350946 -1.7745886839353124 -0.16494243400771499 0.6022579137574543 0.9210752279985519 0.20626362171911061 0.14518686321874461 0.30328071477512519 0.10367464661598205 0.46811769619584087 -0.046826401221401553 -0.10850715761487928 0.4034357921592891 -0.58875951245427138 -1.3066503871570934 -0.43491835636751991 0.32332908154154816 -0.00038363388029195498 -0.56462769821724468 -0.096707435411171647 0.014973349915817381 0.143330691947091 0.060865902275808396 -0.10326556048315505 0.54128410816192629 -0.55995656687479756 -0.070033209311465436 0.62854872859757527 0.044380940997145887
leaf_weight=27 37 425 26 239 66 21 63 51 252 45 40 34 193 40 20 33 21 48 118 34 69 32 62 31 46 27 26 60 29 161
leaf_count=27 37 425 26 239 66 21 63 51 252 45 40 34 193 40 20 33 21 48 118 34 69 32 62 31 46 27 26 60 29 161
internal_value=0.0110712 0.0824332 -1.88915 -0.0792158 0.202931 0.140796 -0.0559548 0.382898 0.355891 0.107768 -0.00213647 0.231522 -0.0305751 0.58164 -0.19767 -1.51286 -0.0579528 -0.0428454 0.09322 -0.105937 -0.251167 0.303942 -0.047276 -0.00997535 0.112993 0.284509 -0.107599 -0.21815 0.336849 0.154986
internal_weight=2376 2290 86 978 1312 933 941 112 379 821 682 74 608 61 259 59 545 524 166 358 103 313 255 235 104 58 131 86 281 586
internal_count=2376 2290 86 978 1312 933 941 112 379 821 682 74 608 61 259 59 545 524 166 358 103 313 255 235 104 58 131 86 281 586
is_linear=0
shrinkage=0.05


Tree=10
num_leaves=31
num_cat=0
split_feature=18 1 17 1 4 16 22 3 5 22 26 5 34 16 3 35 9 3 10 33 15 4 26 9 26 4 1 3 15 6
split_gain=114221 12742.8 8044.23 5278.8 4371.52 2536.35 2353.67 2213.78 2047.26 1782.9 1566.35 1488.77 1669.35 1536.47 1392.13 1292.88 1444.67 1292.11 1348.33 1275.62 1238.99 1483.97 1341.24 1234.64 1232.32 1227.12 1218.64 1166.89 1283.97 1164.98
threshold=150.50000000000003 7.6157916666666674 120.00000000000001 8.2313125000000031 699.1791666666669 185.50000000000003 174.78571428571431 0.71881250000000019 3.9418749999999996 197.67857142857147 32076.300000000003 4.1493958333333341 23354.035714285717 206.50000000000003 0.74602083333333347 1357.7986417487796 0.30543749999999997 0.73452083333333351 7.9041666666666677 2229.6470868072442 198.50000000000003 688.36666666666679 23461.700000000004 0.34412500000000007 20720.600000000002 703.34583333333342 7.9716041666666673 0.71318750000000009 240.50000000000003 0.28381250000000002
decision_type=2 2 2 2 2 2 2 2 2 2 2 2 2 2 2 2 2 2 2 2 2 2 2 2 2 2 2 2 2 2
left_child=2 6 -1 4 5 8 -2 19 20 11 15 12 -5 25 -8 -7 -17 18 27 -6 21 -3 -22 -24 -10 -14 -20 -18 29 -29
right_child=1 3 -4 9 7 10 14 -9 24 -11 -12 -13 13 -15 -16 16 17 -19 26 -21 22 -23 23 -25 -26 -27 -28 28 -30 -31
leaf_value=-2.4506371402740479 -0.63177695411902213 0.084390428921941554 -1.4327967266602952 0.096975039527154513 0.93742227196693428 0.41785743073983633 -0.11694812505463983 0.19299193215157306 0.16977706802064096 0.015443653159774841 -0.15541355327024298 0.61390078081971122 0.39030804235984884 0.13320989724662569 -0.50223345983028411 0.32157533571124075 0.17718911955231115 0.33414872586727146 -0.022334121297693479 0.42524588420506454 0.67831395638400116 0.409037184342742 0.58243259072303777 0.099241997148746097 -0.11859700098633766 0.80725129306316379 0.15353013658491166 -0.31180922569024683 0.0040916198029600347 0.0015274133001055039
leaf_weight=30 26 132 55 78 20 22 377 70 69 50 118 42 150 54 25 40 38 30 212 31 29 48 20 39 80 20 184 101 116 42
leaf_count=30 26 132 55 78 20 22 377 70 69 50 118 42 150 54 25 40 38 30 212 31 29 48 20 39 80 20 184 101 116 42
internal_value=0.007358 0.0749445 -1.79203 0.132246 0.0879017 0.0615347 -0.170728 0.375541 0.163526 0.294428 0.0144358 0.334978 0.296187 0.365556 -0.140909 0.0399672 0.0290713 0.0128885 -0.00101884 0.626099 0.246133 0.170963 0.399889 0.263035 0.0149454 0.43936 0.0593806 -0.0815514 -0.119513 -0.21978
internal_weight=2348 2263 85 1835 1441 1320 428 121 417 394 903 344 302 224 402 785 763 723 693 51 268 180 88 59 149 170 396 297 259 143
internal_count=2348 2263 85 1835 1441 1320 428 121 417 394 903 344 302 224 402 785 763 723 693 51 268 180 88 59 149 170 396 297 259 143
is_linear=0
shrinkage=0.05


Tree=11
num_leaves=31
num_cat=0
split_feature=19 1 17 4 1 16 4 31 3 3 5 24 5 34 10 9 30 28 4 22 24 30 4 30 23 33 23 4 16 19
split_gain=102990 10624.4 8422.77 4631.96 4184.42 2231.21 2394.01 1925.82 2290.23 1864.27 1725.48 1614.15 1670.04 1629.67 1394.39 1678.01 1430.75 1306.24 1271.28 1205.4 1356.37 1214.26 1323.73 1216.31 1187.86 1153.58 1564.62 1149.73 1097.51 1093.87
threshold=146.50000000000003 7.6579375000000001 120.00000000000001 699.1791666666669 8.2313125000000031 188.50000000000003 659.10625000000016 2922.9105675874134 0.71881250000000019 0.74602083333333347 3.402270833333334 190.26785714285717 4.1493958333333341 22670.287500000002 7.9041666666666677 0.37420833333333337 21496.04285714286 27332.500000000004 665.38750000000016 191.32142857142858 187.26785714285717 23469.67142857143 674.96458333333351 31587.38571428572 13.834977082850704 1625.7395765991275 16.021105552279213 637.05208333333348 204.50000000000003 172.50000000000003
decision_type=2 2 2 2 2 2 2 2 2 2 2 2 2 2 2 2 2 2 2 2 2 2 2 2 2 2 2 2 2 2
left_child=2 9 -1 4 5 6 27 8 28 19 -4 -6 13 -13 16 -16 -7 18 -8 20 -2 -21 -23 -24 -20 -15 -27 -3 -5 -29
right_child=1 3 10 7 11 14 17 -9 -10 -11 -12 12 -14 25 15 -17 -18 -19 24 21 -22 22 23 -25 -26 26 -28 29 -30 -31
leaf_value=-2.328105289141337 -0.31144066894840866 -0.25237318527313973 -1.5045580796706373 0.74223602099965014 0.56361010731794892 0.33912844449281693 0.17152376539177366 0.076935318786473514 0.21527582726695324 -0.5000432033091784 -0.95076641494577585 -0.065196521776287181 0.49445600058249339 0.49444687440991403 0.0040151313270131743 0.22524309589217109 -0.097371711971822622 0.16655706712919655 0.79911892987214606 0.067707057846219929 0.021204480282889987 -0.3973610527247568 0.038958053052839309 -0.30153163019932955 0.33369503858788263 0.10823574359892518 0.53368056172934863 -0.25287992280462518 0.32225234196299601 0.11180438052133186
leaf_weight=30 36 31 39 60 39 20 36 42 55 32 22 57 47 36 300 120 306 165 26 38 206 79 54 51 29 128 26 23 21 194
leaf_count=30 36 31 39 60 39 20 36 42 55 32 22 57 47 36 300 120 306 165 26 38 206 79 54 51 29 128 26 23 21 194
internal_value=0.0069901 0.0734827 -1.64217 0.131055 0.103863 0.0619054 0.143177 0.372882 0.464277 -0.130924 -1.30483 0.261363 0.221269 0.169286 0.00699804 0.0672231 -0.0705926 0.250434 0.402518 -0.105467 -0.0282799 -0.189608 -0.242749 -0.126423 0.553714 0.239631 0.180064 0.0324607 0.633351 0.0731512
internal_weight=2348 2257 91 1761 1583 1250 504 178 136 496 61 333 294 247 746 420 326 256 91 464 242 222 184 105 55 190 154 248 81 217
internal_count=2348 2257 91 1761 1583 1250 504 178 136 496 61 333 294 247 746 420 326 256 91 464 242 222 184 105 55 190 154 248 81 217
is_linear=0
shrinkage=0.05


Tree=12
num_leaves=31
num_cat=0
split_feature=18 1 27 1 4 22 26 3 24 4 26 26 4 5 27 15 19 2 30 11 24 4 19 17 3 25 21 5 3 21
split_gain=93532.5 11527.5 5114.12 4183.66 3594.26 3240.5 2037.73 1805.94 1622.43 1505.42 2044.61 1654.19 2442.86 1641.68 2185.56 1409.23 1334.65 1303.47 1693.05 1766.89 1281.62 1227.75 1213.81 1671.08 1604.69 1177.48 1165.53 1157.87 1247.1 1129.95
threshold=143.50000000000003 7.6157916666666674 18804.350000000002 8.2313125000000031 699.1791666666669 174.78571428571431 32076.300000000003 0.71881250000000019 191.37500000000003 670.20208333333346 27015.500000000004 24748.050000000007 664.94583333333344 3.9036666666666675 27193.450000000001 321.50000000000006 203.50000000000003 0.95039583333333344 21361.807142857146 2017.5000000000002 190.37500000000003 637.05208333333348 188.50000000000003 190.50000000000003 0.72347916666666678 12.676766023685982 13.533028380331805 4.1493958333333341 0.70712500000000011 17.524132545760175
decision_type=2 2 2 2 2 2 2 2 2 2 2 2 2 2 2 2 2 2 2 2 2 2 2 2 2 2 2 2 2 2
left_child=2 5 -1 4 6 -2 9 26 -5 11 -11 12 17 14 -13 -16 27 -3 19 -19 -12 -20 25 24 -24 -22 -6 28 -10 -23
right_child=1 3 -4 8 7 -7 -8 -9 16 10 20 13 -14 -15 15 -17 -18 18 21 -21 22 29 23 -25 -26 -27 -28 -29 -30 -31
leaf_value=-2.361388735337691 -0.64310950535264888 0.20263499574114882 -1.4570023576418558 0.43402030609765102 0.81060736759006979 -0.12775022570903485 -0.14063554740821324 0.17566329992243224 0.028572924702893944 0.40010967216845872 0.26718639214470813 -0.35221674874788378 0.58357558222082651 0.094267722405493262 -0.17357213529092927 0.35463294166585674 -0.011494620767389906 0.53266453762849175 -0.27322105467319491 -0.0056028892917017788 0.14588397438779022 -0.023762400907497587 0.51082889900675843 -0.0025999271055208704 0.027246133006852247 -0.22382131608263142 0.33246180896575633 0.52618979605681759 0.29622794245241335 0.28557682163787612
leaf_weight=22 33 120 54 103 25 403 120 70 64 69 89 82 23 80 28 23 58 30 44 31 33 280 42 102 29 62 26 34 136 33
leaf_count=22 33 120 54 103 25 403 120 70 64 69 89 82 23 80 28 23 58 30 44 31 33 280 42 102 29 62 26 34 136 33
internal_value=0.00664059 0.0643577 -1.7188 0.119241 0.0797247 -0.166757 0.0558164 0.340542 0.263401 0.0754616 0.150949 0.0339143 0.0789546 -0.0847128 -0.19237 0.064638 0.203217 0.0573816 0.015682 0.259119 0.102792 -0.0259136 0.0481978 0.127051 0.313309 -0.0953974 0.566847 0.256436 0.210578 0.00885164
internal_weight=2348 2272 76 1836 1441 436 1320 121 395 1200 426 774 561 213 133 51 292 538 418 61 357 357 268 173 71 95 51 234 200 313
internal_count=2348 2272 76 1836 1441 436 1320 121 395 1200 426 774 561 213 133 51 292 538 418 61 357 357 268 173 71 95 51 234 200 313
is_linear=0
shrinkage=0.05


Tree=13
num_leaves=31
num_cat=0
split_feature=18 3 17 4 3 26 11 20 7 29 30 4 11 5 26 4 10 4 26 4 32 5 32 17 22 4 10 33 22 2
split_gain=84415.4 6677.75 5922.04 4134.52 2911.87 2180.35 2179.28 1868.82 1556.83 1429.65 1407.7 2306.08 2182.6 1585.55 1498.03 2241.46 1434.3 1384.58 1484.37 1745.31 1471.48 1766.6 1272.1 1216.41 1192.32 1197.41 1312.84 1166.58 1330.2 1154.31
threshold=150.50000000000003 0.73927083333333343 120.00000000000001 699.1791666666669 0.71064583333333342 32005.650000000005 2019.5000000000002 190.35714285714286 0.19829166666666667 31219.900000000005 21361.807142857146 652.98958333333337 2017.5000000000002 3.874729166666667 29120.800000000003 678.06458333333342 8.2020833333333361 672.50416666666672 24748.050000000007 664.94583333333344 25997.282142857148 3.815958333333334 28297.710714285717 198.50000000000003 193.32142857142858 656.4312500000002 7.8104166666666677 1238.8586277114819 195.25000000000003 0.95887500000000003
decision_type=2 2 2 2 2 2 2 2 2 2 2 2 2 2 2 2 2 2 2 2 2 2 2 2 2 2 2 2 2 2
left_child=2 3 -1 4 9 10 7 -5 -3 24 12 13 -6 -12 17 16 -16 18 19 -13 -19 -22 -17 -8 25 -2 -27 -15 29 -29
right_child=1 8 -4 6 5 -7 23 -9 -10 -11 11 14 -14 27 15 22 -18 20 -20 -21 21 -23 -24 -25 -26 26 -28 28 -30 -31
leaf_value=-2.1056890741984051 0.15910043536939406 -0.19612972080134428 -1.2323692521181975 0.86315962530317769 0.55044615748855807 -0.14075681282403438 -0.03736574818503182 0.34519973975770618 -0.64611447064772909 -0.17658117165168127 -0.32751643626910187 0.11361843149401654 0.01989397807490258 0.31335148382186895 -0.39479756703972818 0.4419266464809577 0.097609615893591017 0.6425626105815172 -0.0022367077299868727 0.49446645110017723 0.24669144223630429 -0.21941956857462294 0.03501806383662754 0.4122887820005417 0.14372829424759345 0.25165501191760553 0.67308473657994039 -0.065038564521819359 -0.24461496070027355 0.14441924232124079
leaf_weight=30 44 117 55 21 36 152 53 102 23 21 46 183 42 25 50 21 21 20 249 36 175 23 225 21 122 33 42 196 65 99
leaf_count=30 44 117 55 21 36 152 53 102 23 21 46 183 42 25 50 21 21 20 249 36 175 23 225 21 122 33 42 196 65 99
internal_value=0.00630856 0.0644116 -1.5406 0.0864679 0.0641521 0.039757 0.304642 0.433632 -0.270056 0.219089 0.0579039 0.0466521 0.264764 -0.0500742 0.0882164 -0.00167367 -0.249156 0.129755 0.0812736 0.176224 0.233833 0.192547 0.0697542 0.0902389 0.253566 0.366173 0.487656 -0.0169253 -0.0398612 0.00525406
internal_weight=2348 2263 85 2123 1926 1664 197 123 140 262 1512 1434 78 431 1003 317 71 686 468 219 218 198 246 74 241 119 75 385 360 295
internal_count=2348 2263 85 2123 1926 1664 197 123 140 262 1512 1434 78 431 1003 317 71 686 468 219 218 198 246 74 241 119 75 385 360 295
is_linear=0
shrinkage=0.05


Tree=14
num_leaves=31
num_cat=0
split_feature=22 3 27 4 3 11 20 15 16 24 20 4 24 5 14 4 4 29 33 21 30 20 19 33 13 17 30 11 7 33
split_gain=76403.4 6137.46 4998.54 3758.94 2697.52 1966.8 1852.14 2152.95 2058.07 1722.08 1686.61 1571.92 1552.05 1493.59 1435.93 1392.26 1380.87 1376.51 1332.7 1294.82 1248.41 1212.95 1165.54 1147.49 1135.25 1097.81 1084.78 2082.87 1056.31 1041.91
threshold=149.28571428571431 0.73927083333333343 18804.350000000002 699.1791666666669 0.71497916666666672 2019.5000000000002 192.07142857142858 174.50000000000003 184.50000000000003 190.23214285714289 190.35714285714286 657.66666666666686 180.41071428571431 4.1216875000000011 3.5000000000000004 660.75833333333344 647.63125000000014 21937.300000000003 1622.2842731406324 17.524132545760175 25357.864285714288 180.50000000000003 176.50000000000003 1273.3026168063286 5.5000000000000009 198.50000000000003 21361.807142857146 2017.5000000000002 0.19460416666666666 2088.8774813509517
decision_type=2 2 2 2 2 2 2 2 2 2 2 2 2 2 2 2 2 2 2 2 2 2 2 2 2 2 2 2 2 2
left_child=2 3 -1 4 9 10 12 8 -8 -2 -5 19 -6 15 -4 -11 -15 -3 -17 23 -13 -14 -10 -9 -19 -7 27 -23 -26 -24
right_child=1 17 14 5 6 25 7 11 22 13 -12 20 21 16 -16 18 -18 24 -20 -21 -22 26 29 -25 28 -27 -28 -29 -30 -31
leaf_value=-2.1380348205566406 0.38339486329539407 -0.64445051744580273 -1.0502354111841747 0.8200016345296588 -0.3188640255481005 -0.035497461287480485 0.1007527320412919 0.25131625235080718 0.037735752910375599 -0.041031011175364257 0.32793975435927808 0.35344260936533967 0.45536522756923326 0.011753409639710471 -1.5463804187774659 0.47070979814355574 0.50639683035917071 0.13750409895465487 0.1114501583254015 0.30720984521119493 0.059002085099065751 0.6067966922565744 -0.42843732379943789 -0.13169272285886111 -0.18506245765410648 0.39167433696843329 0.061168117969424868 0.0014615307996670406 -0.59183886229991911 -0.17480485806792823
leaf_weight=22 74 20 35 21 24 53 64 22 35 140 102 54 22 21 25 30 43 21 185 23 108 27 69 176 79 21 684 30 20 98
leaf_count=22 74 20 35 21 24 53 64 22 35 140 102 54 22 21 25 30 43 21 185 23 108 27 69 176 79 21 684 30 20 98
internal_value=0.00599314 0.06025 -1.49335 0.0813662 0.0601197 0.28941 0.0254753 -0.0370557 -0.146331 0.161031 0.41195 0.0388381 0.0770415 0.121759 -1.25696 0.0816767 0.344092 -0.260415 0.161579 -0.0478875 0.157149 0.0894946 -0.224615 -0.0891362 -0.196409 0.085727 0.0786321 0.288199 -0.26724 -0.279599
internal_weight=2348 2266 82 2126 1929 197 1436 649 266 493 123 383 787 419 60 355 64 140 215 221 162 763 202 198 120 74 741 57 99 167
internal_count=2348 2266 82 2126 1929 197 1436 649 266 493 123 383 787 419 60 355 64 140 215 221 162 763 202 198 120 74 741 57 99 167
is_linear=0
shrinkage=0.05


Tree=15
num_leaves=31
num_cat=0
split_feature=17 3 19 4 19 21 29 4 26 4 26 15 18 10 4 18 25 4 7 3 19 29 4 3 34 5 17 35 23 28
split_gain=68846.2 6183.62 5573.83 4269.48 3539.88 2942.75 2698.66 3189.55 2096.8 1973.84 2253.06 1824.29 1656.94 1550.63 1525.42 1513.13 1476.02 1414.44 1385.87 1318.93 1334.8 1316.87 1291.95 1269.1 1250.66 1196.57 1191.18 1624.45 1187.01 1162.39
threshold=150.50000000000003 0.72347916666666678 88.500000000000014 697.2437500000002 158.50000000000003 17.412365557864941 24828.300000000007 678.66041666666672 31866.300000000007 656.20625000000007 25021.850000000002 116.50000000000001 205.50000000000003 8.5812500000000025 670.20208333333346 127.50000000000001 15.292799126472071 668.98750000000007 0.20614583333333339 0.71402083333333344 188.50000000000003 29291.050000000003 665.13333333333344 0.7428541666666667 21851.525000000005 3.5755833333333338 190.50000000000003 2242.4353177967646 15.374982546558423 20249.150000000005
decision_type=2 2 2 2 2 2 2 2 2 2 2 2 2 2 2 2 2 2 2 2 2 2 2 2 2 2 2 2 2 2
left_child=2 3 -1 8 -3 13 17 16 9 12 22 18 24 25 -12 -4 23 -6 -9 -16 -21 -10 -11 28 -2 -5 -22 -28 -8 -26
right_child=1 4 15 5 6 -7 7 11 21 10 14 -13 -14 -15 19 -17 -18 -19 -20 20 26 -23 -24 -25 29 -27 27 -29 -30 -31
leaf_value=-2.1138462591171265 0.26406737936509622 -0.5699610551198323 -1.4487603328846119 0.19117157330115639 0.062287205528261648 -0.037628796862231362 -0.2634399361610314 0.0070784966293389777 0.17432573589806755 0.24843861269519518 -0.04059662496266158 0.30108156170622979 -0.16819414460446641 0.81820063934876375 0.29802201464476569 -0.96183165723028097 0.031076659419034661 0.39464324383685989 -0.4140601816631499 -0.068550583635327178 0.35972943244309263 -0.26090996021863133 0.57006851493619215 -0.62322647131624676 -0.27867168143943505 0.52875035244321067 0.28979324816780933 -0.20654864218086005 0.07036851854814638 0.065886625447772615
leaf_weight=20 74 30 27 45 289 36 189 280 24 114 115 51 82 26 126 39 57 36 21 79 58 63 43 21 27 63 34 32 31 262
leaf_count=20 74 30 27 45 289 36 189 280 24 114 115 51 82 26 126 39 57 36 21 79 58 63 43 21 27 63 34 32 31 262
internal_value=0.00643142 0.0581897 -1.38261 0.130066 -0.0349989 0.363721 -0.0185385 -0.0773588 0.0950071 0.114624 0.173726 0.0245508 0.0348028 0.471546 0.116159 -1.16103 -0.197735 0.099102 -0.0223033 0.170951 0.0920799 -0.140845 0.336528 -0.251853 0.0806588 0.388093 0.194417 0.0491426 -0.216403 0.0336961
internal_weight=2394 2308 86 1303 1005 170 975 650 1133 1046 601 352 445 134 444 66 298 325 301 329 203 87 157 241 363 108 124 66 220 289
internal_count=2394 2308 86 1303 1005 170 975 650 1133 1046 601 352 445 134 444 66 298 325 301 329 203 87 157 241 363 108 124 66 220 289
is_linear=0
shrinkage=0.05


Tree=16
num_leaves=31
num_cat=0
split_feature=24 1 19 1 4 26 10 1 1 24 25 29 16 31 23 2 6 1 21 8 26 4 33 24 16 18 18 24 10 10
split_gain=62707.6 8959.17 5230.66 3009.51 2542.24 2023.44 2151.62 1878.05 1828.57 1757.9 1727.33 1500.22 1405.39 1768.16 1696.06 1516.21 1436.29 1341.29 1589.21 1200.41 1197.56 1331.73 1132 1109.86 1077.07 1044.81 1119.4 1023.04 1011.98 1491.93
threshold=150.57142857142858 7.8224791666666675 88.500000000000014 7.3271666666666677 696.86458333333337 33243.700000000004 8.5812500000000025 8.3346041666666668 6.1730833333333335 195.51785714285717 15.693282004552875 22193.950000000004 187.50000000000003 2454.9043270419884 10.325072878895979 0.95372916666666663 0.25002083333333336 8.0055416666666677 14.842025275740681 0.22485416666666666 33008.30000000001 700.07083333333355 1923.2470586670472 194.37500000000003 194.50000000000003 170.50000000000003 197.50000000000003 192.87500000000003 9.0208333333333357 8.3437500000000018
decision_type=2 2 2 2 2 2 2 2 2 2 2 2 2 2 2 2 2 2 2 2 2 2 2 2 2 2 2 2 2 2
left_child=2 3 -1 25 7 6 -6 10 -4 11 12 -9 13 14 27 19 -17 18 -14 -16 21 -5 -20 24 -12 -2 -27 -3 29 -19
right_child=1 4 8 20 5 -7 -8 9 -10 -11 23 -13 17 -15 15 16 -18 28 22 -21 -22 -23 -24 -25 -26 26 -28 -29 -30 -31
leaf_value=-2.0081539440155032 -0.61434730318459607 0.58193250382319095 -1.2899628118027089 -0.029564404661393075 0.33717677522112027 0.11213542494015434 0.9004442697479611 0.55498586528831062 -0.75879833354399762 -0.17714317249400277 0.13725302405655385 0.2172170716322592 0.045480213414978342 0.54187638398372762 0.3212538017444313 0.13338560033135299 -0.28263389235362413 0.077339901756707713 0.037969439408995886 -0.01792037058097776 -0.2852063696492802 0.33479864663229542 -0.41058423935602878 -0.39464897722005848 -0.20847636606635117 -0.094870651667488037 -0.44684327819158098 0.12607505926862358 -0.20790797350081533 0.29953075900392712
leaf_weight=20 22 32 43 707 88 78 21 45 26 21 50 122 185 33 75 41 42 263 22 40 44 26 39 25 41 58 37 20 22 106
leaf_count=20 22 32 43 707 88 78 21 45 26 21 50 122 185 33 75 41 42 263 22 40 44 26 39 25 41 58 37 20 22 106
internal_value=0.00610985 0.0563936 -1.29618 -0.0674471 0.134858 0.306564 0.445696 0.108625 -1.08981 0.254015 0.0822419 0.308233 0.105167 0.197882 0.152475 0.0857344 -0.0771303 0.0639765 -0.0274944 0.20328 -0.0318486 -0.0166402 -0.248811 -0.0995785 -0.0185152 -0.303858 -0.231955 0.406603 0.121526 0.141167
internal_weight=2394 2305 89 894 1411 187 109 1224 69 188 1036 167 920 283 250 198 83 637 246 115 777 733 61 116 91 117 95 52 391 369
internal_count=2394 2305 89 894 1411 187 109 1224 69 188 1036 167 920 283 250 198 83 637 246 115 777 733 61 116 91 117 95 52 391 369
is_linear=0
shrinkage=0.05


Tree=17
num_leaves=31
num_cat=0
split_feature=24 1 19 1 4 31 1 1 24 25 16 31 23 2 6 1 21 1 26 26 4 8 33 0 24 1 24 33 16 24
split_gain=56593.6 8085.66 4720.67 2716.08 2294.37 1965.07 1694.94 1650.28 1586.5 1558.91 1268.36 1595.77 1530.7 1368.38 1296.25 1210.52 1434.26 1196.36 1722.15 1084.9 1206.58 1083.37 1021.63 1010.5 1001.7 1073.39 1001.65 974.368 972.058 968.192
threshold=150.57142857142858 7.8224791666666675 88.500000000000014 7.3271666666666677 696.86458333333337 2939.2133361746883 8.3346041666666668 6.1730833333333335 195.51785714285717 15.693282004552875 187.50000000000003 2454.9043270419884 10.325072878895979 0.95372916666666663 0.25002083333333336 8.0055416666666677 14.842025275740681 7.9077916666666672 33857.950000000004 33144.750000000007 700.07083333333355 0.22485416666666666 1923.2470586670472 0.3653541666666667 189.41071428571431 7.1419791666666672 194.37500000000003 1728.2835278512046 194.50000000000003 190.80357142857147
decision_type=2 2 2 2 2 2 2 2 2 2 2 2 2 2 2 2 2 2 2 2 2 2 2 2 2 2 2 2 2 2
left_child=2 3 -1 24 6 17 9 -4 -8 10 11 12 -3 21 -15 16 -12 -6 23 20 29 -14 -18 -19 -2 -26 28 -16 -11 -5
right_child=1 4 7 19 5 -7 8 -9 -10 26 15 -13 13 14 27 -17 22 18 -20 -21 -22 -23 -24 -25 25 -27 -28 -29 -30 -31
leaf_value=-1.9077462816238402 -0.49164806753396989 0.38627257443104801 -1.2254646700482037 0.051244013336475804 0.026388352044991088 -0.019482275620102883 0.29282098366331011 -0.72085840220634756 -0.16828601608673732 0.13039037169516085 0.0432062017313532 0.51478257197322275 0.30519111361602946 0.12671632519582424 -0.038881794363260273 0.11544973154638923 0.036070970784534105 0.64737559907576614 0.15271785468059151 -0.28386173418024557 0.31805871604726865 -0.017024353807792068 -0.39005503023329835 0.24306963160634043 -0.46063693218554064 -0.05759554716213694 -0.37491653108596806 -0.52108464539051058 -0.19805254218418425 -0.071296034839078551
leaf_weight=20 40 52 43 247 21 40 167 26 21 50 185 33 75 41 22 391 22 68 38 40 26 40 39 20 24 53 25 20 41 464
leaf_count=20 40 52 43 247 21 40 167 26 21 50 185 33 75 41 22 391 22 68 38 40 26 40 39 20 24 53 25 20 41 464
internal_value=0.00580436 0.0535739 -1.23137 -0.0640747 0.128115 0.291236 0.103194 -1.03532 0.241314 0.0781298 0.0999087 0.187988 0.144851 0.0814477 -0.0732738 0.0607777 -0.0261197 0.375785 0.434018 -0.0302562 -0.0164919 0.193116 -0.23637 0.555488 -0.288665 -0.183219 -0.0945996 -0.268502 -0.0175894 -0.0287259
internal_weight=2394 2305 89 894 1411 187 1224 69 188 1036 920 283 250 198 83 637 246 147 126 777 737 115 61 88 117 77 116 42 91 711
internal_count=2394 2305 89 894 1411 187 1224 69 188 1036 920 283 250 198 83 637 246 147 126 777 737 115 61 88 117 77 116 42 91 711
is_linear=0
shrinkage=0.05


Tree=18
num_leaves=31
num_cat=0
split_feature=20 1 27 1 4 31 1 1 3 33 16 20 26 4 27 31 16 8 33 8 4 16 26 4 30 26 4 20 4 29
split_gain=51111.4 7147.1 4655.6 2248.6 2076.12 1827.9 1582.86 1527.59 1396.55 1384.94 1340.67 1313.42 1050.29 1039.46 1878.27 1168.36 1144.6 1486.83 1074.89 1048.44 1038.7 980.653 979.125 1149.28 2353.51 1289.75 1211.24 1285.22 1062.02 1463.15
threshold=161.85714285714289 7.8224791666666675 18281.700000000004 7.3271666666666677 697.2437500000002 2939.2133361746883 6.1730833333333335 8.4331041666666682 0.71910416666666677 1575.2169257666999 213.50000000000003 193.07142857142858 33243.700000000004 655.35000000000014 21558.550000000003 2434.7015410884992 188.50000000000003 0.21874999999999997 2359.8301629645916 0.24625 665.13333333333344 195.50000000000003 33144.750000000007 678.66041666666672 29949.685714285719 21297.200000000004 639.10833333333346 189.21428571428575 652.35833333333346 24982.450000000004
decision_type=2 2 2 2 2 2 2 2 2 2 2 2 2 2 2 2 2 2 2 2 2 2 2 2 2 2 2 2 2 2
left_child=2 3 -1 -2 7 8 -4 9 12 11 13 20 -6 15 -15 19 17 18 -16 -11 -3 -13 23 25 -25 26 -5 -28 -27 -30
right_child=1 4 6 22 5 -7 -8 -9 -10 10 -12 21 -14 14 16 -17 -18 -19 -20 -21 -22 -23 -24 24 -26 28 27 -29 29 -31
leaf_value=-1.8041428390003387 -0.2665381797311599 0.22475267014039368 -1.1528669181324187 -0.12241363244898179 0.59894387746850652 -0.018508152738213542 -0.67258394329070015 0.27989141458891476 0.1268884488663008 -0.093264270531825538 -0.19153613113556747 -0.06946369258325491 0.2629977489135375 0.49540170596687699 0.19016088893971383 0.34496972803026438 0.03089554487717059 -0.021611908404156568 0.52367240088326594 0.25066236150264742 0.59155158711516342 0.20006354360238598 -0.26966864403337237 0.35502339315467646 -0.0090666248188919826 -0.23302626919236272 0.56388070739450913 0.060481781419366602 0.094276793872084583 -0.1439780001735522
leaf_weight=21 114 120 42 34 60 40 29 106 43 195 54 67 38 29 78 20 354 56 35 25 23 68 40 56 214 111 21 32 107 162
leaf_count=21 114 120 42 34 60 40 29 106 43 195 54 67 38 29 78 20 354 56 35 25 23 68 40 56 214 111 21 32 107 162
internal_value=0.00551414 0.0516999 -1.15013 -0.0591683 0.12171 0.279814 -0.956695 0.0984437 0.364445 0.081332 0.0495165 0.178152 0.468679 0.0659519 0.103722 -0.0209191 0.0820035 0.189058 0.293461 -0.0541817 0.283748 0.0662982 -0.0287433 -0.0156673 0.0664483 -0.0631432 0.110515 0.259942 -0.102902 -0.0492075
internal_weight=2394 2302 92 891 1411 181 71 1230 141 1124 846 278 98 792 552 240 523 169 113 220 143 135 777 737 270 467 87 53 380 269
internal_count=2394 2302 92 891 1411 181 71 1230 141 1124 846 278 98 792 552 240 523 169 113 220 143 135 777 737 270 467 87 53 380 269
is_linear=0
shrinkage=0.05


Tree=19
num_leaves=31
num_cat=0
split_feature=18 3 17 4 18 3 30 33 24 26 21 18 13 33 26 4 23 22 5 17 28 0 5 11 9 26 17 23 19 13
split_gain=46319.8 4826.62 3189.03 2925.35 2411.65 2058.07 1556.54 1459.08 1375.09 1332.41 1246.77 998.395 1281.97 1280.32 1120.47 2188.06 1459.77 1387.72 1251.4 1726.59 1520.58 1676.15 1273.39 1194.36 1211.84 1193.4 1207.43 1056.71 1007.05 989.029
threshold=143.50000000000003 0.7399583333333335 110.50000000000001 700.91041666666683 170.50000000000003 0.71402083333333344 32624.592857142863 1369.4790828143462 193.41071428571431 24917.650000000005 16.874888826587988 218.50000000000003 1.5000000000000002 1981.0286929519787 29280.900000000005 672.50416666666672 10.045500149464969 198.03571428571431 3.8977708333333334 207.50000000000003 24834.200000000004 0.74185416666666681 3.9394375000000004 2016.5000000000002 0.38939583333333344 29585.250000000004 211.50000000000003 10.825032028760724 194.50000000000003 12.500000000000002
decision_type=2 2 2 2 2 2 2 2 2 2 2 2 2 2 2 2 2 2 2 2 2 2 2 2 2 2 2 2 2 2
left_child=2 3 -1 5 -3 8 10 -7 29 -6 -5 12 13 -9 15 17 -16 18 19 23 21 22 -20 -14 -25 -18 27 -27 -22 -2
right_child=1 4 -4 6 9 7 -8 11 -10 -11 -12 -13 14 -15 16 -17 25 -19 20 -21 28 -23 -24 24 -26 26 -28 -29 -30 -31
leaf_value=-1.7132730376152765 0.32016130748285876 -0.70030206460505728 -0.99417323711617245 0.45346036752892865 0.14369607578063834 0.17717748767523855 0.0088432947310005741 -0.003128020240304371 0.028737542744193757 -0.25190595096908508 0.047868504033734403 -0.26663024055235313 -0.27394340333047806 0.50330562534240586 -0.34593874281604908 0.17293893605052868 -0.33151195770910674 -0.40017233220013709 0.53029012282689414 0.24812957907424257 -0.32290835257619621 0.034742168111168523 0.14000861424168473 -0.11299590940966651 0.26723423021344039 0.2979651601477103 0.30707113082919801 -0.061687448356104527 0.056769074030941537 0.13203505232532539
leaf_weight=21 115 24 58 90 29 135 41 24 175 80 24 33 91 26 42 214 31 22 33 34 40 277 57 108 26 22 28 285 31 178
leaf_count=21 115 24 58 90 29 135 41 24 175 80 24 33 91 26 42 214 31 22 33 34 40 277 57 108 26 22 28 285 31 178
internal_value=0.00523844 0.0458668 -1.18533 0.0636912 -0.24656 0.0476819 0.273051 0.0200779 0.139636 -0.146654 0.368073 0.00518431 0.0116328 0.260217 0.0023642 0.0325878 -0.06675 -0.00918575 0.00315529 -0.0839688 0.0546739 0.0956503 0.283112 -0.134153 -0.0392199 -0.0347119 -0.00724686 -0.0359143 -0.157134 0.205873
internal_weight=2394 2315 79 2182 133 2027 155 1559 468 109 114 1424 1391 50 1341 933 408 719 697 259 438 367 90 225 134 366 335 307 71 293
internal_count=2394 2315 79 2182 133 2027 155 1559 468 109 114 1424 1391 50 1341 933 408 719 697 259 438 367 90 225 134 366 335 307 71 293
is_linear=0
shrinkage=0.05


Tree=20
num_leaves=31
num_cat=0
split_feature=19 1 1 19 20 17 1 10 4 4 30 17 32 23 23 3 27 27 22 30 4 22 31 3 10 22 25 10 30 23
split_gain=44691.2 7987.33 4442.84 3634.23 3209.39 1658.23 1437.38 1696.24 1641.54 1430.7 1936.69 1653.16 1460.39 1232.82 1149.11 1128.31 1274.59 1113.05 1081.6 1338.97 1087.24 1214.9 1065.7 1270.97 1146.13 1095.37 1049.61 1353.71 1016.54 1154.77
threshold=140.50000000000003 8.0822708333333342 7.3271666666666677 111.50000000000001 194.50000000000003 186.50000000000003 8.4331041666666682 8.0687500000000014 645.17291666666677 664.94583333333344 25490.714285714294 212.50000000000003 25842.414285714291 15.479958664070546 11.956537190468447 0.72339583333333335 32898.150000000001 29311.050000000003 188.46428571428575 21099.971428571433 642.86250000000007 187.17857142857147 1330.3748671752257 0.70468750000000013 9.0208333333333357 192.10714285714289 12.074476746310058 7.7687500000000007 30796.750000000004 12.906787545056828
decision_type=2 2 2 2 2 2 2 2 2 2 2 2 2 2 2 2 2 2 2 2 2 2 2 2 2 2 2 2 2 2
left_child=3 2 26 -1 9 -6 7 8 14 11 -11 12 18 -10 -3 16 28 -8 20 -20 -4 -22 25 -24 -25 -9 -2 -28 -12 -30
right_child=1 6 4 -5 5 -7 17 22 13 10 15 -13 -14 -15 -16 -17 -18 -19 19 -21 21 -23 23 24 -26 -27 27 -29 29 -31
leaf_value=-1.5066165741946964 -0.53259086762155805 0.078004322378408347 -0.34016640323858999 -0.84204144884521759 -0.33160906861657685 -0.063356684831993124 0.2768186159664765 0.29726069092750551 0.17462787367702556 0.4961472717023665 0.22109429070035716 0.39177277398109439 -0.26768596827983859 -0.10065200644731523 -0.41927773883709546 0.031997887868295362 0.5259796641767025 0.68683875322341925 0.41294476191202806 0.024177366952032164 0.13854463446013474 -0.28741254114116044 -0.084303914932977592 0.36220663939723313 -0.018698457899418746 -0.1991843514442444 0.039296145167420894 -0.3593398005064381 0.24758792792757356 -0.22670561770598094
leaf_weight=36 35 21 39 48 69 349 96 20 218 31 114 25 55 50 26 322 24 20 24 287 47 26 21 193 22 25 34 57 21 33
leaf_count=36 35 21 39 48 69 349 96 20 218 31 114 25 55 50 26 322 24 20 24 287 47 26 21 193 22 25 34 57 21 33
internal_value=0.0059725 0.0472737 -0.0149848 -1.12686 0.0095029 -0.107638 0.186481 0.155139 0.0754703 0.056225 0.112349 -0.00458538 -0.0253154 0.12327 -0.197088 0.0892016 0.185137 0.347512 0.00619849 0.0541787 -0.127032 -0.0131661 0.244447 0.286967 0.32323 0.0214579 -0.299897 -0.210399 0.136445 -0.0422581
internal_weight=2388 2304 1592 84 1466 418 712 596 315 1048 545 503 478 268 47 514 192 116 423 311 112 73 281 236 215 45 126 91 168 54
internal_count=2388 2304 1592 84 1466 418 712 596 315 1048 545 503 478 268 47 514 192 116 423 311 112 73 281 236 215 45 126 91 168 54
is_linear=0
shrinkage=0.05


Tree=21
num_leaves=31
num_cat=0
split_feature=19 1 1 19 20 29 17 1 10 4 13 31 17 23 32 23 11 31 3 10 22 4 26 26 26 4 2 4 11 1
split_gain=40333.8 7208.57 4009.66 3279.89 2896.48 2144.93 1496.55 1297.23 1530.85 1481.49 1278.89 1220.99 1202.84 1112.62 1095.34 1064.16 1014.08 961.796 1147.05 1034.39 988.569 956.635 2753.17 1794.08 1339.11 1063.44 1165.91 1040.61 1038 924.014
threshold=140.50000000000003 8.0822708333333342 7.3271666666666677 111.50000000000001 194.50000000000003 33500.05000000001 186.50000000000003 8.4331041666666682 8.0687500000000014 645.17291666666677 6.5000000000000009 2107.9317734430506 208.50000000000003 15.479958664070546 22041.896428571432 11.726742237999941 2019.5000000000002 1330.3748671752257 0.70468750000000013 9.0208333333333357 192.10714285714289 664.94583333333344 24645.700000000004 26512.650000000005 31432.500000000004 671.77291666666679 0.91085416666666663 660.75833333333344 2018.5000000000002 7.6477916666666674
decision_type=2 2 2 2 2 2 2 2 2 2 2 2 2 2 2 2 2 2 2 2 2 2 2 2 2 2 2 2 2 2
left_child=3 2 -2 -1 5 12 -6 8 9 14 16 -7 21 -11 -3 -9 -8 20 -19 -20 -10 23 -23 27 25 -24 -27 -4 -26 -12
right_child=1 7 4 -5 6 11 10 15 17 13 29 -13 -14 -15 -16 -17 -18 18 19 -21 -22 22 24 -25 28 26 -28 -29 -30 -31
leaf_value=-1.4312857154342864 -0.28490183529636215 0.049061476377149423 0.015093425983466642 -0.79993937984108932 -0.31502861432407214 0.14180210916435018 0.29106971874106219 0.041204905599355697 0.2823976641893387 0.1658964781569095 -0.28128398879508798 0.59217322538089423 0.22951138615608216 -0.095619407005608087 -0.43380214455335042 0.40951287071271747 -0.10355718070296226 -0.080088723273504359 0.34409630278733422 -0.017763528160073542 -0.18922513103485109 0.58111479139328004 -0.084938794204881832 -0.45217669575164721 0.034561389723214611 0.070360477313726813 0.3046233470737934 -0.26933388275759562 -0.27467018953141048 -0.06003024389132925
leaf_weight=36 126 24 396 48 69 34 41 25 20 218 60 27 74 50 23 91 27 21 193 22 25 25 67 24 58 182 75 35 51 221
leaf_count=36 126 24 396 48 69 34 41 25 20 218 60 27 74 50 23 91 27 21 193 22 25 25 67 24 58 182 75 35 51 221
internal_value=0.00567387 0.04491 -0.0142355 -1.07052 0.00902775 0.0534137 -0.102256 0.177157 0.147382 0.0716968 -0.0601888 0.341147 0.0356308 0.117106 -0.187233 0.330136 0.13438 0.232225 0.272618 0.307069 0.020385 0.0199165 0.0709295 -0.0314328 0.0414731 0.0924736 0.138725 -0.00800392 -0.110125 -0.107273
internal_weight=2388 2304 1592 84 1466 1048 418 712 596 315 349 61 987 268 47 116 68 281 236 215 45 913 458 455 433 324 257 431 109 281
internal_count=2388 2304 1592 84 1466 1048 418 712 596 315 349 61 987 268 47 116 68 281 236 215 45 913 458 455 433 324 257 431 109 281
is_linear=0
shrinkage=0.05


Tree=22
num_leaves=31
num_cat=0
split_feature=19 1 3 4 22 1 4 16 29 1 10 4 3 3 16 24 9 10 10 7 28 32 27 33 8 4 8 27 28 25
split_gain=36401.3 6505.73 3697.98 3075.88 1751.9 1462.34 1501.41 1381.51 1310.7 1170.75 1381.6 1337.05 1099.74 1650.65 1092.24 1036.24 1001.86 1200.68 1100.54 1052.13 1149.5 988.547 985.618 967.468 1150.53 1077.53 1178.25 975.118 950.959 1249.11
threshold=140.50000000000003 8.0822708333333342 0.74212500000000015 619.17500000000007 194.25000000000003 7.8880208333333348 701.26041666666674 201.50000000000003 33500.05000000001 8.4331041666666682 8.0687500000000014 645.17291666666677 0.72043750000000006 0.71468750000000003 186.50000000000003 191.19642857142858 0.33052083333333343 9.002083333333335 8.4437500000000032 0.17860416666666667 26933.500000000004 22041.896428571432 29311.050000000003 2229.6470868072442 0.22485416666666666 678.96458333333339 0.2111875 24443.100000000002 26271.200000000004 13.434216515160118
decision_type=2 2 2 2 2 2 2 2 2 2 2 2 2 2 2 2 2 2 2 2 2 2 2 2 2 2 2 2 2 2
left_child=3 2 4 -1 5 6 -2 8 12 10 11 21 13 -7 -4 -9 18 19 -12 28 -21 -3 -11 25 -25 26 -13 -28 29 -18
right_child=1 9 14 -5 -6 7 -8 15 -10 22 16 23 -14 -15 -16 -17 17 -19 -20 20 -22 -23 -24 24 -26 -27 27 -29 -30 -31
leaf_value=-1.5582306122779848 -0.017163136021614459 0.046608406864106659 -0.23689178463912783 -0.84785307440906765 -0.090299520536602756 0.27480892779616023 0.41159321765104934 -0.27483212233466259 0.55780239537358278 0.24710589086947343 -0.20738523396161887 -0.060953568486917409 0.23919168252717046 -0.088974134977697669 -0.66182861149311067 0.076303761384703905 0.16620997082855968 -0.060827089130878455 0.24838050184426486 0.33446894503372204 0.76522780344599772 -0.41211204434866489 0.6329419404268265 0.077231992835368149 -0.34927719845658256 0.35638329892566334 0.39106008979242024 -0.015694694123838261 0.076696231456533565 0.62626922106742855
leaf_weight=20 737 24 62 64 370 48 21 34 20 96 26 62 136 89 20 55 36 25 27 59 21 23 20 64 21 57 41 23 62 25
leaf_count=20 737 24 62 64 370 48 21 34 20 96 26 62 136 89 20 55 36 25 27 59 21 23 20 64 21 57 41 23 62 25
internal_value=0.00539018 0.0426645 -0.0135237 -1.01699 0.00423448 0.0349166 -0.00528466 0.114688 0.167093 0.168299 0.140013 0.0681119 0.13847 0.0384827 -0.340535 -0.057838 0.220614 0.266133 0.0247973 0.306399 0.447543 -0.177872 0.313629 0.111251 -0.0281409 0.175996 0.0943918 0.244883 0.214597 0.354759
internal_weight=2388 2304 1592 84 1510 1140 758 382 293 712 596 315 273 137 82 89 281 228 53 203 80 47 116 268 85 183 126 64 123 61
internal_count=2388 2304 1592 84 1510 1140 758 382 293 712 596 315 273 137 82 89 281 228 53 203 80 47 116 268 85 183 126 64 123 61
is_linear=0
shrinkage=0.05


Tree=23
num_leaves=31
num_cat=0
split_feature=19 1 19 3 20 29 17 8 1 1 10 4 1 7 9 7 34 11 35 31 29 3 31 19 16 32 17 31 33 24
split_gain=32908.5 5709.97 3352.55 3030.71 1973.43 2165.43 1374.58 1261.17 1105.68 1272.78 1314.02 1405.73 1084.69 1033.52 1274.06 1063.73 1388.4 1030.77 1383.84 1089.51 1074.05 1001.64 999.91 997.778 1144.53 991.854 934.919 1246.85 1181.2 959.339
threshold=147.50000000000003 8.0822708333333342 111.50000000000001 0.73968750000000005 194.50000000000003 33500.05000000001 192.50000000000003 0.18331249999999996 8.0940625000000015 8.4331041666666682 8.0687500000000014 645.17291666666677 7.7259375000000015 0.15654166666666666 0.40558333333333335 0.15056249999999996 24328.837500000005 2018.5000000000002 2228.7996013268421 1646.5936603516459 29742.950000000004 0.72627083333333342 3001.5145523857559 202.50000000000003 186.50000000000003 22041.896428571432 186.50000000000003 1454.6554605364511 2195.6007498963136 193.33928571428575
decision_type=2 2 2 2 2 2 2 2 2 2 2 2 2 2 2 2 2 2 2 2 2 2 2 2 2 2 2 2 2 2
left_child=2 3 -1 4 5 12 7 -6 -3 10 11 25 21 14 15 16 -14 20 19 -19 -8 -2 -13 24 -5 -10 27 -23 -29 -28
right_child=1 8 -4 23 6 -7 17 -9 9 -11 -12 22 13 -15 -16 -17 -18 18 -20 -21 -22 26 -24 -25 -26 -27 29 28 -30 -31
leaf_value=-1.2985827344159286 -0.16908956267294431 0.46226549559626084 -0.68013057832805712 -0.19676004903365488 -0.5296946211503103 0.34033756934232634 0.13453311237399695 -0.13997954524764158 0.01647668532703234 0.29794788086337259 0.19714183700796134 0.11946006232436668 -0.30578065638740859 0.028103509746870259 0.53702954692499982 0.29958433524959466 0.12910422892100776 -0.074124117302043102 0.060411161691584482 -0.50120147606357934 -0.14260919553284743 0.25997880488634112 -0.24064301706495739 0.070022000727199371 -0.55158795642130298 -0.45311996178193531 0.15700178309794396 -0.32330766713077375 0.039185644215659093 -0.127317708864426
leaf_weight=36 105 29 56 73 26 59 122 103 23 116 266 235 24 432 21 55 78 28 47 32 49 20 21 21 33 22 124 55 38 39
leaf_count=36 105 29 56 73 26 59 122 103 23 116 266 235 24 432 21 55 78 28 47 32 49 20 21 21 33 22 124 55 38 39
internal_value=0.00512067 0.0422755 -0.922134 -0.0105889 0.00983017 0.046059 -0.0836348 -0.218527 0.159884 0.147045 0.116172 0.0446177 0.0285389 0.0698801 0.171271 0.122347 0.0267784 -0.021041 -0.142753 -0.301899 0.0551181 -0.0376506 0.0899204 -0.244846 -0.307225 -0.213104 0.0123534 -0.0981707 -0.175192 0.0889744
internal_weight=2388 2296 92 1584 1457 1050 407 129 712 683 567 301 991 610 178 157 102 278 107 60 171 381 256 127 106 45 276 113 93 163
internal_count=2388 2296 92 1584 1457 1050 407 129 712 683 567 301 991 610 178 157 102 278 107 60 171 381 256 127 106 45 276 113 93 163
is_linear=0
shrinkage=0.05


Tree=24
num_leaves=31
num_cat=0
split_feature=19 1 4 1 20 1 22 23 4 16 3 28 5 16 4 14 25 10 3 14 10 9 3 13 4 2 3 3 21 10
split_gain=29716.4 5367.87 2604.61 2405.55 1705.63 2026.38 1298.73 1271.99 1336.93 1192.42 1121.41 1259.66 1081.5 1076.75 1053.28 921.049 908.414 1239.14 846.14 843.759 1234.93 962.542 1068.83 936.655 834.754 1340.33 1174.78 1066.08 833.24 949.092
threshold=140.50000000000003 7.8641250000000005 619.17500000000007 7.3271666666666677 190.07142857142858 8.0822708333333342 194.03571428571431 17.439769919911829 646.44375000000002 177.50000000000003 0.71385416666666679 21892.200000000004 3.858625 206.50000000000003 701.56041666666681 4.5000000000000009 12.074476746310058 7.7687500000000007 0.71589583333333351 2.5000000000000004 9.002083333333335 0.37514583333333335 0.73275000000000012 5.5000000000000009 657.46041666666667 0.95835416666666673 0.71614583333333337 0.71806250000000016 11.927359463254808 8.5395833333333346
decision_type=2 2 2 2 2 2 2 2 2 2 2 2 2 2 2 2 2 2 2 2 2 2 2 2 2 2 2 2 2 2
left_child=2 3 -1 16 7 6 10 8 -3 -5 -6 -12 13 -13 19 -4 -2 -18 -8 21 -21 22 23 -11 28 26 -26 -28 -7 -30
right_child=1 4 15 9 5 24 18 -9 -10 14 11 12 -14 -15 -16 -17 17 -19 -20 20 -22 -23 -24 -25 25 -27 27 -29 29 -31
leaf_value=-1.4169360375404358 -0.46864660978317263 0.010109517031482287 -0.62117305096329722 0.09196647592961632 0.34675309392313164 -0.038866146278064867 -0.34455117057351509 -0.16268992207267069 0.28039377773404123 0.14141638884941737 0.31810901641845701 0.1310456927055898 -0.20430263350407285 -0.2737425018846989 0.25704510595511504 -1.0164899877879932 0.069986788621720142 -0.31140677518489068 -0.064168790895347452 -0.1334437826918477 0.2300013439655304 0.18562261300354169 0.13193651707399459 -0.16809001869211596 0.077452510593381402 0.42140635590696213 0.49726772300294925 0.15377911880355458 0.075978019503610481 0.4592315245242346
leaf_weight=20 35 56 41 191 30 113 34 22 250 30 30 92 60 20 27 23 34 57 129 359 25 58 63 132 222 49 37 58 70 21
leaf_count=20 35 56 41 191 30 113 34 22 250 30 30 92 60 20 27 23 34 57 129 359 25 58 63 132 222 49 37 58 70 21
internal_value=0.00486464 0.0385429 -0.918882 -0.0477656 0.106028 0.0725476 -0.0144898 0.204529 0.23093 -0.0186641 0.0615046 0.0191409 -0.0330047 0.0587621 -0.0491114 -0.76324 -0.252169 -0.168908 -0.122653 -0.0615046 -0.109782 0.00400255 -0.0428151 -0.110774 0.132863 0.178037 0.140418 0.287559 0.0518159 0.164421
internal_weight=2388 2304 84 1011 1293 965 395 328 306 885 232 202 172 112 694 64 126 91 163 667 384 283 225 162 570 366 317 95 204 91
internal_count=2388 2304 84 1011 1293 965 395 328 306 885 232 202 172 112 694 64 126 91 163 667 384 283 225 162 570 366 317 95 204 91
is_linear=0
shrinkage=0.05


Tree=25
num_leaves=31
num_cat=0
split_feature=24 1 29 1 24 2 26 32 26 19 23 10 18 26 6 27 34 9 9 3 17 10 6 7 9 15 35 8 31 24
split_gain=28085 4791.63 2981.33 1479.16 1596.17 1229.57 1408.58 1655.57 1311.7 1299.51 1151.83 1129.47 1102.06 1075.68 1256.27 1255.59 1007.93 1001.55 961.412 1344.35 1227.75 879.451 873.967 870.633 840.116 825.795 1001.16 2396.14 1273.42 1133.31
threshold=143.48214285714289 7.6157916666666674 13660.050000000001 8.2516250000000024 193.12500000000003 0.91772916666666671 31009.300000000003 30808.71071428572 33008.30000000001 178.50000000000003 11.438560033889521 8.502083333333335 166.50000000000003 21297.200000000004 0.25460416666666669 22392.500000000004 29156.308928571434 0.33004166666666673 0.34497916666666667 0.72639583333333346 186.50000000000003 8.1479166666666689 0.23718749999999997 0.19974999999999998 0.34460416666666671 258.50000000000006 2134.1466163920504 0.21597916666666669 1208.6166548347849 190.23214285714289
decision_type=2 2 2 2 2 2 2 2 2 2 2 2 2 2 2 2 2 2 2 2 2 2 2 2 2 2 2 2 2 2
left_child=2 12 -1 5 17 6 10 -8 11 -10 -3 -9 -2 14 22 -16 -12 21 23 -20 -21 -5 -7 -14 -19 26 27 28 -15 -28
right_child=1 3 -4 4 -6 13 7 8 9 -11 16 -13 18 25 15 -17 -18 24 19 20 -22 -23 -24 -25 -26 -27 29 -29 -30 -31
leaf_value=-1.4213933205604554 -0.37200555457518653 0.026151187918148935 -0.72575731112885844 0.26793260185614876 0.043596232073699559 0.12751494683907369 -0.22742619300788305 0.13243964239035125 0.30206293982008231 -0.11954538032276495 0.42599828090390252 0.55201487839221952 -0.1297641293368032 0.060671244172946275 -0.35282499939203266 0.17552835623855179 0.17534180556638884 0.57932835633938129 -0.30642399770872936 -0.13861557716753944 0.13021821870051067 -0.17425539507107302 0.44120522141456608 -0.4240348260104656 0.26486644261227599 0.038591631686777102 0.23621755360315244 0.038902013703135029 -0.35010145863961606 -0.049601657640933994
leaf_weight=20 39 80 67 23 164 64 53 81 23 89 58 20 155 23 22 23 130 26 35 67 116 22 34 30 116 399 48 114 105 125
leaf_count=20 39 80 67 23 164 64 53 81 23 89 58 20 155 23 22 23 130 26 35 67 116 22 34 30 116 399 48 114 105 125
internal_value=-0.00395526 0.0296303 -0.885674 0.065106 0.157452 0.0433665 0.104151 0.02264 0.084863 -0.0329651 0.185054 0.215524 -0.118211 0.00944916 0.135923 -0.0827777 0.252672 0.257304 -0.0936508 -0.0225081 0.0317927 0.0517518 0.236346 -0.177484 0.322444 -0.0127692 -0.0621498 -0.127812 -0.276291 0.0297008
internal_weight=2371 2284 87 1842 351 1491 534 266 213 112 268 101 442 957 143 45 188 187 403 218 183 45 98 185 142 814 415 242 128 173
internal_count=2371 2284 87 1842 351 1491 534 266 213 112 268 101 442 957 143 45 188 187 403 218 183 45 98 185 142 814 415 242 128 173
is_linear=0
shrinkage=0.05


Tree=26
num_leaves=31
num_cat=0
split_feature=17 1 29 18 4 25 1 16 4 27 1 7 27 5 7 4 3 3 34 4 3 3 20 8 17 11 16 32 16 18
split_gain=25331.9 4901.56 2084.18 1858.14 1384.66 1266.03 1147.9 1358.07 1459.31 1337.81 1358.77 1318.05 909.793 884.955 1614.07 1410.3 1384.22 1227.83 1043.36 977.342 826.121 841.287 910.944 795.023 1355.79 1037.19 1077.1 792.841 922.438 778.34
threshold=143.50000000000003 7.6102500000000015 13660.050000000001 166.50000000000003 701.93958333333342 12.830678966654538 8.0192291666666673 200.50000000000003 670.20208333333346 28962.250000000004 7.8682083333333344 0.18960416666666666 33227.500000000007 3.874729166666667 0.20758333333333326 653.79166666666686 0.72939583333333347 0.7399583333333335 22670.287500000002 683.26250000000016 0.72393750000000012 0.72102083333333344 194.35714285714286 0.1907291666666667 194.50000000000003 2018.5000000000002 196.50000000000003 22079.564285714292 188.50000000000003 195.50000000000003
decision_type=2 2 2 2 2 2 2 2 2 2 2 2 2 2 2 2 2 2 2 2 2 2 2 2 2 2 2 2 2 2
left_child=2 3 -1 -2 6 -6 7 8 23 11 -11 -10 -12 14 15 -5 -17 -18 -15 -19 21 22 -9 24 -3 26 -25 -27 -29 -22
right_child=1 4 -4 13 5 -7 -8 20 9 10 12 -13 -14 18 -16 16 17 19 -20 -21 29 -23 -24 25 -26 27 -28 28 -30 -31
leaf_value=-1.3503236150741578 -0.40724378277858098 -0.32669564094774578 -0.75281801764611844 -0.42268918905535657 0.57408278178084982 0.14852046280222783 0.094629903269205645 0.056032710465101103 0.3354459533199054 -0.048042441598737419 0.11219825889501307 -0.10145336439212163 0.50696926593780522 -0.077984240006368902 -0.54367367795535493 -0.24378179099461805 0.095803820190654296 -0.28776795379817488 0.33580038559436803 0.11468052376400342 -0.10943946586583149 -0.42404953529437384 -0.29533780259745462 0.037968543569120217 0.065618445351719859 0.15951673219149765 0.36949277546788967 -0.011765521608812866 -0.3374055008996617 0.1948794840670684
leaf_weight=20 51 49 54 29 22 85 803 39 97 134 54 21 20 39 21 73 138 48 25 22 55 30 35 196 40 22 28 43 44 34
leaf_count=20 51 49 54 29 22 85 803 39 97 134 54 21 20 39 21 73 138 48 25 22 55 30 35 196 40 22 28 43 44 34
internal_value=-0.00375749 0.0255767 -0.914306 -0.12322 0.0614293 0.236019 0.0507176 0.0132452 0.0437567 0.123215 0.046925 0.257693 0.218893 -0.0865482 -0.119457 -0.0907194 -0.0564592 0.00928383 0.0836504 -0.161284 -0.105007 -0.200702 -0.110156 -0.0176258 -0.150375 0.0178536 0.0794091 -0.108646 -0.176457 0.00681721
internal_weight=2371 2297 74 446 1851 107 1744 941 748 326 208 118 74 395 331 310 281 208 64 70 193 104 74 422 89 333 224 109 87 89
internal_count=2371 2297 74 446 1851 107 1744 941 748 326 208 118 74 395 331 310 281 208 64 70 193 104 74 422 89 333 224 109 87 89
is_linear=0
shrinkage=0.05


Tree=27
num_leaves=31
num_cat=0
split_feature=22 1 29 4 30 26 1 18 14 22 17 26 4 6 4 9 1 5 26 16 9 4 29 24 19 0 5 28 31 3
split_gain=23247.1 4078.21 2120.44 1375.76 1597.52 1507.79 1119.98 981.698 876.238 855.998 979.102 873.602 1655.86 1533.76 916.418 1051.22 947.308 1675.95 1073.2 945.665 846.066 968.598 1194.65 1092.87 1059.32 892.223 1304.94 833.475 988.57 958.311
threshold=142.67857142857147 7.6157916666666674 13660.050000000001 686.47291666666672 30941.321428571431 33243.700000000004 8.5615625000000026 166.50000000000003 2.5000000000000004 198.03571428571431 204.50000000000003 21297.200000000004 640.75833333333344 0.25460416666666669 682.47708333333344 0.29633333333333339 7.8641250000000005 3.7982291666666668 28222.050000000003 200.50000000000003 0.35710416666666667 684.82916666666677 31432.500000000004 190.91071428571431 184.50000000000003 0.28239583333333335 3.874729166666667 20714.350000000002 1963.9868410726019 0.71981250000000008
decision_type=2 2 2 2 2 2 2 2 2 2 2 2 2 2 2 2 2 2 2 2 2 2 2 2 2 2 2 2 2 2
left_child=2 7 -1 4 6 -5 9 -2 -7 11 -11 12 13 -3 15 -13 17 -17 -18 -20 21 23 -23 24 -9 -22 -27 -14 29 -29
right_child=1 3 -4 5 -6 8 -8 20 -10 10 -12 14 27 -15 -16 16 18 -19 19 -21 25 22 -24 -25 -26 26 -28 28 -30 -31
leaf_value=-1.2828074622154237 -0.33091905530956062 0.15214054126005908 -0.68954648639335003 0.18762256708063815 -0.24743867194165989 -0.13916427117179742 0.34030707267022908 -0.28077643994113494 0.10837433233570595 -0.32412052748396114 0.092991671587030089 0.33159403915588676 -0.003757121916860342 -0.34954980994388463 0.23115606999622204 0.078695820822663937 0.067137949772065289 -0.16964627537786603 0.098261767907722578 -0.21504246120651566 0.31730465039610867 0.15379265516388174 -0.22259952329300547 -0.32517442239765476 0.12786345028451512 -0.14068013167719251 0.19294754386480367 0.26139262382473266 0.065962220799355278 0.67506756143910551
leaf_weight=20 45 39 61 344 49 66 31 29 78 34 24 26 20 25 53 115 589 166 37 69 20 49 37 94 35 97 42 28 21 28
leaf_count=20 45 39 61 344 49 66 31 29 78 34 24 26 20 25 53 115 589 166 37 69 20 49 37 94 35 97 42 28 21 28
internal_value=-0.00356962 0.0258755 -0.836031 0.058782 0.0328404 0.130759 0.0433643 -0.109423 -0.00508086 0.0361388 -0.151522 0.0450898 0.153576 -0.0438323 0.0285341 0.0178166 0.00945773 -0.0680116 0.0407799 -0.105682 -0.0846901 -0.143172 -0.00814351 -0.216669 -0.0573015 0.00505608 -0.0398718 0.283824 0.358521 0.46823
internal_weight=2371 2290 81 1842 1354 488 1305 448 144 1274 58 1216 161 64 1055 1002 976 281 695 106 403 244 86 158 64 159 139 97 77 56
internal_count=2371 2290 81 1842 1354 488 1305 448 144 1274 58 1216 161 64 1055 1002 976 281 695 106 403 244 86 158 64 159 139 97 77 56
is_linear=0
shrinkage=0.05


Tree=28
num_leaves=31
num_cat=0
split_feature=22 1 26 1 24 4 27 30 7 20 35 6 26 2 30 4 19 11 26 6 27 31 23 15 8 4 22 26 2 22
split_gain=20980.5 3683.14 1914.18 1232.74 1410.67 1095.24 1030.89 1789.41 1237.58 863.852 1106.84 846.698 844.518 1078.32 1283.07 1071.01 950.095 920.422 847.885 1060.78 1097.24 793.346 1664.06 910.055 1136.34 1162.8 1433.75 835.508 971.981 827.305
threshold=142.67857142857147 7.6102500000000015 18923.700000000001 8.2516250000000024 192.98214285714289 696.86458333333337 22646.900000000005 22733.600000000002 0.20758333333333326 187.35714285714286 2282.6504265957074 0.32422916666666673 31326.100000000002 0.91772916666666671 30877.62142857143 684.82916666666677 179.50000000000003 2020.5000000000002 21297.200000000004 0.25460416666666669 22392.500000000004 1911.3422560128718 14.737724785702897 222.50000000000003 0.24625 651.49791666666681 195.10714285714289 27210.600000000002 0.94822916666666679 187.67857142857147
decision_type=2 2 2 2 2 2 2 2 2 2 2 2 2 2 2 2 2 2 2 2 2 2 2 2 2 2 2 2 2 2
left_child=2 6 -1 5 -5 12 7 -2 11 -7 -11 -8 13 14 -3 -16 -14 -18 19 -15 -21 22 23 24 25 -20 -27 28 -25 -23
right_child=1 3 -4 4 -6 9 8 -9 -10 10 -12 -13 16 18 15 -17 17 -19 21 20 -22 29 -24 27 -26 26 -28 -29 -30 -31
leaf_value=-1.2050805897939774 -0.0682793280403865 0.21082054096106326 -0.6504311455786228 0.23863397935049588 0.038138779931812083 0.46473333753645418 -0.022158244394231589 -0.60064276832121388 -0.42899445554484494 0.32440250556577338 0.024813617028078987 -0.26393535580576921 0.20674781715285709 0.21295340396463872 -0.30326612484455112 0.082657401286996904 -0.088417654592459177 -0.46029903553426266 -0.46979314134671135 -0.33227094425396486 0.16164251366711183 0.27587446093951401 -0.25908578621366851 0.24508973807096482 0.1854751248050619 0.0076424781571735037 -0.45004293478348045 -0.18810769945383074 0.018897362941591611 0.024040425529946452
leaf_weight=21 38 161 60 178 173 20 310 27 23 44 103 41 22 99 25 64 99 20 26 22 23 38 78 62 27 77 22 35 203 230
leaf_count=21 38 161 60 178 173 20 310 27 23 44 103 41 22 99 25 64 99 20 26 22 23 38 78 62 27 77 22 35 203 230
internal_value=-0.00339114 0.0245817 -0.794229 0.0554627 0.139814 0.0357244 -0.105625 -0.289415 -0.0736826 0.156432 0.114486 -0.0504 0.0206019 0.0342896 0.126602 -0.0257481 -0.0951126 -0.150919 0.00979059 0.12146 -0.0798263 -0.0103602 -0.0458113 -0.00900732 -0.108679 -0.172217 -0.0940654 0.0414932 0.0718178 0.0597482
internal_weight=2371 2290 81 1851 351 1500 439 65 374 167 147 351 1333 1192 250 89 141 119 942 144 45 798 530 452 152 125 99 300 265 268
internal_count=2371 2290 81 1851 351 1500 439 65 374 167 147 351 1333 1192 250 89 141 119 942 144 45 798 530 452 152 125 99 300 265 268
is_linear=0
shrinkage=0.05


Tree=29
num_leaves=31
num_cat=0
split_feature=22 1 29 3 19 27 22 4 26 3 26 1 9 0 17 6 32 1 4 35 10 24 31 4 17 33 15 26 20 4
split_gain=18934.9 3416.29 1768.82 1415.15 1437.15 1087.79 1014.88 990.453 2303.86 1512.13 1205.01 1021.3 1005.3 1337.9 965.105 1100.14 918.085 960.177 910.008 864.037 816.485 1141.01 843.699 1123.47 940.513 905.66 861.115 1238.82 1228.21 1192.42
threshold=142.67857142857147 7.8708750000000007 13660.050000000001 0.74072916666666677 202.50000000000003 35214.900000000001 187.60714285714289 672.50416666666672 28988.600000000002 0.72885416666666669 21482.700000000004 7.6352083333333338 0.34412500000000007 0.2963541666666667 204.50000000000003 0.26947916666666671 31795.807142857146 7.5143750000000011 674.96458333333351 2453.5515334331926 9.0208333333333357 193.62500000000003 3049.8595937620989 696.29791666666677 182.50000000000003 1210.7490324967278 20.500000000000004 28396.350000000002 189.07142857142858 673.55000000000007
decision_type=2 2 2 2 2 2 2 2 2 2 2 2 2 2 2 2 2 2 2 2 2 2 2 2 2 2 2 2 2 2
left_child=2 3 -1 7 -5 6 19 10 18 11 -2 -10 13 -13 -12 -16 17 -11 -9 -3 22 -22 23 25 -25 -8 -27 29 -29 -28
right_child=1 5 -4 4 -6 -7 20 8 9 16 14 12 -14 -15 15 -17 -18 -19 -20 -21 21 -23 -24 24 -26 26 27 28 -30 -31
leaf_value=-1.1625729249045254 0.071147066428554506 0.14320337046207726 -0.62072908433734397 -0.30443378373038499 0.16561041556298733 0.41173385494621473 0.31023467019200329 0.48471053890559984 -0.36213212524141586 -0.049391071208649218 -0.15656676338703346 0.11647814864462072 0.073777483870922519 -0.35439027007087137 -0.10680671767754989 0.35613369317281818 -0.10349716293242049 0.27338730512419718 0.1404342625258041 0.49707170190370609 0.058592489427503419 -0.39739093061374581 -0.13405414734567916 0.48688568263142201 0.14560057310154662 0.26173717599848045 0.047355877167781259 0.29719527214765551 -0.1171650237839162 0.25541436526064693
leaf_weight=20 106 69 61 87 20 24 35 23 42 36 297 22 59 48 33 21 51 64 116 23 34 23 49 27 80 46 588 20 169 78
leaf_count=20 106 69 61 87 20 24 35 23 42 36 297 22 59 48 33 21 51 64 116 23 34 23 49 27 80 46 588 20 169 78
internal_value=-0.00322158 0.0233526 -0.754518 -0.0444916 -0.216575 0.0783253 0.0718774 -0.024434 0.0272759 -0.0461632 -0.0765964 -0.147982 -0.0782585 -0.206403 -0.121214 0.0732257 0.0691414 0.157187 0.197401 0.23167 0.0590828 -0.125401 0.0687125 0.0782384 0.231719 0.0606931 0.0509994 0.0396615 -0.0733174 0.0717231
internal_weight=2371 2290 81 1025 107 1265 1241 918 461 322 457 171 129 70 351 54 151 100 139 92 1149 57 1092 1043 107 936 901 855 189 666
internal_count=2371 2290 81 1025 107 1265 1241 918 461 322 457 171 129 70 351 54 151 100 139 92 1149 57 1092 1043 107 936 901 855 189 666
is_linear=0
shrinkage=0.05


Tree=30
num_leaves=31
num_cat=0
split_feature=17 19 26 16 2 17 7 7 16 19 31 13 35 18 18 6 23 21 2 7 33 32 31 14 20 13 9 9 25 31
split_gain=15611.8 1774.67 1517.81 1173.02 1726.31 1222.56 1024.44 1255.38 1450.98 1007.97 956.936 954.212 1068.13 994.935 1498.39 862.997 824.359 811.454 786.255 811.741 1378.81 2250.47 1288.85 1240.67 936.842 775.291 874.554 743.246 740.287 732.816
threshold=146.50000000000003 162.50000000000003 19706.950000000001 185.50000000000003 0.96481250000000018 213.50000000000003 0.20902083333333332 0.19897916666666662 192.50000000000003 221.50000000000003 3196.826566684334 5.5000000000000009 1437.5330421956558 177.50000000000003 189.50000000000003 0.28460416666666671 8.0591903719019466 15.517271009138319 0.87664583333333346 0.16818749999999996 1716.7640158840948 24484.439285714288 1985.3284263372211 2.5000000000000004 190.92857142857147 26.500000000000004 0.31679166666666669 0.32418750000000002 15.332082415760363 1869.2414865161988
decision_type=2 2 2 2 2 2 2 2 2 2 2 2 2 2 2 2 2 2 2 2 2 2 2 2 2 2 2 2 2 2
left_child=2 15 -1 18 5 6 7 9 -9 10 11 13 -13 -5 -15 28 -14 -7 -3 20 -20 -22 23 -21 -25 26 -8 -23 -2 -18
right_child=1 3 -4 4 -6 17 25 8 -10 -11 -12 12 16 14 -16 -17 29 -19 19 22 21 27 -24 24 -26 -27 -28 -29 -30 -31
leaf_value=-0.99601004628034751 -0.16220003094362179 -0.049547736931552171 -0.53239922045306731 -0.2020038789138198 0.2143009075992986 0.0028977289795875552 0.019616599767296405 -0.20334813661873341 0.27734266088841714 0.32618202425184706 -0.28078547290393285 0.28746082775294779 0.27355784945189954 0.40080308866936987 0.041881311997771266 0.019768998188816986 -0.097561564805046491 0.35965988831342877 0.22155907513239448 0.21855741160420272 -0.32071685630219937 -0.20674380484436239 0.26457136135668524 0.071925934951286769 -0.23895887403916094 0.10909955962137743 -0.31744400188326838 0.11384133596546375 -0.57280374084200181 -0.0063415143995614251
leaf_weight=26 23 93 55 24 95 28 27 20 73 21 35 25 20 41 100 23 432 37 78 78 49 21 155 64 39 22 67 130 21 449
leaf_count=26 23 93 55 24 95 28 27 20 73 21 35 25 20 41 100 23 432 37 78 78 49 21 155 64 39 22 67 130 21 449
internal_value=0.000978282 0.0251082 -0.681213 0.0327497 0.00794612 -0.00584959 -0.0160036 -0.00271122 0.173968 -0.0170366 -0.0234376 -0.0151818 -0.0349204 0.0955937 0.146249 -0.22843 -0.0438655 0.205978 0.0859352 0.106456 0.0432526 -0.0262869 0.15875 0.068129 -0.0457877 -0.158094 -0.220629 0.0692566 -0.35817 -0.0510714
internal_weight=2371 2290 81 2223 1516 1421 1356 1240 93 1147 1126 1091 926 165 141 67 901 65 707 614 278 200 336 181 103 116 94 151 44 881
internal_count=2371 2290 81 2223 1516 1421 1356 1240 93 1147 1126 1091 926 165 141 67 901 65 707 614 278 200 336 181 103 116 94 151 44 881
is_linear=0
shrinkage=0.05


Tree=31
num_leaves=31
num_cat=0
split_feature=17 19 26 17 26 4 22 4 6 8 26 2 26 6 25 5 9 4 35 26 6 14 33 23 17 27 6 22 13 3
split_gain=14089.6 1601.64 1369.83 997.673 1240.05 2235.05 2124.56 1876.84 1757.98 1706.83 1200.91 1115.64 1099.35 1535.51 1096.43 1042.06 1048.04 1030.89 1141.9 1061.23 1064 932.522 909.492 1821.8 999.705 1096.45 905.7 843.889 810.99 800.517
threshold=146.50000000000003 162.50000000000003 19706.950000000001 206.50000000000003 30625.950000000001 672.50416666666672 198.17857142857147 696.29791666666677 0.312 0.19420833333333334 33361.350000000013 0.96047916666666666 26348.450000000004 0.26264583333333336 10.971192432098677 4.0671250000000017 0.36247916666666674 687.05208333333337 2395.3164577279354 28222.050000000003 0.29135416666666669 2.5000000000000004 1498.4536906114452 11.058906909042893 200.50000000000003 25052.300000000007 0.28047916666666667 196.39285714285717 15.500000000000002 0.71672916666666675
decision_type=2 2 2 2 2 2 2 2 2 2 2 2 2 2 2 2 2 2 2 2 2 2 2 2 2 2 2 2 2 2
left_child=2 -2 -1 4 5 6 8 -6 11 10 -9 15 13 -7 -5 22 -17 19 -19 -14 26 -16 29 28 27 -26 -21 -25 -24 -3
right_child=1 3 -4 14 7 12 -8 9 -10 -11 -12 -13 17 -15 21 16 -18 18 -20 20 -22 -23 23 24 25 -27 -28 -29 -30 -31
leaf_value=-0.94620954887225084 -0.21700825246421052 0.38027690666913988 -0.50577926034277132 0.47169939205050471 -0.14261185772402948 0.69195975363254547 -0.46643828464051085 0.45561812477740082 -0.26518893959847362 -0.060137841079804549 0.043981820301097985 0.11642966001653619 0.16734153472951482 0.13347922658431344 -0.013186599281946505 -0.46348707952226209 -0.026395448483526707 0.31631710142221142 0.015477895550429822 -0.015924325964429924 -0.17368681840101879 0.16612160101577023 -0.11319001890145815 0.020997065380570917 -0.4603588396175341 -0.01232062362962299 0.36175826544111428 0.32122611284255981 -0.51625078792373347 0.068100316628975713
leaf_weight=26 67 25 55 20 258 20 24 37 55 103 34 249 105 32 127 24 32 92 48 57 75 169 26 367 22 36 22 25 24 115
leaf_count=26 67 25 55 20 258 20 24 37 55 103 34 249 105 32 127 24 32 92 48 57 75 169 26 367 22 36 22 25 24 115
internal_value=0.000929368 0.0238528 -0.647152 0.0311122 0.017477 0.0392972 -0.00154944 -0.057025 0.00960789 0.0698796 0.258497 0.0256014 0.13204 0.348279 0.113398 -0.00689326 -0.21372 0.103858 0.213172 0.0447697 -0.0388021 0.0891887 0.0112041 -0.0203356 0.0114781 -0.182266 0.0892531 0.0401443 -0.306659 0.123846
internal_weight=2371 2290 81 2223 1907 1475 1024 432 1000 174 71 945 451 52 316 696 56 399 140 259 154 296 640 500 450 58 79 392 50 140
internal_count=2371 2290 81 2223 1907 1475 1024 432 1000 174 71 945 451 52 316 696 56 399 140 259 154 296 640 500 450 58 79 392 50 140
is_linear=0
shrinkage=0.05


Tree=32
num_leaves=31
num_cat=0
split_feature=17 19 14 16 2 4 26 4 26 4 32 27 4 28 32 34 18 33 30 8 0 18 21 3 2 33 23 16 33 5
split_gain=12715.9 1445.48 1335.11 1005.45 1490.65 1438.09 1473.34 1230.74 1100.5 1451.8 1243.66 1158.35 2108.27 1243.76 1115.04 1132 1084.65 1170.96 1018.16 1004.45 941.389 933.253 871.093 865.373 1349.37 925.626 858.842 1031.83 1098.94 816.309
threshold=146.50000000000003 162.50000000000003 3.5000000000000004 185.50000000000003 0.96481250000000018 639.10833333333346 20720.600000000002 702.38333333333344 31785.600000000002 657.34375000000011 22774.150000000005 26248.300000000007 678.28125000000011 30643.150000000005 31125.696428571431 29243.869642857146 207.50000000000003 2417.9077780004159 22522.600000000006 0.19131249999999997 0.80537500000000006 186.50000000000003 15.618212793004673 0.72347916666666678 0.95039583333333344 2774.3315910164142 9.7109298764668317 197.50000000000003 1907.4422965854371 3.1875000000000004
decision_type=2 2 2 2 2 2 2 2 2 2 2 2 2 2 2 2 2 2 2 2 2 2 2 2 2 2 2 2 2 2
left_child=2 -2 -1 5 7 -3 -7 8 9 10 18 -11 16 14 15 -14 17 -13 20 -9 -5 -22 26 24 25 -8 -12 28 -28 -4
right_child=1 3 29 4 -6 6 23 19 -10 11 22 12 13 -15 -16 -17 -18 -19 -20 -21 21 -23 -24 -25 -26 -27 27 -29 -30 -31
leaf_value=-0.40927754424512391 -0.20615783414956348 -0.1491981462590278 -1.0439111007004978 0.086848654608795609 0.19834634695398182 0.33076620841960591 0.27021627414896587 0.37481567611296973 -0.11962943928854333 0.12588431759299165 0.044708868086338047 -0.15198660619127063 0.22918269943665057 -0.054181766630985687 0.50384168489412828 -0.074547627967937541 -0.47701248370465782 0.23504912814368373 0.19595662479130727 0.042768032464288896 0.069422645872691646 -0.25802381869186375 0.073019648591677352 0.023721437180459409 -0.038677288653062927 -0.043113890875663079 -0.26147310590514772 -0.09260404578984735 -0.67050494269157457 -0.59757228351774672
leaf_weight=40 67 63 20 69 95 63 149 36 225 272 25 130 85 97 22 48 21 23 53 62 32 68 30 334 70 28 52 47 24 21
leaf_count=40 67 63 20 69 95 63 149 36 225 272 25 130 85 97 22 48 21 23 53 62 32 68 30 334 70 28 52 47 24 21
internal_value=0.0008829 0.0226601 -0.614794 0.0295566 0.00659294 0.0787969 0.101101 -0.0062266 -0.0188911 0.00175195 -0.0741966 0.0452755 -0.0061931 0.0862346 0.174108 0.119566 -0.140054 -0.0938048 0.00474848 0.164745 -0.0552162 -0.153241 -0.172656 0.0761972 0.147156 0.22065 -0.222455 -0.276757 -0.390641 -0.815299
internal_weight=2371 2290 81 2223 1516 707 644 1421 1323 1098 400 698 426 252 155 133 174 153 222 98 169 100 178 581 247 177 148 123 76 41
internal_count=2371 2290 81 2223 1516 707 644 1421 1323 1098 400 698 426 252 155 133 174 153 222 98 169 100 178 581 247 177 148 123 76 41
is_linear=0
shrinkage=0.05


Tree=33
num_leaves=31
num_cat=0
split_feature=18 1 2 26 31 19 26 4 6 17 17 19 0 35 33 3 23 25 9 33 25 33 22 8 19 0 0 4 28 31
split_gain=11525.7 2898.49 1735.43 1543.41 1168.41 1159.34 1418.35 1861.36 1395.17 1209.97 1129.08 1106.92 1085.18 1021.44 1578.83 915.826 1000.76 1535.28 1275.27 947.056 1147.89 928.939 913.545 875.962 817.27 2136.08 814.936 796.593 861.303 782.908
threshold=155.50000000000003 7.9871250000000007 0.88831250000000017 19202.200000000004 3196.826566684334 163.50000000000003 30333.500000000004 668.55416666666679 0.26979166666666671 213.50000000000003 211.50000000000003 176.50000000000003 0.46554166666666669 1910.3114934615928 2391.0500891185316 0.72543750000000018 12.906787545056828 13.41483029780054 0.36943750000000003 1716.7640158840948 12.637968736825721 1952.1649946945406 198.39285714285717 0.21381249999999999 206.50000000000003 0.28766666666666668 0.53018750000000014 703.34583333333342 30342.050000000003 2019.4104984598941
decision_type=2 2 2 2 2 2 2 2 2 2 2 2 2 2 2 2 2 2 2 2 2 2 2 2 2 2 2 2 2 2
left_child=3 5 -3 -1 22 26 7 9 13 12 24 -10 -7 -9 -15 -14 17 18 -17 -18 -21 -22 27 -24 -8 -26 -2 28 29 -4
right_child=1 2 4 -5 -6 6 10 8 11 -11 -12 -13 15 14 -16 16 19 -19 -20 20 21 -23 23 -25 25 -27 -28 -29 -30 -31
leaf_value=-0.88172972344833878 -0.057256063586100941 0.51029816307127474 0.07400633907489014 -0.41565002061617684 -0.21721384874545038 -0.42024497374892233 -0.17029161363522091 0.54669531026612161 0.3710338654725448 0.26739973823229474 0.23921783955513756 0.0083128777953485663 -0.11695459878227364 0.00036657815271953369 0.43308660468884885 0.0018064634969173852 0.37192984462848733 0.23115181483735797 -0.33131272249988153 0.38885960735380654 -0.2819401878577012 0.072471563884755605 0.11247239515185357 -0.33556924661000576 0.42297076447443527 -0.22123536280085965 -0.50321919492312839 0.30181025415658952 -0.053942090367490897 0.18783890847374218
leaf_weight=23 20 24 497 78 32 20 246 23 23 30 22 246 240 53 35 59 28 32 56 20 26 64 20 24 22 31 21 47 92 217
leaf_count=23 20 24 497 78 32 20 246 23 23 30 22 246 240 53 35 59 28 32 56 20 26 64 20 24 22 31 21 47 92 217
internal_value=0.000838754 0.0240921 0.0905107 -0.521787 0.0796658 -0.0239693 -0.0155602 0.0150022 0.100869 -0.0417446 -0.106486 0.0393262 -0.0587617 0.250013 0.172471 -0.0449909 0.0156101 -0.0751706 -0.160408 0.112311 0.0462266 -0.0299141 0.0902568 -0.131914 -0.131922 0.046171 -0.285676 0.101717 0.090049 0.108603
internal_weight=2371 2270 953 101 929 1317 1276 955 380 575 321 269 545 111 88 525 285 147 115 138 110 90 897 44 299 53 41 853 806 714
internal_count=2371 2270 953 101 929 1317 1276 955 380 575 321 269 545 111 88 525 285 147 115 138 110 90 897 44 299 53 41 853 806 714
is_linear=0
shrinkage=0.05


Tree=34
num_leaves=31
num_cat=0
split_feature=17 1 16 17 14 11 24 4 22 31 17 22 11 24 31 4 26 16 22 26 30 18 18 16 14 11 24 31 23 30
split_gain=10457.6 2671.33 1369.42 1262.35 1176.95 1102.11 1417.62 1407.29 1600.48 1127.81 1077.12 1749.91 1233.74 1077.47 890.232 1121.88 1329.24 1071.31 1057.33 932.289 865.418 856.103 852.812 852.889 848.217 802.987 763.898 1009.03 738.671 725.784
threshold=146.50000000000003 7.9871250000000007 186.50000000000003 211.50000000000003 3.5000000000000004 2019.5000000000002 195.30357142857147 651.92708333333337 191.10714285714289 2174.3079293467936 197.50000000000003 192.17857142857147 2020.5000000000002 191.80357142857147 3196.826566684334 686.12291666666681 27982.600000000002 214.50000000000003 197.75000000000003 31432.500000000004 32522.257142857143 175.50000000000003 173.50000000000003 211.50000000000003 4.5000000000000009 2014.5000000000002 191.16071428571431 2167.0810144819611 12.777147223279046 31219.071428571431
decision_type=2 2 2 2 2 2 2 2 2 2 2 2 2 2 2 2 2 2 2 2 2 2 2 2 2 2 2 2 2 2
left_child=4 2 10 5 -1 6 7 8 -4 29 12 -12 13 -2 15 16 17 18 21 -17 22 -3 -9 -24 -11 -23 -18 28 -28 -7
right_child=1 14 3 -5 -6 9 -8 20 -10 24 11 -13 -14 -15 -16 19 26 -19 -20 -21 -22 25 23 -25 -26 -27 27 -29 -30 -31
leaf_value=-0.36457974171964458 -0.11771832587457523 -0.085447680479601815 -0.45570476089205059 0.17973985658522618 -0.74579365798612929 -0.048789646166778354 -0.26505909661762417 -0.222731415526225 -0.013011202398611574 -0.23878290930576626 0.26378166469458109 -0.024938748248861831 0.20855303107259365 0.069782499243051577 -0.16685750537058885 0.31647158521744939 0.11231303999529166 0.40193176015659615 -0.18264201151000128 0.10506424898762377 -0.2797344092102278 -0.088750654937965537 0.099891662398332609 -0.23086856333538891 -0.62405931040644647 0.14042247855959131 -0.13010580106215044 0.0076537254443835648 -0.53983701401474804 -0.37646236598491667
leaf_weight=40 222 57 35 47 41 109 65 26 49 50 107 103 52 117 34 90 34 27 36 124 21 42 271 21 20 425 22 42 22 20
leaf_count=40 222 57 35 47 41 109 65 26 49 50 107 103 52 117 34 90 34 27 36 124 21 42 271 21 20 425 22 42 22 20
internal_value=0.000796816 0.0205458 -0.025129 -0.0709523 -0.55754 -0.088103 -0.0476621 -0.0142559 -0.197467 -0.187275 0.0308349 0.122171 -0.0182204 -0.0530057 0.0843949 0.0936703 0.0633096 0.0943076 0.0794757 0.193974 0.0311415 0.0974838 0.051671 0.0761041 -0.348862 0.119812 -0.088322 -0.167643 -0.334971 -0.0995916
internal_weight=2371 2290 1335 734 81 687 488 423 84 199 601 210 391 339 955 921 707 587 560 214 339 524 318 292 70 467 120 86 44 129
internal_count=2371 2290 1335 734 81 687 488 423 84 199 601 210 391 339 955 921 707 587 560 214 339 524 318 292 70 467 120 86 44 129
is_linear=0
shrinkage=0.05


Tree=35
num_leaves=31
num_cat=0
split_feature=18 1 4 16 1 35 17 5 30 32 4 26 32 31 18 5 5 34 20 31 20 33 31 20 30 30 6 25 24 24
split_gain=12842.7 1985.97 1373.69 1345.41 1825.02 1282.13 1155.52 1052 944.205 974.844 920.103 1123.06 997.043 922.371 919.773 932.37 891.532 875.273 1009.31 833.423 1202.27 940.035 859.327 821.816 813.586 1570.55 1338.18 1112.27 793.601 1171.9
threshold=143.50000000000003 7.3271666666666677 646.25000000000011 207.50000000000003 8.4331041666666682 1357.7986417487796 106.50000000000001 3.874729166666667 21496.04285714286 21819.789285714291 702.38333333333344 32113.300000000003 32346.896428571436 788.6084530859456 214.50000000000003 3.9247708333333331 4.098604166666667 31803.812500000004 189.6428571428572 2332.8971408670645 187.07142857142858 2413.9960686983341 1861.1368868921697 196.92857142857147 22056.021428571432 22522.600000000006 0.21785416666666668 13.14665948901931 190.91071428571431 191.48214285714289
decision_type=2 2 2 2 2 2 2 2 2 2 2 2 2 2 2 2 2 2 2 2 2 2 2 2 2 2 2 2 2 2
left_child=6 19 7 4 5 -4 -1 -3 -7 -10 11 13 -12 -11 15 -9 17 18 -5 20 22 -21 -2 -6 26 -26 -17 -27 -15 -30
right_child=1 2 3 16 23 8 -8 14 9 10 12 -13 -14 28 -16 24 -18 -19 -20 21 -22 -23 -24 -25 25 27 -28 -29 29 -31
leaf_value=-0.94970514595508571 -0.45752803243019369 -0.41368738864315679 0.40886379379034044 0.14808593926091607 0.41975049521116647 0.30837282443090397 -0.51175778108175662 0.31255036816000942 -0.30483690962195398 -0.28477342367172243 0.33160515913256894 -0.10024251220469822 -0.067718959396535702 0.11819019868026177 -0.36742508441209792 0.34822582975029948 0.17861993691390929 0.13603907525539399 -0.18840231073972508 -0.53540281028701708 0.16029015343417141 -0.11418040162987181 -0.024903572086865704 0.054136866602030667 -0.36362902644942419 0.19425360972159789 -0.035347123333245266 -0.1964177159539291 -0.12721519409452828 0.052589484782079213
leaf_weight=20 22 20 25 26 51 34 61 20 20 20 54 134 22 375 20 28 34 34 156 26 34 27 24 22 47 38 121 35 103 754
leaf_count=20 22 20 25 26 51 34 61 20 20 20 54 134 22 375 20 28 34 34 156 26 34 27 24 22 47 38 121 35 103 754
internal_value=-0.00099059 0.0205619 0.0319397 0.048565 0.0652834 0.0537113 -0.619893 -0.0622537 0.0478545 0.0418777 0.0466207 0.0373324 0.216011 0.0520568 -0.0395072 -0.0168139 -0.0593685 -0.0968296 -0.140333 -0.167043 -0.065168 -0.320818 -0.231811 0.309566 -0.041302 -0.138196 0.0367337 0.00694544 0.0575249 0.0309794
internal_weight=2407 2326 2193 1864 1614 1541 81 329 1516 1482 1462 1386 76 1252 309 289 250 216 182 133 80 53 46 73 269 120 149 73 1232 857
internal_count=2407 2326 2193 1864 1614 1541 81 329 1516 1482 1462 1386 76 1252 309 289 250 216 182 133 80 53 46 73 269 120 149 73 1232 857
is_linear=0
shrinkage=0.05


Tree=36
num_leaves=31
num_cat=0
split_feature=1 14 4 1 4 16 30 35 11 35 32 8 24 1 24 4 34 18 30 5 5 3 29 4 17 9 9 23 15 28
